{"learner":{"attributes":{"best_iteration":"299","best_ntree_limit":"300"},"feature_names":[],"feature_types":[],"gradient_booster":{"model":{"gbtree_model_param":{"num_parallel_tree":"1","num_trees":"300","size_leaf_vector":"0"},"tree_info":[0,0,0,0,0,0,0,0,0,0,0,0,0,0,0,0,0,0,0,0,0,0,0,0,0,0,0,0,0,0,0,0,0,0,0,0,0,0,0,0,0,0,0,0,0,0,0,0,0,0,0,0,0,0,0,0,0,0,0,0,0,0,0,0,0,0,0,0,0,0,0,0,0,0,0,0,0,0,0,0,0,0,0,0,0,0,0,0,0,0,0,0,0,0,0,0,0,0,0,0,0,0,0,0,0,0,0,0,0,0,0,0,0,0,0,0,0,0,0,0,0,0,0,0,0,0,0,0,0,0,0,0,0,0,0,0,0,0,0,0,0,0,0,0,0,0,0,0,0,0,0,0,0,0,0,0,0,0,0,0,0,0,0,0,0,0,0,0,0,0,0,0,0,0,0,0,0,0,0,0,0,0,0,0,0,0,0,0,0,0,0,0,0,0,0,0,0,0,0,0,0,0,0,0,0,0,0,0,0,0,0,0,0,0,0,0,0,0,0,0,0,0,0,0,0,0,0,0,0,0,0,0,0,0,0,0,0,0,0,0,0,0,0,0,0,0,0,0,0,0,0,0,0,0,0,0,0,0,0,0,0,0,0,0,0,0,0,0,0,0,0,0,0,0,0,0,0,0,0,0,0,0,0,0,0,0,0,0,0,0,0,0,0,0,0,0,0,0,0,0],"trees":[{"base_weights":[-1.5703524E-2,9.755114E-1,-1.8966917E-2,-7.299772E-2,4.6820324E-2,-9.7760844E-1,-6.698694E-2,2.9772438E-2,5.483071E-1,5.3980017E-1,-7.5250216E-2,-1.7696555E-1,6.0298182E-2,8.6428905E-1,-4.447611E-1,1.0316653E0,-3.093177E-1,-6.6890344E-2,-5.9311944E-1,6.430226E-2,-3.1982058E-1,-4.733927E-1,7.5633176E-2,6.2820756E-1,1.3649949E0,-1.2027717E-1,-1.1768918E-3,-1.1578895E0,-2.8241926E-1,4.857577E-1,-2.4835262E-1,-3.8265258E-1,4.1538918E-1,-0E0,-9.556702E-1,5.9107095E-1,6.376727E-2,1.1216908E0,3.0638343E-1,-1.3812974E-1,5.028984E-1,8.818574E-1,-1.3550707E-2,-7.9738516E-1,2.3739623E-1,5.5767417E-2,9.4628996E-1,-9.077704E-1,8.8901326E-2,3.9104514E-2,-4.9647418E-1,8.86702E-1,-7.5915086E-1,-1.2439111E0,-5.506656E-1,-2.0324622E-1,9.7224385E-1,-1.0172339E-1,1.1729974E-1,7.336036E-1,-1.5430225E-1,-5.905861E-2,-2.8077477E-1,9.3224096E-1,-3.2823637E-2,1.8544583E-1,-6.422937E-2,6.6368103E-1,-3.3479154E-1,-4.3713707E-1,7.663182E-1,-3.9926708E-1,-1.142748E0,4.386535E-1,1.3345466E0,2.8920883E-1,-2.1161786E-1,3.0047476E-1,5.080928E-2],"categories":[],"categories_nodes":[],"categories_segments":[],"categories_sizes":[],"default_left":[1,0,1,1,1,0,1,1,1,1,1,1,1,1,0,0,0,1,1,1,1,1,1,1,0,1,1,0,1,1,1,1,0,1,1,1,1,0,1,1,1,0,1,0,0,0,0,0,1,1,1,0,0,0,0,0,1,1,1,0,0,0,0,0,0,0,0,0,0,0,0,0,0,0,0,0,0,0,0],"id":0,"left_children":[1,-1,3,5,7,-1,9,11,13,15,17,19,21,23,-1,-1,-1,25,27,29,31,33,35,37,-1,39,41,-1,43,45,47,49,-1,51,53,55,57,-1,59,61,63,-1,65,-1,-1,-1,-1,-1,67,69,71,-1,-1,-1,-1,-1,73,75,77,-1,-1,-1,-1,-1,-1,-1,-1,-1,-1,-1,-1,-1,-1,-1,-1,-1,-1,-1,-1],"loss_changes":[1.0527993E1,0E0,1.1608895E1,9.603244E0,1.2520307E1,0E0,8.937149E0,8.991012E0,1.5509491E1,1.03499975E1,7.5260506E0,6.3539667E0,1.016806E1,3.4025154E0,0E0,0E0,0E0,6.0691953E0,4.432563E0,9.181472E0,5.47684E0,7.917128E0,7.3025484E0,3.8379354E0,0E0,1.0663247E1,8.4437475E0,0E0,5.3561616E0,5.7438917E0,9.023092E0,5.189437E0,0E0,1.3028777E1,1.2193851E0,8.400727E0,1.0489861E1,0E0,3.6327949E0,1.0442045E1,6.239893E0,0E0,7.752902E0,0E0,0E0,0E0,0E0,0E0,6.8522587E0,8.452014E0,4.751379E0,0E0,0E0,0E0,0E0,0E0,2.870697E0,1.2473705E1,1.0849957E1,0E0,0E0,0E0,0E0,0E0,0E0,0E0,0E0,0E0,0E0,0E0,0E0,0E0,0E0,0E0,0E0,0E0,0E0,0E0,0E0],"parents":[2147483647,0,0,2,2,3,3,4,4,6,6,7,7,8,8,9,9,10,10,11,11,12,12,13,13,17,17,18,18,19,19,20,20,21,21,22,22,23,23,25,25,26,26,28,28,29,29,30,30,31,31,33,33,34,34,35,35,36,36,38,38,39,39,40,40,42,42,48,48,49,49,50,50,56,56,57,57,58,58],"right_children":[2,-1,4,6,8,-1,10,12,14,16,18,20,22,24,-1,-1,-1,26,28,30,32,34,36,38,-1,40,42,-1,44,46,48,50,-1,52,54,56,58,-1,60,62,64,-1,66,-1,-1,-1,-1,-1,68,70,72,-1,-1,-1,-1,-1,74,76,78,-1,-1,-1,-1,-1,-1,-1,-1,-1,-1,-1,-1,-1,-1,-1,-1,-1,-1,-1,-1],"split_conditions":[3.895E-1,1.4000463E-2,4.595E-1,3.965E-1,4.365E-1,-1.403056E-2,8.705E1,6.1499996E0,5.8500004E0,2.095E1,5.5E0,2.2849998E1,1.7849998E1,8.25E0,-6.3831764E-3,1.48063805E-2,-4.4393037E-3,4.585E-1,9.575E1,-3.05E0,3.5E0,2.305E1,9.5149994E1,1.375E1,1.95903E-2,2.5849998E1,1.55E-1,-1.6617939E-2,3.455E-1,7.685E-1,1.9849998E1,1.245E1,5.9616333E-3,1.825E1,1.515E1,1.705E1,2.0175E2,1.6098417E-2,2.42E1,-4.5E-1,3.415E1,1.2656349E-2,4.035E1,-1.144401E-2,3.407092E-3,8.003696E-4,1.3581079E-2,-1.302825E-2,3.5E0,4.8500004E0,6.05E0,1.2725878E-2,-1.0895274E-2,-1.7852515E-2,-7.90311E-3,-2.916974E-3,7.05E0,2.9150002E1,2.1025E2,1.0528621E-2,-2.214534E-3,-8.476046E-4,-4.0296577E-3,1.337945E-2,-4.7108228E-4,2.661504E-3,-9.218149E-4,9.525099E-3,-4.8049022E-3,-6.273757E-3,1.0998139E-2,-5.73025E-3,-1.640063E-2,6.295521E-3,1.9153308E-2,4.1507026E-3,-3.037123E-3,4.3123905E-3,7.292108E-4],"split_indices":[33,0,33,33,36,0,50,19,20,48,52,43,17,45,0,0,0,7,50,25,52,43,50,18,0,17,3,0,36,39,48,18,0,37,18,9,54,0,43,25,15,0,16,0,0,0,0,0,28,20,20,0,0,0,0,0,45,15,54,0,0,0,0,0,0,0,0,0,0,0,0,0,0,0,0,0,0,0,0],"split_type":[0,0,0,0,0,0,0,0,0,0,0,0,0,0,0,0,0,0,0,0,0,0,0,0,0,0,0,0,0,0,0,0,0,0,0,0,0,0,0,0,0,0,0,0,0,0,0,0,0,0,0,0,0,0,0,0,0,0,0,0,0,0,0,0,0,0,0,0,0,0,0,0,0,0,0,0,0,0,0],"sum_hessian":[3.27325E3,9.75E0,3.2635E3,1.7925E3,1.471E3,1.075E1,1.78175E3,1.42375E3,4.725E1,2.3E1,1.75875E3,1.8225E2,1.2415E3,3.6E1,1.125E1,1.45E1,8.5E0,1.732E3,2.675E1,6.775E1,1.145E2,3.375E1,1.20775E3,2.6E1,1E1,9.545E2,7.775E2,8.5E0,1.825E1,2.875E1,3.9E1,1.06E2,8.5E0,1.75E1,1.625E1,2.6E1,1.18175E3,9.25E0,1.675E1,9.2875E2,2.575E1,9.75E0,7.6775E2,9E0,9.25E0,1.55E1,1.325E1,1.275E1,2.625E1,2.25E1,8.35E1,8E0,9.5E0,8.25E0,8E0,8.5E0,1.75E1,2.8825E2,8.935E2,8.5E0,8.25E0,5.9875E2,3.3E2,1.4E1,1.175E1,1.55E2,6.1275E2,1.1E1,1.525E1,1.375E1,8.75E0,7.4E1,9.5E0,8E0,9.5E0,6.275E1,2.255E2,2.3675E2,6.5675E2],"tree_param":{"num_deleted":"0","num_feature":"55","num_nodes":"79","size_leaf_vector":"0"}},{"base_weights":[-1.0885964E-2,3.7928384E-2,-1.1563509E-1,5.334318E-2,-2.4569789E-1,-1.6646989E-1,9.151082E-2,3.9965266E-1,3.928999E-2,-9.56017E-2,-1.1373206E0,-1.5190168E-1,-8.388587E-1,4.9046057E-1,-3.0481461E-2,9.264526E-1,2.178059E-1,5.0023906E-2,-3.568918E-1,-9.617832E-1,4.0204503E-2,-1.722408E-1,3.848757E-1,7.744576E-1,-1.5947355E-1,-1.0003242E-1,6.655274E-1,1.3792342E0,3.3650294E-1,-1.9266745E-1,4.9536982E-1,8.388004E-2,-8.226951E-2,-7.149212E-1,-0E0,-2.3102547E-1,4.3805173E-1,-1.9298312E-1,2.634114E-1,-2.0032207E-2,1.2007159E0,3.45816E-2,1.1200716E0,-2.764545E-1,2.2863305E-1,1.9001985E-1,-5.4043895E-1,1.2257647E-1,8.639634E-1,7.041829E-2,6.4674664E-1,4.5812854E-1,-1.2679923E-1,-1.0662563E0,4.4062655E-2,3.6624566E-1,-7.348538E-1,1.0203983E-1,-8.245912E-1,9.4520545E-1,8.778994E-2,-3.8686606E-1,-1.4822504E-1,-4.818941E-1,5.069488E-1,6.6197324E-1,-6.621156E-1,7.733544E-1,1.3912863E0,-1.5121464E-1,-1.0564908E0,8.356155E-1,-0E0,6.943061E-1,-4.953471E-1,3.3606467E-1,1.3529176E0,7.91816E-2,-4.730153E-1,-4.1847523E-2,8.8784367E-1,1.4052422E-1,1.0467455E0,-1.5342936E-1,6.120906E-1,-5.9429693E-1,-1.4598709E0,-8.930919E-2,7.9602265E-1,-3.0957353E-1,7.12368E-1,-1.5694073E0,-8.766199E-2,7.5276166E-1,-5.4850006E-1,8.182207E-2,-4.7881377E-1,2.5915426E-1,-1.8138126E-1,9.520912E-1,-1.16137855E-1,3.1665884E-2,-6.9619817E-1,5.244806E-1,-3.0577302E-1,5.660038E-3,1.5118583E-1,-2.89178E-2,-1.0479925E0,3.5304996E-1,1.1226438E0,8.4277076E-1,-5.989616E-1,-1.06968544E-1,-6.1342907E-1,-7.2357446E-1,1.3315704E-1,7.2938526E-1,-3.824774E-1,-7.0781213E-1,-2.200348E-1,4.9855614E-1,-3.812462E-1,-1.9970994E-1,6.383046E-1,5.700231E-1,-1.7366691E-1,-1.0822201E0,-1.4502898E-1,2.1673672E-1,-7.107698E-1],"categories":[],"categories_nodes":[],"categories_segments":[],"categories_sizes":[],"default_left":[1,1,1,1,1,1,1,1,1,1,0,1,0,1,1,1,1,1,1,0,1,1,1,1,0,1,0,0,0,1,1,1,1,1,1,1,1,1,1,1,0,0,1,1,1,0,0,1,1,1,1,1,1,1,0,1,0,1,1,0,1,1,1,0,1,0,0,1,1,1,0,0,1,0,0,0,0,1,1,0,1,1,0,1,0,0,0,0,0,1,0,0,0,0,0,1,1,1,1,0,0,1,1,0,1,0,0,0,0,0,0,0,0,0,0,0,0,0,0,0,0,0,0,0,0,0,0,0,0,0,0],"id":1,"left_children":[1,3,5,7,9,11,13,15,17,19,-1,21,-1,23,25,27,29,31,33,-1,35,37,39,41,-1,43,-1,-1,-1,45,47,49,51,53,55,57,59,61,63,65,-1,-1,-1,69,71,-1,-1,73,75,77,79,81,83,85,-1,87,-1,89,91,-1,93,95,97,-1,99,-1,-1,-1,-1,101,-1,-1,103,-1,-1,-1,-1,105,107,-1,109,111,-1,113,-1,-1,-1,-1,-1,115,-1,-1,-1,-1,-1,117,119,121,123,-1,-1,125,127,-1,129,-1,-1,-1,-1,-1,-1,-1,-1,-1,-1,-1,-1,-1,-1,-1,-1,-1,-1,-1,-1,-1,-1,-1,-1,-1,-1],"loss_changes":[1.6520857E1,9.626172E0,1.08367815E1,1.0120947E1,1.497554E1,7.8841496E0,9.916483E0,7.4933567E0,8.538166E0,1.1661994E1,0E0,8.877882E0,0E0,8.966408E0,7.562452E0,4.882139E0,7.1409655E0,8.775942E0,6.765895E0,0E0,9.356482E0,7.093508E0,9.924993E0,8.415018E0,0E0,8.335606E0,0E0,0E0,0E0,3.5087266E0,4.927541E0,1.1717375E1,9.625772E0,7.1763506E0,7.6298137E0,1.030563E1,6.085165E0,6.3727684E0,6.704507E0,9.461331E0,0E0,0E0,9.5285416E-1,8.877579E0,6.927481E0,0E0,0E0,7.287485E0,4.193061E0,7.2626057E0,6.111517E0,5.4522934E0,7.3177595E0,2.3997211E0,0E0,3.830957E0,0E0,8.698751E0,9.985053E0,0E0,9.677976E0,6.056656E0,8.245052E0,0E0,7.780022E0,0E0,0E0,0E0,0E0,8.216716E0,0E0,0E0,6.160473E0,0E0,0E0,0E0,0E0,7.9343624E0,6.05518E0,0E0,2.889841E0,1.1356361E1,0E0,7.517623E0,0E0,0E0,0E0,0E0,0E0,3.928887E0,0E0,0E0,0E0,0E0,0E0,7.3316474E0,6.6771603E0,7.2274075E0,8.534967E0,0E0,0E0,6.9706764E0,4.1509E0,0E0,5.300643E0,0E0,0E0,0E0,0E0,0E0,0E0,0E0,0E0,0E0,0E0,0E0,0E0,0E0,0E0,0E0,0E0,0E0,0E0,0E0,0E0,0E0,0E0,0E0,0E0,0E0,0E0],"parents":[2147483647,0,0,1,1,2,2,3,3,4,4,5,5,6,6,7,7,8,8,9,9,11,11,13,13,14,14,15,15,16,16,17,17,18,18,20,20,21,21,22,22,23,23,25,25,29,29,30,30,31,31,32,32,33,33,34,34,35,35,36,36,37,37,38,38,39,39,42,42,43,43,44,44,47,47,48,48,49,49,50,50,51,51,52,52,53,53,55,55,57,57,58,58,60,60,61,61,62,62,64,64,69,69,72,72,77,77,78,78,80,80,81,81,83,83,89,89,95,95,96,96,97,97,98,98,101,101,102,102,104,104],"right_children":[2,4,6,8,10,12,14,16,18,20,-1,22,-1,24,26,28,30,32,34,-1,36,38,40,42,-1,44,-1,-1,-1,46,48,50,52,54,56,58,60,62,64,66,-1,-1,-1,70,72,-1,-1,74,76,78,80,82,84,86,-1,88,-1,90,92,-1,94,96,98,-1,100,-1,-1,-1,-1,102,-1,-1,104,-1,-1,-1,-1,106,108,-1,110,112,-1,114,-1,-1,-1,-1,-1,116,-1,-1,-1,-1,-1,118,120,122,124,-1,-1,126,128,-1,130,-1,-1,-1,-1,-1,-1,-1,-1,-1,-1,-1,-1,-1,-1,-1,-1,-1,-1,-1,-1,-1,-1,-1,-1,-1,-1],"split_conditions":[1.145E1,1.355E1,8.85E0,1.055E-1,7.8500004E0,2.525E1,4.085E1,4.1499996E0,4.5E0,6.825E-1,-1.6322738E-2,2.4349998E1,-1.2039235E-2,1.045E1,3.635E1,4.7750002E-1,4.515E-1,8.7850006E1,2.245E1,-1.3803437E-2,2.145E1,8.95E0,3.5E0,8.05E0,-2.288752E-3,2.125E1,9.551598E-3,1.9794662E-2,4.829464E-3,2.1150002E1,4.6499996E0,1.1755E2,2.025E1,1.09350006E2,4.15E0,1.1E0,7.3399997E-1,3.565E1,4.95E0,3.055E1,1.723258E-2,4.9631245E-4,1.607518E-2,4.895E1,1.345E1,2.72715E-3,-7.7563375E-3,8E-2,5.855E-1,4.315E1,1.0675E2,8.55E0,2.9150002E1,2.35E1,6.323838E-4,2.225E1,-1.0546564E-2,7.55E0,5.3500004E0,1.3565515E-2,2.245E1,6.05E0,8.0649994E1,-6.9161067E-3,4.45E0,9.500588E-3,-9.502631E-3,1.1099122E-2,1.9967632E-2,2.1849998E1,-1.5162674E-2,1.1992689E-2,2.06E1,9.964626E-3,-7.1091834E-3,4.823174E-3,1.9416967E-2,2.0425E2,4.34E1,-6.005924E-4,7.705E-1,1.005E1,1.5022811E-2,3.745E1,8.784676E-3,-8.529304E-3,-2.0951955E-2,-1.2817585E-3,1.1424455E-2,9.95E0,1.0223851E-2,-2.2524012E-2,-1.2581181E-3,1.0803577E-2,-7.87203E-3,2.025E1,2.0650002E1,2.0650002E1,3.785E1,1.3664339E-2,-1.6668014E-3,9.15E0,2.325E1,7.5273043E-3,1.515E1,8.123242E-5,2.1698072E-3,-4.1502604E-4,-1.5040706E-2,5.0669457E-3,1.6112097E-2,1.2095381E-2,-8.59625E-3,-1.5352042E-3,-8.803886E-3,-1.0384684E-2,1.9110595E-3,1.0468081E-2,-5.489286E-3,-1.0158464E-2,-3.1579223E-3,7.1552387E-3,-5.471616E-3,-2.8662214E-3,9.160898E-3,8.1809275E-3,-2.492454E-3,-1.55319385E-2,-2.0814445E-3,3.1105885E-3,-1.0200912E-2],"split_indices":[40,14,45,29,51,23,16,20,52,13,0,22,0,14,15,3,7,32,38,0,23,51,1,14,0,23,0,0,0,48,21,50,17,24,51,25,13,31,46,15,0,0,22,30,18,0,0,29,3,31,24,45,17,9,0,43,0,45,21,0,23,45,32,0,47,0,0,2147483647,2147483647,48,0,0,43,0,0,0,0,54,16,0,13,40,0,15,0,0,0,0,0,40,0,0,0,0,0,22,22,37,15,0,0,45,48,0,18,0,0,0,0,0,0,0,0,0,0,0,0,0,0,0,0,0,0,0,0,0,0,0,0,0,0],"split_type":[0,0,0,0,0,0,0,0,0,0,0,0,0,0,0,0,0,0,0,0,0,0,0,0,0,0,0,0,0,0,0,0,0,0,0,0,0,0,0,0,0,0,0,0,0,0,0,0,0,0,0,0,0,0,0,0,0,0,0,0,0,0,0,0,0,0,0,0,0,0,0,0,0,0,0,0,0,0,0,0,0,0,0,0,0,0,0,0,0,0,0,0,0,0,0,0,0,0,0,0,0,0,0,0,0,0,0,0,0,0,0,0,0,0,0,0,0,0,0,0,0,0,0,0,0,0,0,0,0,0,0],"sum_hessian":[3.2279849E3,2.201739E3,1.0262458E3,2.08924E3,1.1249917E2,8.2449664E2,2.0174919E2,8.0249504E1,2.0089905E3,9.7249306E1,1.5249858E1,8.0824677E2,1.624986E1,4.6749783E1,1.5499942E2,1.9499897E1,6.0749607E1,1.9569911E3,5.1999382E1,1.24999075E1,8.47494E1,7.7949695E2,2.8749838E1,3.2499878E1,1.42499075E1,1.4174944E2,1.3249979E1,1.0249946E1,9.249952E0,2.4499798E1,3.624981E1,1.5589921E3,3.9799902E2,2.5499659E1,2.6499723E1,5.049968E1,3.424972E1,7.447472E2,3.474978E1,1.9749851E1,8.999987E0,1.07499485E1,2.1749928E1,9.24997E1,4.924973E1,1.1749858E1,1.274994E1,1.8749907E1,1.7499905E1,1.5237423E3,3.5249767E1,2.9499794E1,3.684992E2,1.7249704E1,8.249953E0,1.7999779E1,8.499945E0,3.2749763E1,1.7749916E1,1.3249844E1,2.0999878E1,1.3799911E2,6.0674805E2,8.249943E0,2.6499838E1,9.49991E0,1.024994E1,1.1249978E1,1.0499949E1,8.074976E1,1.1749942E1,1.2749958E1,3.649977E1,9.749927E0,8.999979E0,9.249928E0,8.249976E0,1.5004924E3,2.324986E1,9.249914E0,2.5999853E1,1.9999872E1,9.499923E0,3.564992E2,1.1999995E1,8.99981E0,8.249895E0,8.999829E0,8.999949E0,1.9749866E1,1.2999895E1,8.249965E0,9.499951E0,1.0249934E1,1.0749944E1,2.2499846E1,1.1549927E2,4.4999695E1,5.6174835E2,1.5249899E1,1.1249938E1,6.0999813E1,1.974995E1,1.32499075E1,2.3249863E1,7.434952E2,7.5699725E2,1.3749915E1,9.499947E0,8.749986E0,1.7249866E1,1.0249953E1,9.749919E0,3.2499933E2,3.1499887E1,9.999904E0,9.749963E0,9.249926E0,1.324992E1,6.024958E1,5.5249683E1,3.299977E1,1.1999923E1,5.502484E2,1.1499966E1,1.649995E1,4.4499863E1,1.099998E1,8.74997E0,1.0249928E1,1.2999935E1],"tree_param":{"num_deleted":"2","num_feature":"55","num_nodes":"131","size_leaf_vector":"0"}},{"base_weights":[-2.1133976E-2,-5.009599E-2,1.0115073E-1,-1.5491544E-1,-4.057851E-3,1.9646077E-1,-1.12402074E-1,9.3155794E-2,-2.1123846E-1,1.4835867E-1,-3.7608143E-2,1.6911604E-1,9.959285E-1,-1.6900602E-1,5.515884E-1,2.2712287E-1,-5.8378714E-1,-1.6189304E-1,-4.5274505E-1,1.09677546E-1,8.3957356E-1,-2.480558E-1,-1.5531412E-2,1.950294E-1,-6.648375E-1,-5.3629365E-2,-5.0195414E-1,3.135231E-1,-5.357486E-1,3.3121765E-2,-1.1091805E0,-7.2707313E-1,-1.3857906E-1,-6.647863E-1,-1.6382869E-1,-3.8752273E-1,1.7142744E-1,-7.0311594E-1,-1.0721563E-1,1.6696337E-1,-5.730522E-2,-2.5665231E-2,2.8827336E-1,3.1220353E-1,-2.0091754E-1,-8.527001E-1,5.0324563E-2,7.2130966E-1,1.6486175E-1,-1.1432699E0,-2.9048905E-1,-1.7904933E-1,2.3047228E-1,-2.0703839E-1,-8.755164E-1,-4.2694247E-1,4.2448092E-1,-6.7923003E-1,2.5376624E-1,-2.581267E-1,2.2791182E-1,-1.2855836E0,-3.8705108E-1,-1.7487137E-2,-9.96446E-1,2.3501724E-1,-4.5261294E-1,-1.4142667E-1,3.381541E-2,4.6554323E-2,-9.18881E-1,5.7569045E-1,1.9933496E-1,6.00492E-1,-2.0015068E-1,-9.596905E-1,-7.5177826E-2,-1.1142099E0,-2.4407326E-1,-5.582733E-1,6.627653E-1,1.1035194E0,2.0956765E-1,-8.696244E-1,2.97112E-1,-2.2246045E-1,2.725581E-1,-4.1037014E-1,4.1405958E-1,-6.0938436E-1,3.7149388E-1,-1.5011071E0,-6.644967E-1,1.1789239E-1,-9.021526E-1,-1.0485373E0,-9.093067E-2,1.5710127E-1,-9.997326E-1,-2.0619866E-1,3.2523873E-1,1.5643701E-1,-9.5402056E-1,-4.3782303E-1,1.09768406E-1,7.581896E-1,1.6749594E-1,-0E0,-1.0677311E0,-1.5971135E-1,8.545896E-1,-3.291401E-1,1.04681775E-1,-6.654088E-1,1.1890246E-1,3.8737407E-1,1.1988444E0,7.661429E-1,1.223671E-1,1.4910665E-1,1.0023015E0,9.1830254E-1,-1.9705449E-1,-7.2984344E-1,-1.3489274E0,6.45854E-1,-2.3678036E-2,6.9463307E-1,-2.4537858E-1,7.590411E-1,-3.748856E-1,7.6315296E-1,-8.0375865E-2,-1.3342974E-1,-1.0095226E0,-3.0738372E-1,-1.3864119E0,-3.0133498E-1,7.631031E-1,8.3876324E-1,-4.6829435E-1,6.112833E-1,1.339812E-1,1.4021511E-1,-8.232475E-1,4.7385135E-1,-5.2291892E-2,1.4081978E0,1.9696908E-1,1.2584853E-1,1.0271332E0,-1.1806636E-1,-4.631418E-1,3.107155E-1,-5.626669E-1,1.4399508E-1,-3.884411E-1,3.5859784E-3,5.679533E-1,2.441518E-1,9.061711E-1,1.398215E0,3.4850955E-1,6.110247E-1,5.137734E-2,-4.6281907E-1,1.2992205E-1],"categories":[],"categories_nodes":[],"categories_segments":[],"categories_sizes":[],"default_left":[1,1,1,1,1,1,1,1,1,1,1,1,0,1,0,1,1,1,1,1,0,1,1,1,0,1,1,1,0,0,0,1,1,1,1,1,1,1,1,1,1,1,1,1,1,1,1,1,1,0,0,1,1,1,1,1,0,1,0,1,1,0,1,1,0,1,1,1,1,1,0,1,1,1,0,0,1,1,0,0,0,0,0,0,1,1,1,0,1,0,0,0,1,0,1,0,0,1,0,1,1,0,0,1,1,1,1,0,0,1,0,1,1,0,1,1,0,1,1,0,0,0,1,1,1,0,0,0,0,0,0,0,0,0,0,0,0,0,0,0,0,0,0,0,0,0,0,0,0,0,0,0,0,0,0,0,0,0,0,0,0,0,0,0,0,0,0],"id":2,"left_children":[1,3,5,7,9,11,13,15,17,19,21,23,-1,25,-1,27,29,31,33,35,-1,37,39,41,-1,43,45,47,-1,-1,-1,49,51,53,55,57,59,61,63,65,67,69,71,73,75,77,79,81,83,-1,-1,85,87,89,91,93,-1,95,-1,97,99,-1,101,103,-1,105,107,109,111,113,-1,115,117,119,-1,-1,121,-1,-1,-1,-1,-1,-1,-1,125,127,129,-1,131,-1,-1,-1,133,-1,135,-1,-1,137,-1,139,141,-1,-1,143,145,147,149,-1,-1,151,-1,153,155,-1,157,159,-1,161,163,-1,-1,-1,165,-1,-1,-1,-1,-1,-1,-1,-1,-1,-1,-1,-1,-1,-1,-1,-1,-1,-1,-1,-1,-1,-1,-1,-1,-1,-1,-1,-1,-1,-1,-1,-1,-1,-1,-1,-1,-1,-1,-1,-1,-1,-1,-1,-1],"loss_changes":[1.1488999E1,1.2648184E1,1.2665561E1,1.1208216E1,9.326462E0,9.144693E0,7.2677526E0,1.3553536E1,7.6584873E0,8.629352E0,6.927784E0,9.090803E0,0E0,6.7537E0,0E0,8.354871E0,8.122703E0,6.997678E0,6.5637913E0,9.643199E0,0E0,8.942199E0,1.0336457E1,8.366728E0,0E0,7.224734E0,8.906675E0,6.646044E0,0E0,0E0,0E0,3.4197044E0,7.851596E0,5.811054E0,7.587055E0,6.682534E0,6.819585E0,5.5059795E0,8.629818E0,1.0723773E1,8.479008E0,7.9135337E0,7.1182957E0,5.8209524E0,8.974544E0,4.0787144E0,7.2203884E0,5.479991E0,1.1673758E1,0E0,0E0,9.3137865E0,6.267172E0,5.1593924E0,4.5269737E0,8.883839E0,0E0,5.0687876E0,0E0,1.027882E1,1.0515451E1,0E0,7.270212E0,5.443899E0,0E0,7.864888E0,7.015075E0,1.0538664E1,1.3656282E1,5.831435E0,0E0,7.260702E0,9.411158E0,4.285858E0,0E0,0E0,1.0178538E1,6.4253235E-1,0E0,0E0,0E0,0E0,0E0,0E0,8.476631E0,9.193369E0,1.3423187E1,0E0,7.178371E0,0E0,0E0,0E0,5.949913E0,0E0,4.6981173E0,0E0,0E0,6.274278E0,0E0,1.2843313E1,1.0935797E1,0E0,0E0,5.439431E0,4.6415195E0,8.975089E0,7.066337E0,0E0,0E0,7.045371E0,0E0,1.3134838E1,8.651924E0,0E0,5.292971E0,3.6123686E0,0E0,6.2456036E0,6.6598854E0,0E0,0E0,0E0,6.5947247E0,0E0,0E0,0E0,0E0,0E0,0E0,0E0,0E0,0E0,0E0,0E0,0E0,0E0,0E0,0E0,0E0,0E0,0E0,0E0,0E0,0E0,0E0,0E0,0E0,0E0,0E0,0E0,0E0,0E0,0E0,0E0,0E0,0E0,0E0,0E0,0E0,0E0,0E0,0E0,0E0,0E0,0E0,0E0,0E0],"parents":[2147483647,0,0,1,1,2,2,3,3,4,4,5,5,6,6,7,7,8,8,9,9,10,10,11,11,13,13,15,15,16,16,17,17,18,18,19,19,21,21,22,22,23,23,25,25,26,26,27,27,31,31,32,32,33,33,34,34,35,35,36,36,37,37,38,38,39,39,40,40,41,41,42,42,43,43,44,44,45,45,46,46,47,47,48,48,51,51,52,52,53,53,54,54,55,55,57,57,59,59,60,60,62,62,63,63,65,65,66,66,67,67,68,68,69,69,71,71,72,72,73,73,76,76,77,77,84,84,85,85,86,86,88,88,92,92,94,94,97,97,99,99,100,100,103,103,104,104,105,105,106,106,109,109,111,111,112,112,114,114,115,115,117,117,118,118,122,122],"right_children":[2,4,6,8,10,12,14,16,18,20,22,24,-1,26,-1,28,30,32,34,36,-1,38,40,42,-1,44,46,48,-1,-1,-1,50,52,54,56,58,60,62,64,66,68,70,72,74,76,78,80,82,84,-1,-1,86,88,90,92,94,-1,96,-1,98,100,-1,102,104,-1,106,108,110,112,114,-1,116,118,120,-1,-1,122,-1,-1,-1,-1,-1,-1,-1,126,128,130,-1,132,-1,-1,-1,134,-1,136,-1,-1,138,-1,140,142,-1,-1,144,146,148,150,-1,-1,152,-1,154,156,-1,158,160,-1,162,164,-1,-1,-1,166,-1,-1,-1,-1,-1,-1,-1,-1,-1,-1,-1,-1,-1,-1,-1,-1,-1,-1,-1,-1,-1,-1,-1,-1,-1,-1,-1,-1,-1,-1,-1,-1,-1,-1,-1,-1,-1,-1,-1,-1,-1,-1,-1,-1],"split_conditions":[3.875E-1,2.1650002E1,1.155E1,9.05E0,2.5E0,5.1750004E-1,8.25E0,4.605E1,2.5E0,4.745E1,1.905E1,3.0150002E1,1.4293489E-2,2.5E0,7.916354E-3,5.25E0,4.5E0,2.885E-1,4.325E1,3.035E-1,1.2049494E-2,1.6150002E1,8.0149994E1,9.15E0,-9.541696E-3,3.255E-1,3.515E-1,3.275E-1,-7.689022E-3,4.7536098E-4,-1.5918871E-2,1.115E1,6.25E0,2.075E1,1.495E1,2.675E1,5E-1,3.465E1,8.09E-1,1.6650002E1,3.925E1,1.235E1,8.095E1,4.7750002E-1,5.3500004E0,7.07E-1,2.2349998E1,2.255E1,1.955E1,-1.6408121E-2,-4.169076E-3,3.995E-1,9.755E1,5.25E0,9.63E1,2.295E1,6.092117E-3,3.665E1,3.6420333E-3,6.1800003E-1,2.0150002E1,-1.8450595E-2,1.825E1,1.745E1,-1.4300915E-2,3.115E-1,2.5849998E1,3.855E-1,4.195E1,3.865E1,-1.3187708E-2,8.55E0,8.05E0,7.55E0,-2.872547E-3,-1.3773403E-2,3.35E0,-1.5991053E-2,-3.5029203E-3,-8.012295E-3,9.511956E-3,1.5837625E-2,3.0076986E-3,-1.2480781E-2,4.285E1,5.5E0,1.045E1,-5.8896E-3,5.25E0,-8.745837E-3,5.3316513E-3,-2.1543773E-2,8.525E1,1.6919824E-3,1.093E2,-1.5048525E-2,-1.3050298E-3,3.595E1,-1.4348085E-2,2.5E0,1.91E-1,2.2451717E-3,-1.3692029E-2,5.6499996E0,1.8150002E1,1.405E1,6.55E0,-0E0,-1.5323994E-2,2.825E1,1.2265003E-2,3.985E1,1.375E1,-9.549895E-3,4.985E-1,9.25E0,1.7205723E-2,4.365E-1,1.00850006E2,2.139967E-3,1.4384952E-2,1.31794065E-2,4.455E1,-1.0474656E-2,-1.93597E-2,9.269246E-3,-3.3982535E-4,9.969319E-3,-3.5216543E-3,1.0893698E-2,-5.3803287E-3,1.0952712E-2,-1.1535481E-3,-1.9149731E-3,-1.4488589E-2,-4.411547E-3,-1.9897675E-2,-4.324736E-3,1.0951997E-2,1.2037865E-2,-6.7209243E-3,8.77309E-3,1.9228877E-3,2.0123564E-3,-1.1815184E-2,6.8006776E-3,-7.504892E-4,2.0210344E-2,2.8268849E-3,1.8061684E-3,1.4741336E-2,-1.6944793E-3,-6.646975E-3,4.459365E-3,-8.075352E-3,2.0666062E-3,-5.574876E-3,5.1465682E-5,8.151221E-3,3.5040476E-3,1.3005297E-2,2.0067073E-2,5.001782E-3,8.769379E-3,7.373636E-4,-6.642343E-3,1.8646311E-3],"split_indices":[10,12,40,40,1,7,51,16,53,16,43,12,0,52,0,25,28,10,16,36,0,9,6,14,0,36,36,10,0,0,0,14,20,9,44,12,1,31,3,44,5,25,6,29,34,3,43,38,9,0,0,36,50,46,24,38,0,5,0,29,43,0,43,43,0,36,38,10,16,42,0,34,40,19,0,0,21,38,0,0,0,0,0,0,16,0,14,0,46,0,0,0,6,0,50,0,0,5,0,28,3,0,0,34,43,44,47,0,0,12,0,16,14,0,7,8,0,29,24,0,0,0,42,2147483647,2147483647,0,0,0,0,0,0,0,0,0,0,0,0,0,0,0,0,0,0,0,0,0,0,0,0,0,0,0,0,0,0,0,0,0,0,0,0,0,0,0,0,0,0],"split_type":[0,0,0,0,0,0,0,0,0,0,0,0,0,0,0,0,0,0,0,0,0,0,0,0,0,0,0,0,0,0,0,0,0,0,0,0,0,0,0,0,0,0,0,0,0,0,0,0,0,0,0,0,0,0,0,0,0,0,0,0,0,0,0,0,0,0,0,0,0,0,0,0,0,0,0,0,0,0,0,0,0,0,0,0,0,0,0,0,0,0,0,0,0,0,0,0,0,0,0,0,0,0,0,0,0,0,0,0,0,0,0,0,0,0,0,0,0,0,0,0,0,0,0,0,0,0,0,0,0,0,0,0,0,0,0,0,0,0,0,0,0,0,0,0,0,0,0,0,0,0,0,0,0,0,0,0,0,0,0,0,0,0,0,0,0,0,0],"sum_hessian":[3.2429578E3,2.6229658E3,6.19992E2,7.992412E2,1.8237246E3,4.2899545E2,1.9099654E2,1.474983E2,6.517429E2,3.2799466E2,1.49573E3,4.159956E2,1.2999835E1,1.76747E2,1.4249532E1,1.2374871E2,2.3749598E1,5.427443E2,1.0899857E2,3.117452E2,1.624946E1,1.4074796E2,1.354982E3,4.042458E2,1.1749838E1,1.3224799E2,4.4499012E1,1.1174875E2,1.199996E1,1.1249771E1,1.2499826E1,2.0249727E1,5.2249457E2,6.1999134E1,4.6999435E1,3.374929E1,2.779959E2,3.2249557E1,1.084984E2,2.5149649E2,1.1034856E3,1.1999894E2,2.8424683E2,3.7499363E1,9.474862E1,2.699933E1,1.7499683E1,2.87496E1,8.2999146E1,9.499872E0,1.0749856E1,4.7149515E2,5.099946E1,2.024971E1,4.1749428E1,3.2749607E1,1.4249831E1,2.3249533E1,1.0499757E1,3.1749552E1,2.4624635E2,1.0249765E1,2.1999794E1,9.949858E1,8.999813E0,2.2724695E2,2.4249542E1,5.739918E2,5.294938E2,1.1174901E2,8.249933E0,6.574921E1,2.1849763E2,2.3999563E1,1.3499801E1,1.2499779E1,8.224884E1,1.8249619E1,8.749711E0,8.749838E0,8.7498455E0,1.5749806E1,1.2999792E1,8.749869E0,7.424928E1,4.3074576E2,4.074938E1,1.0999862E1,3.9999596E1,1.1999825E1,8.249885E0,8.999872E0,3.2749554E1,1.54998255E1,1.724978E1,1.3749793E1,9.49974E0,2.0749712E1,1.099984E1,4.474946E1,2.014969E2,1.1499898E1,1.0499896E1,2.2749693E1,7.6748886E1,2.474966E1,2.0249728E2,1.4499696E1,9.749846E0,5.6449207E2,9.499765E0,8.574913E1,4.4374463E2,9.49984E0,1.0224917E2,5.1749428E1,1.3999779E1,2.4999605E1,1.9349803E2,1.199979E1,1.1999773E1,8.249888E0,7.3998955E1,8.499836E0,9.7497835E0,3.5249657E1,3.8999622E1,9.7498045E0,4.2099594E2,2.3249548E1,1.7499828E1,2.3249744E1,1.6749851E1,1.3499866E1,1.924969E1,8.499846E0,8.749934E0,1.1999851E1,8.74986E0,8.499889E0,3.624957E1,7.974888E1,1.2174802E2,9.249837E0,1.3499857E1,2.3249569E1,5.349932E1,1.0749813E1,1.3999847E1,1.9424742E2,8.249856E0,4.9774313E2,6.674889E1,2.2749763E1,6.2999363E1,4.1174582E2,3.1998835E1,8.22493E1,1.9999866E1,4.1749596E1,9.99983E0,8.999858E0,1.5999747E1,2.3499733E1,1.6999829E2,4.0749306E1,3.324965E1],"tree_param":{"num_deleted":"2","num_feature":"55","num_nodes":"167","size_leaf_vector":"0"}},{"base_weights":[-1.3071668E-2,-2.1250736E-2,4.466116E-1,1.835684E-2,-1.0484846E-1,3.0698296E-2,8.487776E-1,3.673994E-1,4.6465187E-3,2.5514886E-2,-1.5988804E-1,-3.4757784E-1,7.9559726E-1,1.186648E0,2.1381395E-1,1.4105178E-1,7.895407E-1,-2.8590819E-2,1.4478077E-1,6.0107194E-2,-9.041768E-1,-1.7919105E-1,6.265254E-1,-8.401672E-1,7.967201E-2,7.280036E-1,1.5661889E0,7.0579326E-1,-2.353009E-2,-0E0,1.2248402E0,-1.747539E-2,-6.1572206E-1,-5.5508363E-1,1.721389E-1,1.4799237E-1,-2.953957E-1,-2.1070562E-1,2.4675247E-1,1.0250978E0,1.5548667E-1,2.9335764E-1,-8.529392E-1,7.25709E-1,1.5849946E0,-5.5845924E-2,1.4044705E-1,-8.804846E-1,4.820785E-2,2.0806599E-1,-3.6474413E-1,2.9697284E-1,-6.1989855E-2,-5.699082E-1,1.2186549E-1,-1.695518E-1,-5.931215E-1,-1.9941652E-1,5.8484983E-1,9.109189E-1,-7.197281E-2,-2.7506495E-1,-9.865141E-3,2.9480493E-1,-1.5629123E-1,-4.2539352E-1,-1.1636205E0,-5.419147E-1,2.3097834E-1,3.5286364E-1,-7.914783E-1,3.7638658E-1,-2.3063594E-1,-4.43089E-1,1.2867266E-1,7.288841E-2,-9.020833E-1,8.3949995E-1,-3.185683E-1,-2.1002494E-1,1.3786347E-1,-8.884537E-1,-1.4528142E-1,1.4663635E-1,-6.9470805E-1,7.649286E-2,9.260974E-1,3.2340586E-1,-5.610397E-1,-5.373827E-1,-1.21132776E-1,1.4237386E-2,-5.288161E-1,2.4859191E-1,1.2614275E0,-2.5110528E-1,9.137117E-1,2.6139453E-1,-2.137245E-1,5.3804857E-1,-9.580975E-3,1.5044674E-1,-5.8902603E-1,1.9943987E-1,-9.1994816E-1,-1.3670227E-1,4.8226592E-1,-1.2485254E0,-5.035151E-1,-3.291539E-1,-9.4286025E-2,4.1340283E-1,-5.183141E-1,-1.1766984E0,-4.043965E-1,4.1641983E-1,-5.018505E-1],"categories":[],"categories_nodes":[],"categories_segments":[],"categories_sizes":[],"default_left":[1,1,1,1,1,1,1,1,1,1,1,1,0,1,0,1,1,1,1,1,0,1,1,0,0,0,0,0,1,0,1,1,1,0,1,1,1,1,1,0,0,1,0,0,0,1,1,1,0,1,1,1,1,1,1,1,1,1,1,0,1,1,1,1,1,0,0,0,1,0,0,1,1,1,1,0,1,0,0,1,1,1,1,0,0,0,0,0,0,0,0,0,0,0,0,0,0,0,0,0,0,0,0,0,0,0,0,0,0,0,0,0,0,0,0,0,0],"id":3,"left_children":[1,3,5,7,9,11,13,15,17,19,21,23,-1,25,-1,27,29,31,33,35,-1,37,39,-1,-1,-1,-1,-1,41,-1,43,45,47,-1,49,51,53,55,57,-1,-1,59,-1,-1,-1,61,63,65,-1,67,69,71,73,75,77,79,81,83,85,-1,87,89,91,93,95,-1,-1,-1,97,-1,-1,99,101,103,105,-1,107,-1,-1,109,111,113,115,-1,-1,-1,-1,-1,-1,-1,-1,-1,-1,-1,-1,-1,-1,-1,-1,-1,-1,-1,-1,-1,-1,-1,-1,-1,-1,-1,-1,-1,-1,-1,-1,-1,-1],"loss_changes":[1.2191839E1,1.0585031E1,9.38204E0,1.033918E1,7.388562E0,8.663837E0,5.799385E0,7.6226006E0,9.732481E0,9.801958E0,1.1044203E1,4.319707E0,0E0,1.9576187E0,0E0,5.1312275E0,9.704624E0,1.094594E1,7.728114E0,9.258112E0,0E0,9.530931E0,3.0249667E0,0E0,0E0,0E0,0E0,0E0,1.1561241E1,0E0,2.006689E0,1.0038737E1,5.5892754E0,0E0,7.5107517E0,7.471902E0,6.8229957E0,1.0208593E1,7.520896E0,0E0,0E0,7.2778015E0,0E0,0E0,0E0,1.341914E1,1.4879745E1,2.2971897E0,0E0,6.326375E0,7.7760797E0,5.9345303E0,7.285401E0,7.748293E0,7.854435E0,7.45035E0,8.182306E0,3.8557873E0,4.738161E0,0E0,4.1864653E0,9.208878E0,1.3857843E1,9.1161995E0,1.14361315E1,0E0,0E0,0E0,4.8294697E0,0E0,0E0,7.641144E0,2.6698418E0,1.04724045E1,6.3466067E0,0E0,2.5392513E0,0E0,0E0,7.207556E0,1.2787507E1,4.7177296E0,5.49389E0,0E0,0E0,0E0,0E0,0E0,0E0,0E0,0E0,0E0,0E0,0E0,0E0,0E0,0E0,0E0,0E0,0E0,0E0,0E0,0E0,0E0,0E0,0E0,0E0,0E0,0E0,0E0,0E0,0E0,0E0,0E0,0E0,0E0,0E0],"parents":[2147483647,0,0,1,1,2,2,3,3,4,4,5,5,6,6,7,7,8,8,9,9,10,10,11,11,13,13,15,15,16,16,17,17,18,18,19,19,21,21,22,22,28,28,30,30,31,31,32,32,34,34,35,35,36,36,37,37,38,38,41,41,45,45,46,46,47,47,49,49,50,50,51,51,52,52,53,53,54,54,55,55,56,56,57,57,58,58,60,60,61,61,62,62,63,63,64,64,68,68,71,71,72,72,73,73,74,74,76,76,79,79,80,80,81,81,82,82],"right_children":[2,4,6,8,10,12,14,16,18,20,22,24,-1,26,-1,28,30,32,34,36,-1,38,40,-1,-1,-1,-1,-1,42,-1,44,46,48,-1,50,52,54,56,58,-1,-1,60,-1,-1,-1,62,64,66,-1,68,70,72,74,76,78,80,82,84,86,-1,88,90,92,94,96,-1,-1,-1,98,-1,-1,100,102,104,106,-1,108,-1,-1,110,112,114,116,-1,-1,-1,-1,-1,-1,-1,-1,-1,-1,-1,-1,-1,-1,-1,-1,-1,-1,-1,-1,-1,-1,-1,-1,-1,-1,-1,-1,-1,-1,-1,-1,-1,-1],"split_conditions":[2.3675E2,1.145E1,2.4150002E1,1.055E-1,1.365E1,4.465E1,1.945E1,7.8349996E-1,3.865E-1,3.0150002E1,4.355E1,7.25E0,1.141835E-2,2.0150002E1,3.068641E-3,4.1499996E0,4.6499996E0,5.5E0,1.695E1,1.10149994E2,-1.2976674E-2,2.975E1,4.625E-1,-1.2058015E-2,1.1434464E-3,1.0448251E-2,2.2477822E-2,1.012949E-2,7.635E-1,-0E0,8.5350006E1,5.8500004E0,4.855E1,-7.9665175E-3,3.695E1,7.6499996E0,1.9150002E1,2.105E1,1.905E1,1.4712124E-2,2.2315327E-3,3.315E-1,-1.2241317E-2,1.0415319E-2,2.2747718E-2,4.415E-1,7.8550005E-1,8.385E1,6.918753E-4,1.135E1,8.5E0,6.05E0,1.205E1,1.235E1,1.395E1,9.25E0,7.9550004E-1,1.655E1,3.5E0,1.3073437E-2,4.365E-1,1.9875E2,1.355E1,1.045E1,3.66E1,-6.105215E-3,-1.670019E-2,-7.7775177E-3,2.2349998E1,5.0642714E-3,-1.1359234E-2,2.2849998E1,1.245E1,8.25E0,2.19E1,1.0460888E-3,3.685E-1,1.2048438E-2,-4.5720674E-3,1.755E1,2.205E1,2.195E1,2.1650002E1,2.1045136E-3,-9.970396E-3,1.0978195E-3,1.3291278E-2,4.6414956E-3,-8.051998E-3,-7.712475E-3,-1.7384882E-3,2.0433386E-4,-7.5895274E-3,3.5677718E-3,1.8103909E-2,-3.6038435E-3,1.3113519E-2,3.751514E-3,-3.0673572E-3,7.722031E-3,-1.3750541E-4,2.1592E-3,-8.453656E-3,2.8623454E-3,-1.3203024E-2,-1.9619404E-3,6.9214427E-3,-1.791874E-2,-7.22641E-3,-4.7239913E-3,-1.3531856E-3,5.933125E-3,-7.438804E-3,-1.6887885E-2,-5.8038672E-3,5.976425E-3,-7.202519E-3],"split_indices":[54,40,38,29,44,31,11,13,10,38,31,19,0,22,0,20,21,52,22,24,0,38,7,0,0,0,0,0,13,0,32,21,4,0,15,45,11,37,9,0,0,10,0,0,0,33,39,6,0,44,0,21,40,44,18,19,39,9,27,0,33,54,14,19,9,0,0,0,11,0,0,43,40,45,35,0,10,0,0,37,48,37,17,0,0,0,0,0,0,0,0,0,0,0,0,0,0,0,0,0,0,0,0,0,0,0,0,0,0,0,0,0,0,0,0,0,0],"split_type":[0,0,0,0,0,0,0,0,0,0,0,0,0,0,0,0,0,0,0,0,0,0,0,0,0,0,0,0,0,0,0,0,0,0,0,0,0,0,0,0,0,0,0,0,0,0,0,0,0,0,0,0,0,0,0,0,0,0,0,0,0,0,0,0,0,0,0,0,0,0,0,0,0,0,0,0,0,0,0,0,0,0,0,0,0,0,0,0,0,0,0,0,0,0,0,0,0,0,0,0,0,0,0,0,0,0,0,0,0,0,0,0,0,0,0,0,0],"sum_hessian":[3.2489194E3,3.1931711E3,5.574838E1,2.166453E3,1.0267183E3,2.7999125E1,2.7749254E1,8.0745895E1,2.085707E3,3.044917E2,7.222265E2,1.8999483E1,8.999641E0,1.7499538E1,1.0249716E1,5.3497402E1,2.7248493E1,1.685966E3,3.9974115E2,2.94492E2,9.999716E0,7.0572687E2,1.6499607E1,8.499721E0,1.0499762E1,9.249778E0,8.249761E0,1.149908E1,4.1998325E1,9.999671E0,1.7248821E1,1.6557183E3,3.0247595E1,1.4249803E1,3.8549133E2,2.3674321E2,5.7748775E1,6.577287E2,4.7998165E1,8.249814E0,8.249792E0,3.074872E1,1.1249603E1,8.499346E0,8.7494755E0,1.3329751E3,3.2274326E2,2.149827E1,8.749325E0,3.6199194E2,2.3499397E1,1.3849643E2,9.8246796E1,3.474923E1,2.2999546E1,5.9523096E2,6.2497772E1,2.0749098E1,2.7249067E1,1.099941E1,1.9749311E1,2.299959E2,1.1029791E3,2.1249559E2,1.1024767E2,9.249245E0,1.2249024E1,9.999809E0,3.5199213E2,8.749695E0,1.4749702E1,1.2074689E2,1.7749538E1,3.2499035E1,6.574776E1,1.1999804E1,2.2749426E1,8.499909E0,1.4499636E1,5.264829E2,6.874803E1,3.699871E1,2.5499062E1,1.249951E1,8.249589E0,1.1499528E1,1.5749539E1,1.09995775E1,8.749734E0,8.399809E1,1.459978E2,1.0547329E3,4.824623E1,2.0399574E2,8.499847E0,1.0199784E2,8.249828E0,3.299927E2,2.199943E1,8.4997574E1,3.5749313E1,8.749847E0,8.999692E0,1.3999545E1,1.849949E1,3.7748753E1,2.7999002E1,1.0999708E1,1.1749717E1,2.5824185E2,2.6824106E2,4.8748703E1,1.9999329E1,2.2249228E1,1.4749484E1,9.749618E0,1.5749445E1],"tree_param":{"num_deleted":"0","num_feature":"55","num_nodes":"117","size_leaf_vector":"0"}},{"base_weights":[-1.2155964E-2,3.3798207E-2,-1.1110854E-1,-1.0417332E-3,1.704488E-1,-1.6417587E-1,4.0781416E-2,8.68808E-3,-5.1150984E-1,-5.5938554E-1,1.9829632E-1,5.5972E-1,-1.7605683E-1,1.0877451E-1,-5.845515E-1,-1.7669236E-2,2.2194928E-1,-8.3291435E-1,8.053261E-2,2.4567226E-1,-2.3156376E-1,-2.7878883E-1,-9.979052E-2,3.8476136E-1,-2.3991566E-2,-9.040526E-1,-2.1246406E-1,-9.054049E-2,4.7594085E-2,7.2716916E-1,1.056753E-1,-2.7472097E-1,-1.556276E0,2.1807075E-1,1.0829692E0,4.0996587E-1,-4.0097335E-1,2.738221E-1,-3.3517972E-1,-7.063959E-1,-6.86386E-2,2.3201819E-1,9.794831E-1,5.4886454E-1,-1.0332228E-1,5.5817896E-1,-1.0500287E-1,7.87575E-2,-3.287593E-1,3.446074E-1,1.1450679E0,-4.789572E-1,2.1561651E-1,2.4291645E-1,-5.971216E-1,-6.0312593E-1,1.3735649E-1,-2.0671457E-1,9.270358E-1,-4.351277E-1,-1.1257489E-1,-1.1703904E0,-2.769686E-1,5.7259124E-2,-1.9693415E-1,7.2582245E-2,9.5125145E-1,8.7035185E-1,9.626714E-2,1.08997256E-1,-3.2516873E-1,3.147207E-1,-1.3078365E-1,-6.4062095E-1,9.23265E-2,-9.003553E-1,-1.3564397E-1,-1.465793E-1,7.487847E-1,8.120579E-2,-8.648832E-1,7.350807E-1,1.09441146E-1,5.009752E-1,1.6816123E-1,-9.8029685E-1,-2.136135E-1,-5.489002E-1,1.6586874E-1,-4.7551727E-1,4.178258E-1,4.384369E-1,-3.302289E-1,6.068676E-1,-6.67452E-2,-5.170893E-1,-6.922008E-2,7.92683E-1,-8.7956235E-2,6.891705E-1,-4.6788007E-2,-1.5273619E-1,-1.1628035E0,-4.45829E-1,5.725468E-1,-5.1909125E-1,-9.655909E-2,4.3531924E-1,6.281613E-2,1.9824898E-1,-5.571851E-1,1.065829E0,1.4970732E-1,3.196394E-2,8.0983347E-1,2.2710137E-1,7.958014E-1,-7.270692E-1,1.9802697E-1,-4.1777807E-1,-1.1256559E0,9.290718E-1,-5.1579624E-1,-5.020384E-1,2.596936E-1,2.5232124E-1,1.2140635E0,7.34484E-1,-1.4298122E-1,4.5865557E-1,-7.0012766E-1,1.8441576E-1,-3.0345607E-1,1.6318916E-1,-5.752891E-1,2.916949E-1,-3.2996273E-1,2.7128258E-1,-3.6036953E-1],"categories":[],"categories_nodes":[],"categories_segments":[],"categories_sizes":[],"default_left":[1,1,1,1,1,1,1,1,1,0,1,0,1,1,1,1,1,1,0,1,1,1,1,1,1,0,0,1,1,1,1,0,0,1,0,0,1,1,1,1,1,1,0,1,1,0,1,1,1,1,0,1,1,1,0,1,0,1,0,1,1,0,0,1,1,1,0,0,0,1,1,1,1,0,1,0,1,0,0,0,0,1,1,1,1,0,0,0,0,1,0,1,1,1,1,1,1,0,1,0,1,1,0,0,0,0,0,0,0,0,0,0,0,0,0,0,0,0,0,0,0,0,0,0,0,0,0,0,0,0,0,0,0,0,0,0,0,0,0],"id":4,"left_children":[1,3,5,7,9,11,13,15,17,-1,19,-1,21,23,25,27,29,31,-1,33,35,37,39,41,43,-1,-1,45,47,49,51,-1,-1,53,-1,-1,55,57,59,61,63,65,-1,67,69,-1,71,73,75,77,-1,79,81,83,-1,85,-1,87,-1,89,91,-1,-1,93,95,97,-1,-1,-1,99,101,103,105,-1,107,-1,109,-1,-1,-1,-1,111,113,115,117,-1,-1,-1,-1,119,-1,121,123,125,127,129,131,-1,133,-1,135,137,-1,-1,-1,-1,-1,-1,-1,-1,-1,-1,-1,-1,-1,-1,-1,-1,-1,-1,-1,-1,-1,-1,-1,-1,-1,-1,-1,-1,-1,-1,-1,-1,-1,-1,-1,-1,-1],"loss_changes":[1.4747992E1,1.0551947E1,8.30773E0,8.808288E0,9.221689E0,6.6205444E0,1.1357258E1,9.755663E0,6.437665E0,0E0,8.900728E0,0E0,5.8295994E0,8.884768E0,2.8400364E0,7.3405433E0,1.1074262E1,8.201438E0,0E0,8.729137E0,4.8713574E0,1.0036095E1,8.075378E0,6.8342896E0,7.453285E0,0E0,0E0,6.859707E0,9.543043E0,5.172676E0,1.0127735E1,0E0,0E0,7.8147984E0,0E0,0E0,3.9168E0,9.631693E0,6.364464E0,3.7475977E0,6.6955714E0,7.180437E0,0E0,2.7406673E0,6.8653874E0,0E0,7.753245E0,7.350868E0,6.6630287E0,4.1083145E0,0E0,5.5195303E0,7.1582212E0,7.0066376E0,0E0,3.4778957E0,0E0,2.4020605E0,0E0,7.0678062E0,1.1089617E1,0E0,0E0,1.4321367E1,8.306669E0,6.299942E0,0E0,0E0,0E0,6.8104773E0,1.0005066E1,8.370628E0,8.857929E0,0E0,7.414497E0,0E0,6.842968E0,0E0,0E0,0E0,0E0,4.0436974E0,5.938153E0,6.401884E0,7.8071957E0,0E0,0E0,0E0,0E0,6.610512E0,0E0,1.2734568E1,6.848308E0,7.9189024E0,1.0503235E1,1.0708187E1,8.850036E0,0E0,5.558963E0,0E0,5.788403E0,5.3959975E0,0E0,0E0,0E0,0E0,0E0,0E0,0E0,0E0,0E0,0E0,0E0,0E0,0E0,0E0,0E0,0E0,0E0,0E0,0E0,0E0,0E0,0E0,0E0,0E0,0E0,0E0,0E0,0E0,0E0,0E0,0E0,0E0,0E0,0E0,0E0,0E0,0E0],"parents":[2147483647,0,0,1,1,2,2,3,3,4,4,5,5,6,6,7,7,8,8,10,10,12,12,13,13,14,14,15,15,16,16,17,17,19,19,20,20,21,21,22,22,23,23,24,24,27,27,28,28,29,29,30,30,33,33,36,36,37,37,38,38,39,39,40,40,41,41,43,43,44,44,46,46,47,47,48,48,49,49,51,51,52,52,53,53,55,55,57,57,59,59,60,60,63,63,64,64,65,65,69,69,70,70,71,71,72,72,74,74,76,76,81,81,82,82,83,83,84,84,89,89,91,91,92,92,93,93,94,94,95,95,96,96,98,98,100,100,101,101],"right_children":[2,4,6,8,10,12,14,16,18,-1,20,-1,22,24,26,28,30,32,-1,34,36,38,40,42,44,-1,-1,46,48,50,52,-1,-1,54,-1,-1,56,58,60,62,64,66,-1,68,70,-1,72,74,76,78,-1,80,82,84,-1,86,-1,88,-1,90,92,-1,-1,94,96,98,-1,-1,-1,100,102,104,106,-1,108,-1,110,-1,-1,-1,-1,112,114,116,118,-1,-1,-1,-1,120,-1,122,124,126,128,130,132,-1,134,-1,136,138,-1,-1,-1,-1,-1,-1,-1,-1,-1,-1,-1,-1,-1,-1,-1,-1,-1,-1,-1,-1,-1,-1,-1,-1,-1,-1,-1,-1,-1,-1,-1,-1,-1,-1,-1,-1,-1],"split_conditions":[1.145E1,3.855E-1,4.615E-1,5.5E0,1.695E1,2.75E0,4.025E-1,4.045E-1,4.445E1,-8.028258E-3,3.595E1,8.033058E-3,4.505E-1,4.45E0,2.06E1,4.8500004E0,3.955E1,4.8500004E0,1.1557977E-3,5.1750004E-1,8.65E0,4.55E0,3.75E0,2.705E1,1.8849998E1,-1.2974893E-2,-3.0492677E-3,2.745E1,8.2449996E-1,2.0225E2,9.495E1,-3.942774E-3,-2.2335552E-2,3.0150002E1,1.554269E-2,5.8837985E-3,2.2725E2,6.55E0,4.855E1,1.395E1,7.55E0,4.305E1,1.4057466E-2,4.745E-1,7.525E-1,8.010941E-3,4.255E-1,2.7349998E1,3.705E1,7.65E-1,1.6433926E-2,4.3500004E0,2.5E0,3.3249998E-1,-8.569842E-3,3.985E-1,1.9713296E-3,2.4599998E1,1.3304746E-2,1.11649994E2,1.355E1,-1.679735E-2,-3.975032E-3,1.9150002E1,1.945E1,1.5E0,1.36522865E-2,1.2491222E-2,1.3816186E-3,4.8500004E0,8.9649994E1,1.91E1,1.925E1,-9.194142E-3,3.905E1,-1.2921829E-2,1.085E1,-2.1036947E-3,1.07464995E-2,1.1654592E-3,-1.2412736E-2,2.12E1,1.265E1,4.255E1,1.135E1,-1.4069144E-2,-3.0657642E-3,-7.877773E-3,2.3805352E-3,3.895E-1,5.996603E-3,4.905E1,7.845E-1,4.555E1,4.05E0,8.055E1,2.1349998E1,1.1376524E-2,9.25E0,9.890921E-3,4.455E1,3.385E-1,-1.6688466E-2,-6.398503E-3,8.217147E-3,-7.449957E-3,-1.3858086E-3,6.247668E-3,9.015322E-4,2.845254E-3,-7.996677E-3,1.5296696E-2,2.1485877E-3,4.5874398E-4,1.1622666E-2,3.2593412E-3,1.142128E-2,-1.0434841E-2,2.8420677E-3,-5.9959185E-3,-1.6155325E-2,1.3333966E-2,-7.4026673E-3,-7.205216E-3,3.7271022E-3,3.6212949E-3,1.7424146E-2,1.0541257E-2,-2.0520552E-3,6.582589E-3,-1.0048178E-2,2.6467205E-3,-4.3551777E-3,2.3420781E-3,-8.256504E-3,4.1863825E-3,-4.7355993E-3,3.8934264E-3,-5.1719956E-3],"split_indices":[40,10,33,52,22,20,10,36,16,0,41,0,7,47,48,21,42,47,0,7,40,8,34,12,49,0,0,15,39,54,24,0,0,12,0,0,54,34,4,18,34,31,0,33,39,0,7,41,5,39,0,47,1,36,0,10,0,38,0,50,44,0,0,48,48,52,0,0,0,47,6,49,43,0,42,0,8,0,0,0,0,48,8,16,44,0,0,0,0,36,0,4,39,42,47,6,48,0,34,0,42,10,0,0,0,0,0,0,0,0,0,0,0,0,0,0,0,0,0,0,0,0,0,0,0,0,0,0,0,0,0,0,0,0,0,0,0,0,0],"split_type":[0,0,0,0,0,0,0,0,0,0,0,0,0,0,0,0,0,0,0,0,0,0,0,0,0,0,0,0,0,0,0,0,0,0,0,0,0,0,0,0,0,0,0,0,0,0,0,0,0,0,0,0,0,0,0,0,0,0,0,0,0,0,0,0,0,0,0,0,0,0,0,0,0,0,0,0,0,0,0,0,0,0,0,0,0,0,0,0,0,0,0,0,0,0,0,0,0,0,0,0,0,0,0,0,0,0,0,0,0,0,0,0,0,0,0,0,0,0,0,0,0,0,0,0,0,0,0,0,0,0,0,0,0,0,0,0,0,0,0],"sum_hessian":[3.2401338E3,2.212431E3,1.027703E3,1.7631987E3,4.4923203E2,7.619648E2,2.6573816E2,1.7309534E3,3.224545E1,1.5749445E1,4.3348257E2,1.1499173E1,7.5046564E2,2.4048984E2,2.524833E1,1.5409608E3,1.8999252E2,2.0746815E1,1.1498633E1,3.909839E2,4.2498703E1,3.1823492E2,4.322307E2,7.774627E1,1.6274358E2,1.2749284E1,1.2499045E1,7.2848267E2,8.124781E2,3.4498558E1,1.5549396E2,1.2498216E1,8.2486E0,3.7973526E2,1.1248609E1,8.499616E0,3.3999084E1,2.899824E1,2.892367E2,1.9999115E1,4.122316E2,6.299715E1,1.4749121E1,1.8999382E1,1.4374419E2,1.4999456E1,7.134832E2,7.512299E2,6.1248188E1,1.8999172E1,1.5499389E1,2.3998917E1,1.3149504E2,3.6923566E2,1.0499606E1,2.4749395E1,9.249689E0,1.6998758E1,1.1999482E1,1.9874098E2,9.04957E1,8.749475E0,1.124964E1,2.0798936E2,2.0424222E2,5.2497585E1,1.0499563E1,1.0499736E1,8.499645E0,7.34971E1,7.0247086E1,4.0498478E1,6.7298474E2,1.2999437E1,7.3823047E2,1.4499655E1,4.674853E1,8.749635E0,1.02495365E1,9.999683E0,1.3999233E1,2.1249107E1,1.1024594E2,8.1496155E1,2.877395E2,1.174971E1,1.2999686E1,8.749367E0,8.249391E0,1.9024136E2,8.499619E0,2.5249043E1,6.524665E1,3.7748016E1,1.7024135E2,5.724784E1,1.4699438E2,8.999574E0,4.3498013E1,1.499931E1,5.849779E1,5.924749E1,1.0999598E1,9.999548E0,3.0498932E1,5.3247917E1,6.197368E2,5.7248245E1,6.8098224E2,2.6249386E1,2.0499146E1,1.2999489E1,8.249619E0,1.0024641E2,9.9995365E0,4.3248146E1,3.8248005E1,8.499605E0,2.792399E2,1.7624191E2,1.3999458E1,1.674941E1,8.499632E0,5.074733E1,1.4499324E1,2.4748428E1,1.299959E1,1.39994755E1,1.5624187E2,8.749706E0,4.8498135E1,7.049744E1,7.649695E1,2.899857E1,1.4499443E1,2.649902E1,3.1998772E1,1.9249264E1,3.9998226E1],"tree_param":{"num_deleted":"0","num_feature":"55","num_nodes":"139","size_leaf_vector":"0"}},{"base_weights":[-1.20115755E-2,4.112015E-2,-7.207675E-2,2.517592E-2,3.5541472E-1,-1.5229161E-1,1.4888672E-2,-1.1627419E-2,1.7609388E-1,8.045767E-1,6.33924E-2,-1.8427154E-1,2.170051E-1,-3.3706326E-2,2.6471797E-1,-3.0567983E-2,3.0233777E-1,1.4210398E-1,1.3204335E0,1.3181205E0,4.3265224E-1,-1.320452E-1,8.110983E-1,4.939024E-1,-2.0225999E-1,3.9073172E-1,-7.278503E-1,-1.7958216E-2,-7.925865E-1,3.5336262E-1,-6.021636E-1,-1.0388275E-2,-3.108317E-1,4.5827946E-1,-4.4313994E-1,2.210771E-1,-1.993586E-1,-9.922828E-2,8.26424E-1,-3.8014334E-1,5.68995E-1,-0E0,8.836507E-1,3.098513E-1,-2.2766276E-1,-4.7482526E-1,5.558293E-1,2.8656167E-1,-5.99824E-2,4.773651E-1,-3.4911168E-1,4.6264187E-2,-1.3804594E-1,-4.370654E-1,4.2397255E-1,-1.7821912E-1,7.238554E-1,9.577308E-1,1.763207E-1,-5.0290084E-1,3.6035016E-1,2.4464896E-1,-7.3180455E-1,-3.6171454E-1,7.824026E-1,2.1185586E-2,-2.7000904E-1,-1.9154523E-1,7.4253714E-1,8.151451E-1,5.8819752E-2,-4.2370312E-2,-7.5991184E-1,1.1383427E0,3.217868E-1,-2.9480863E-1,7.7191204E-2,-4.6347716E-1,-5.3323507E-2,-2.3214597E-1,-7.9650587E-1,3.3438435E-1,-6.955247E-1,-2.507557E-1,9.7002447E-1,2.9535136E-1,-1.1961149E-1,-2.7230456E-1,-1.1268945E0,7.372687E-1,-9.4800994E-2,-1.102707E0,-1.5655553E-1,3.690284E-1,1.2426758E0,-7.005509E-1,1.3722484E-1,-2.4479705E-1,-7.0111096E-1,9.8747236E-1,1.1681628E-1,1.9554202E-1,1.225971E0,-2.892303E-1,5.220045E-1,-9.423535E-2,1.7999326E-1,6.977855E-1,1.454702E0,2.2441586E-2,7.126711E-1,-1.2407925E-1,-1.0343815E0,4.2539328E-1,3.2510698E-2,-7.27024E-1,1.4021231E-2,-8.743823E-3,-6.314929E-1,8.240329E-2,-6.8388397E-1,-3.8639194E-1,-1.2889502E0,1.4171329E0,6.0220444E-1,3.561337E-1,-3.0425224E-1,-5.590226E-1,6.0211983E-2,-9.058298E-1,3.629604E-2,3.5315114E-1,-5.5801344E-1,-1.8933493E-1,-4.7880483E-1,-2.9189685E-1,-1.1657938E0,4.348678E-1,1.252824E0,-0E0,-9.4115204E-1,1.0231588E0,-3.490686E-2,1.4296884E-2,-3.016613E-1,3.4975123E-1,-3.75546E-1,2.4575815E-1,-8.3375496E-1,3.6785197E-1,1.318487E0],"categories":[],"categories_nodes":[],"categories_segments":[],"categories_sizes":[],"default_left":[1,1,1,1,1,1,1,1,1,1,1,1,1,1,1,1,1,1,0,0,1,1,0,1,1,1,0,1,0,1,0,1,1,1,0,1,1,0,0,1,0,0,0,1,1,0,1,1,1,1,0,1,1,1,0,1,1,0,1,1,1,0,1,0,1,1,1,0,1,1,1,1,0,1,1,1,1,1,1,1,1,0,0,0,1,1,1,1,0,0,0,0,0,0,0,0,1,1,1,1,0,0,0,1,1,1,1,0,0,1,1,0,0,0,0,0,0,0,0,0,0,0,0,0,0,0,0,0,0,0,0,0,0,0,0,0,0,0,0,0,0,0,0,0,0,0,0,0,0,0,0],"id":5,"left_children":[1,3,5,7,9,11,13,15,17,19,21,23,25,27,29,31,33,35,-1,-1,37,39,-1,41,43,45,-1,47,-1,49,-1,51,53,55,-1,57,59,-1,-1,61,-1,-1,-1,63,65,-1,67,69,71,73,-1,75,77,79,-1,81,83,-1,85,87,89,-1,91,-1,93,95,97,-1,99,101,103,105,-1,107,109,111,113,115,117,119,121,-1,-1,-1,123,125,127,129,-1,-1,-1,-1,-1,-1,-1,-1,131,133,135,137,-1,-1,-1,139,141,143,145,-1,-1,147,149,-1,-1,-1,-1,-1,-1,-1,-1,-1,-1,-1,-1,-1,-1,-1,-1,-1,-1,-1,-1,-1,-1,-1,-1,-1,-1,-1,-1,-1,-1,-1,-1,-1,-1,-1,-1,-1,-1,-1,-1],"loss_changes":[1.0438754E1,8.652193E0,1.0725746E1,9.191967E0,1.0822158E1,9.475084E0,8.976783E0,7.886712E0,1.23213215E1,5.5652294E0,7.7075973E0,9.051558E0,1.0728412E1,7.300198E0,9.430084E0,7.062984E0,8.957909E0,8.568334E0,0E0,0E0,4.4151883E0,7.433361E0,0E0,3.6591878E0,9.40078E0,8.06466E0,0E0,7.7538595E0,0E0,9.740362E0,0E0,8.483416E0,7.9575586E0,1.0802364E1,0E0,8.235081E0,1.0318423E1,0E0,0E0,7.1118336E0,0E0,0E0,0E0,1.114342E1,7.24337E0,0E0,6.656329E0,8.720955E0,6.4812164E0,9.19607E0,0E0,8.561764E0,9.877783E0,5.058323E0,0E0,5.33128E0,1.10047E1,0E0,8.63931E0,5.234991E0,3.7945058E0,0E0,4.0925484E0,0E0,3.3259325E0,8.43114E0,6.1267853E0,0E0,5.5362396E0,5.2396116E0,8.611075E0,6.0246434E0,0E0,1.3066978E0,8.982678E0,8.297224E0,1.1537804E1,9.403696E0,7.349292E0,6.8416357E0,4.5830746E0,0E0,0E0,0E0,4.947357E0,6.4615135E0,5.6376667E0,5.954155E0,0E0,0E0,0E0,0E0,0E0,0E0,0E0,0E0,1.3251801E1,7.061611E0,5.5854588E0,3.2647E0,0E0,0E0,0E0,5.8050117E0,6.514735E0,9.571167E0,9.425195E0,0E0,0E0,8.730452E0,6.3911877E0,0E0,0E0,0E0,0E0,0E0,0E0,0E0,0E0,0E0,0E0,0E0,0E0,0E0,0E0,0E0,0E0,0E0,0E0,0E0,0E0,0E0,0E0,0E0,0E0,0E0,0E0,0E0,0E0,0E0,0E0,0E0,0E0,0E0,0E0,0E0,0E0,0E0,0E0,0E0,0E0],"parents":[2147483647,0,0,1,1,2,2,3,3,4,4,5,5,6,6,7,7,8,8,9,9,10,10,11,11,12,12,13,13,14,14,15,15,16,16,17,17,20,20,21,21,23,23,24,24,25,25,27,27,29,29,31,31,32,32,33,33,35,35,36,36,39,39,43,43,44,44,46,46,47,47,48,48,49,49,51,51,52,52,53,53,55,55,56,56,58,58,59,59,60,60,62,62,64,64,65,65,66,66,68,68,69,69,70,70,71,71,73,73,74,74,75,75,76,76,77,77,78,78,79,79,80,80,84,84,85,85,86,86,87,87,96,96,97,97,98,98,99,99,103,103,104,104,105,105,106,106,109,109,110,110],"right_children":[2,4,6,8,10,12,14,16,18,20,22,24,26,28,30,32,34,36,-1,-1,38,40,-1,42,44,46,-1,48,-1,50,-1,52,54,56,-1,58,60,-1,-1,62,-1,-1,-1,64,66,-1,68,70,72,74,-1,76,78,80,-1,82,84,-1,86,88,90,-1,92,-1,94,96,98,-1,100,102,104,106,-1,108,110,112,114,116,118,120,122,-1,-1,-1,124,126,128,130,-1,-1,-1,-1,-1,-1,-1,-1,132,134,136,138,-1,-1,-1,140,142,144,146,-1,-1,148,150,-1,-1,-1,-1,-1,-1,-1,-1,-1,-1,-1,-1,-1,-1,-1,-1,-1,-1,-1,-1,-1,-1,-1,-1,-1,-1,-1,-1,-1,-1,-1,-1,-1,-1,-1,-1,-1,-1,-1,-1],"split_conditions":[1.075E1,9.205E1,2.055E1,3.865E-1,4.55E0,8.45E0,8.95E0,3.795E1,5.185E-1,4.75E0,3.845E-1,2.85E0,8.95E0,1.455E1,2.275E1,1.385E1,1.16149994E2,2.5E0,1.8950759E-2,1.8917562E-2,1.705E1,1.505E1,1.164082E-2,2.215E1,4.45E0,4.325E-1,-1.0446051E-2,8.85E0,-1.13751395E-2,3.895E-1,-8.642205E-3,5.5E0,4.875E1,3.405E-1,-6.35991E-3,1.7349998E1,2.5E0,-1.4241165E-3,1.1860773E-2,1.065E1,8.166172E-3,-0E0,1.2682086E-2,7.1499996E0,3.105E-1,-6.8146554E-3,1.465E1,1.955E1,8.335E-1,4.045E1,-5.0104237E-3,1.465E1,8.55E0,5.1499996E0,6.084821E-3,1.705E1,3.845E1,1.3745278E-2,2.505E1,1.145E1,2.0150002E1,3.511183E-3,1.1105E2,-5.191299E-3,1.9150002E1,3.65E0,1.675E1,-2.7490424E-3,1.175E1,1.91E1,2.195E1,1.015E1,-1.0906195E-2,1.0065E2,4.605E-1,5.3500004E0,5.6499996E0,2.305E1,2.375E1,2.0150002E1,2.4349998E1,4.799058E-3,-9.9821165E-3,-3.5988262E-3,9.55E0,2.745E1,6.55E0,7.6499996E0,-1.6173102E-2,1.0581222E-2,-1.3605765E-3,-1.5825965E-2,-2.2468728E-3,5.2962666E-3,1.7834786E-2,-1.0054252E-2,2.5E0,1.09850006E2,1.9650002E1,1.965E1,1.6765381E-3,2.806404E-3,1.759504E-2,5.55E0,4.5E0,4.475E1,9.055E1,1.0014563E-2,2.087777E-2,4.895E1,1.115E1,-1.7807757E-3,-1.4845363E-2,6.105211E-3,4.66591E-4,-1.0434192E-2,2.0123161E-4,-1.2549067E-4,-9.063137E-3,1.1826456E-3,-9.815049E-3,-5.545467E-3,-1.8498912E-2,2.033858E-2,8.642791E-3,5.111203E-3,-4.3666046E-3,-8.023049E-3,8.641577E-4,-1.3000399E-2,5.2091794E-4,5.0683976E-3,-8.008566E-3,-2.71732E-3,-6.8717697E-3,-4.189281E-3,-1.6731381E-2,6.241189E-3,1.7980432E-2,-0E0,-1.3507341E-2,1.4684295E-2,-5.0098053E-4,2.0518777E-4,-4.3294197E-3,5.0196024E-3,-5.3898073E-3,3.5271018E-3,-1.1965986E-2,5.2793827E-3,1.8922823E-2],"split_indices":[40,6,23,10,46,51,45,9,7,20,36,46,19,8,37,34,50,53,0,0,11,18,0,9,8,7,0,14,0,36,0,1,4,36,0,23,52,0,0,8,0,0,0,19,36,0,11,48,13,16,0,9,40,46,0,11,5,0,38,34,22,0,50,0,23,34,18,0,51,11,48,8,0,50,7,47,8,38,23,22,17,0,0,0,14,17,45,8,0,0,0,0,0,0,0,0,52,24,23,9,0,0,0,46,1,42,6,0,0,4,14,0,0,0,0,0,0,0,0,0,0,0,0,0,0,0,0,0,0,0,0,0,0,0,0,0,0,0,0,0,0,0,0,0,0,0,0,0,0,0,0],"split_type":[0,0,0,0,0,0,0,0,0,0,0,0,0,0,0,0,0,0,0,0,0,0,0,0,0,0,0,0,0,0,0,0,0,0,0,0,0,0,0,0,0,0,0,0,0,0,0,0,0,0,0,0,0,0,0,0,0,0,0,0,0,0,0,0,0,0,0,0,0,0,0,0,0,0,0,0,0,0,0,0,0,0,0,0,0,0,0,0,0,0,0,0,0,0,0,0,0,0,0,0,0,0,0,0,0,0,0,0,0,0,0,0,0,0,0,0,0,0,0,0,0,0,0,0,0,0,0,0,0,0,0,0,0,0,0,0,0,0,0,0,0,0,0,0,0,0,0,0,0,0,0],"sum_hessian":[3.2683328E3,1.7336755E3,1.5346573E3,1.6511796E3,8.24959E1,7.9845184E2,7.362055E2,1.3277023E3,3.234774E2,3.1748274E1,5.074763E1,7.3545557E2,6.299626E1,6.1671356E2,1.1949196E2,1.2532046E3,7.449759E1,3.1523032E2,8.247074E0,1.2249325E1,1.949895E1,4.0748325E1,9.999306E0,1.8249144E1,7.172064E2,5.3746834E1,9.249429E0,6.0521436E2,1.149919E1,1.0899292E2,1.049904E1,1.1702079E3,8.299672E1,6.1998413E1,1.2499175E1,2.564837E2,5.8746613E1,8.499392E0,1.0999558E1,3.0498983E1,1.0249343E1,8.499566E0,9.7495775E0,3.3248043E1,6.839584E2,8.24941E0,4.5497425E1,7.2495636E1,5.3271875E2,9.299404E1,1.5998881E1,8.1046893E2,3.5973895E2,7.124704E1,1.1749683E1,1.824954E1,4.3748875E1,1.3499353E1,2.4298434E2,3.8247932E1,2.0498682E1,1.0999703E1,1.9499279E1,1.3748892E1,1.9499151E1,9.924242E1,5.84716E2,8.999597E0,3.6497826E1,2.0998293E1,5.149734E1,5.207196E2,1.1999102E1,1.6499008E1,7.649503E1,6.6496635E1,7.439723E2,7.324754E1,2.8649142E2,4.6498173E1,2.4748867E1,9.249742E0,8.999799E0,8.749724E0,3.499915E1,1.7348854E2,6.94958E1,2.8998413E1,9.249517E0,1.0999295E1,9.499388E0,1.1249566E1,8.249713E0,1.1249478E1,8.249674E0,1.299864E1,8.6243774E1,5.539674E2,3.07486E1,2.5748417E1,1.0749411E1,8.999152E0,1.1999141E1,2.9498573E1,2.1998768E1,4.2297482E2,9.774479E1,8.249542E0,8.249467E0,4.399694E1,3.2498093E1,5.499724E1,1.1499395E1,8.349577E1,6.6047656E2,4.6998478E1,2.624907E1,2.6699176E2,1.9499664E1,2.774901E1,1.874916E1,1.4499372E1,1.0249496E1,1.4499636E1,2.0499514E1,1.5798955E2,1.5499E1,1.974874E1,4.9747055E1,8.999658E0,1.9998756E1,6.624618E1,1.9997597E1,4.4947415E2,1.0449322E2,1.7249205E1,1.3499395E1,9.249623E0,1.6498793E1,2.0998995E1,8.4995775E0,1.1249533E1,1.0749234E1,2.779837E2,1.4499112E2,7.5246155E1,2.249863E1,3.5497623E1,8.499317E0,2.1748531E1,1.0749561E1],"tree_param":{"num_deleted":"0","num_feature":"55","num_nodes":"151","size_leaf_vector":"0"}},{"base_weights":[-8.59276E-3,5.2735142E-2,-7.769193E-2,-5.6759458E-2,1.0279197E-1,-1.4311485E-1,4.4067714E-2,1.9861218E-1,-1.3156916E-1,1.2089327E-1,-3.2224232E-1,-2.4438132E-1,-6.540887E-2,1.7852463E-1,-1.06150866E-1,6.944635E-1,3.7339855E-2,5.7239616E-1,-1.6331169E-1,-1.0696347E-1,1.5335238E-1,-6.915813E-1,2.577952E-1,-8.5097843E-1,-2.128095E-1,5.426197E-1,-9.2260875E-2,7.4851535E-2,6.0898376E-1,-1.937893E-1,2.7116683E-1,3.3772564E-1,1.4577491E0,-3.4093106E-1,2.0469967E-1,-0E0,1.0733787E0,-9.725731E-2,-4.973152E-1,-2.5209212E-1,3.2540965E-1,1.7393228E-1,-2.7137914E-1,-9.581705E-2,-1.1545588E0,6.637211E-1,-2.5351855E-1,-1.1597892E0,-3.9199945E-1,-1.4840798E-1,-4.510403E-1,9.4811696E-1,-3.5082057E-2,3.2809284E-1,-1.3266972E-1,-7.397652E-1,1.1940012E-1,9.4273555E-1,2.610808E-1,1.20201424E-1,-3.136199E-1,1.0184166E0,6.5866485E-2,1.0186464E0,-1.4476797E-1,-6.3990957E-1,-0E0,5.213902E-1,-6.458033E-2,-1.9909139E-1,1.5870373E-1,-2.8248408E-1,-1.1365952E0,-6.025238E-1,-2.2209497E-2,5.684997E-1,-3.331969E-1,2.526082E-1,7.499246E-2,-9.219982E-1,-1.5463883E-2,-6.246966E-1,-9.832648E-2,-6.5136796E-1,-4.14092E-2,-4.2969105E-1,5.230549E-1,-1.6951577E-1,1.8897289E-1,9.7210747E-1,7.911468E-2,1.2844771E0,2.3820436E-1,6.0632825E-1,-3.7245518E-1,-1.00130156E-1,7.7398634E-1,-5.700788E-1,-6.3126765E-2,-1.5744144E-1,8.086782E-1,2.3417641E-1,1.0433894E0,-5.4878855E-1,2.6947638E-1,-7.201011E-2,-4.9690846E-1,-3.83112E-2,5.3211343E-1,-8.434328E-1,2.787814E-2,-9.234204E-2,-8.85162E-1,-2.9139453E-1,4.552582E-1,-4.8191164E-2,9.031989E-1,-7.295809E-1,2.730211E-1,3.2543898E-2,6.8256694E-1,4.0113637E-1,-6.173328E-1,-2.0023441E-1,-1.054505E0,-2.364341E-1,8.8819735E-2,9.8396204E-2,-7.9214644E-1,4.0411243E-1,-6.3406336E-1,7.6986223E-1,-3.030166E-1,-1.9425553E-1,4.6281E-1,-5.002781E-1,4.0827662E-1,7.3823345E-1,1.8838622E-2,1.589052E0,8.365261E-1,1.0170194E0,1.8288162E-1,-3.0488625E-1,5.7183075E-1,-1.1500945E0,-4.238498E-1,1.02776274E-1,-7.4992406E-1,2.0399354E-1,-7.409246E-1,9.142784E-1,-2.6869106E-1,-3.3460483E-1,7.413296E-1,-6.588936E-1,2.2963384E-2,-9.8662734E-1,-2.6472417E-1,-7.9280746E-1,1.4046596E-1,1.9129625E-1,1.144509E0,-1.2770973E0,-3.0637217E-1,-4.4481158E-1,4.771132E-1,-5.307116E-1,-1.2244605E0,1.2162652E-1,-6.232719E-1,-1.2913571E-1,9.0808237E-1,4.7355643E-1,1.2324324E0,4.442933E-1,1.682241E-1,6.742968E-2,-6.338608E-1,-0E0,1.0762466E0,-4.3987773E-2,7.723507E-1,2.6690647E-1,-3.3630624E-1,2.0402594E-1,-5.6955576E-1,-3.5631913E-1,-1.136881E0,-3.851927E-2,8.150269E-1,3.4983495E-1,1.3485444E0,-1.6538881E-1,-7.3317266E-1,6.59822E-1,-3.185121E-1,9.139566E-1,4.7874957E-1,-1.8742014E-1,1.700688E-1,1.0255756E-1,-7.4314266E-1,5.2974354E-3,-6.993579E-1,-6.0111505E-1,3.4763864E-1,-2.7666897E-1,6.9827026E-1],"categories":[],"categories_nodes":[],"categories_segments":[],"categories_sizes":[],"default_left":[1,1,1,1,1,1,1,1,1,1,1,1,1,1,1,1,1,1,1,1,1,1,1,1,1,1,1,1,1,1,1,1,0,1,1,0,0,1,1,1,1,1,1,0,0,0,0,0,0,1,1,0,0,1,1,0,1,1,1,1,1,0,1,0,0,0,0,1,1,1,1,1,0,1,1,1,0,1,1,0,1,1,1,1,1,0,1,1,1,0,1,1,0,1,0,1,0,1,1,1,0,1,0,0,1,1,1,1,1,1,1,0,1,1,1,0,1,0,1,1,1,1,0,0,0,1,1,0,1,1,0,1,0,1,0,0,1,1,1,0,0,0,0,1,0,0,1,1,0,1,0,0,0,0,0,0,0,0,0,0,0,0,0,0,0,0,0,0,0,0,0,0,0,0,0,0,0,0,0,0,0,0,0,0,0,0,0,0,0,0,0,0,0,0,0,0,0,1,1,0,0,0,0,0,0,0,0,0,0],"id":6,"left_children":[1,3,5,7,9,11,13,15,17,19,21,23,25,27,29,31,33,35,37,39,41,43,45,47,49,51,53,55,57,59,61,63,-1,65,67,-1,-1,69,71,73,75,77,79,-1,-1,-1,-1,-1,-1,81,83,-1,-1,85,87,-1,89,91,93,95,97,-1,99,-1,-1,-1,-1,101,103,105,107,109,-1,111,113,115,-1,117,119,-1,121,123,125,127,129,-1,131,133,135,-1,137,139,-1,141,-1,143,-1,145,147,149,-1,151,-1,-1,153,155,157,159,161,163,165,-1,167,169,171,-1,173,-1,175,177,179,181,-1,-1,-1,183,185,-1,187,189,-1,191,-1,193,-1,-1,195,-1,199,-1,-1,-1,-1,201,-1,-1,203,205,-1,207,-1,-1,-1,-1,-1,-1,-1,-1,-1,-1,-1,-1,-1,-1,-1,-1,-1,-1,-1,-1,-1,-1,-1,-1,-1,-1,-1,-1,-1,-1,-1,-1,-1,-1,-1,-1,-1,-1,-1,-1,-1,-1,-1,-1,-1,-1,-1,-1,-1,-1,-1,-1,-1,-1,-1,-1,-1,-1,-1],"loss_changes":[1.3795231E1,9.45751E0,1.2210374E1,1.0352076E1,9.127482E0,7.8014317E0,1.0837364E1,9.72394E0,9.418743E0,8.423706E0,1.0575312E1,8.014154E0,9.243618E0,1.2536756E1,8.41361E0,7.541074E0,5.9833283E0,5.19423E0,8.772328E0,8.975338E0,8.7361145E0,8.046501E0,4.2223144E0,2.4141388E0,6.2071037E0,5.712221E0,9.241169E0,8.355226E0,6.018915E0,7.808234E0,7.198825E0,7.3314414E0,0E0,2.9547112E0,5.6699877E0,0E0,0E0,8.814482E0,8.637079E0,8.548645E0,5.946997E0,7.350912E0,7.596406E0,0E0,0E0,0E0,0E0,0E0,0E0,7.656198E0,7.0496616E0,0E0,0E0,7.2596273E0,5.904974E0,0E0,7.343311E0,6.191614E0,6.391646E0,8.400295E0,9.528296E0,0E0,6.5878983E0,0E0,0E0,0E0,0E0,4.227648E0,6.0120525E0,9.065457E0,7.135439E0,8.912699E0,0E0,5.9237776E0,8.55024E0,5.6180506E0,0E0,1.0740536E1,1.0819992E1,0E0,8.816983E0,5.2952213E0,7.6863556E0,6.2707214E0,8.092483E0,0E0,8.089615E0,7.032316E0,7.9167857E0,0E0,8.2533E0,1.0433598E0,0E0,2.9745631E0,0E0,6.148483E0,0E0,5.664301E0,8.890484E0,6.6016006E0,0E0,7.4386816E0,0E0,0E0,6.5140243E0,9.580237E0,7.830965E0,8.746802E0,6.661269E0,3.737667E0,7.2976546E0,0E0,2.488266E0,5.961976E0,6.5057845E0,0E0,1.780509E0,0E0,9.1839485E0,9.2020445E0,7.4071207E0,3.5090547E0,0E0,0E0,0E0,8.680875E0,9.646834E0,0E0,6.887102E0,3.2638125E0,0E0,6.6937237E0,0E0,6.496027E0,0E0,0E0,7.4310765E0,2.7189255E-1,6.053388E0,0E0,0E0,0E0,0E0,6.2269506E0,0E0,0E0,7.2056313E0,1.0974838E1,0E0,4.8297763E0,0E0,0E0,0E0,0E0,0E0,0E0,0E0,0E0,0E0,0E0,0E0,0E0,0E0,0E0,0E0,0E0,0E0,0E0,0E0,0E0,0E0,0E0,0E0,0E0,0E0,0E0,0E0,0E0,0E0,0E0,0E0,0E0,0E0,0E0,0E0,0E0,0E0,0E0,0E0,0E0,0E0,0E0,0E0,0E0,0E0,0E0,0E0,0E0,0E0,0E0,0E0,0E0,0E0,0E0,0E0,0E0,0E0,0E0,0E0],"parents":[2147483647,0,0,1,1,2,2,3,3,4,4,5,5,6,6,7,7,8,8,9,9,10,10,11,11,12,12,13,13,14,14,15,15,16,16,17,17,18,18,19,19,20,20,21,21,22,22,23,23,24,24,25,25,26,26,27,27,28,28,29,29,30,30,31,31,33,33,34,34,37,37,38,38,39,39,40,40,41,41,42,42,49,49,50,50,53,53,54,54,56,56,57,57,58,58,59,59,60,60,62,62,67,67,68,68,69,69,70,70,71,71,73,73,74,74,75,75,77,77,78,78,80,80,81,81,82,82,83,83,84,84,86,86,87,87,88,88,90,90,91,91,93,93,95,95,97,97,98,98,99,99,101,101,104,104,105,105,106,106,107,107,108,108,109,109,110,110,112,112,113,113,114,114,116,116,118,118,119,119,120,120,121,121,125,125,126,126,128,128,129,129,131,131,133,133,136,136,137,137,138,138,143,143,146,146,147,147,149,149],"right_children":[2,4,6,8,10,12,14,16,18,20,22,24,26,28,30,32,34,36,38,40,42,44,46,48,50,52,54,56,58,60,62,64,-1,66,68,-1,-1,70,72,74,76,78,80,-1,-1,-1,-1,-1,-1,82,84,-1,-1,86,88,-1,90,92,94,96,98,-1,100,-1,-1,-1,-1,102,104,106,108,110,-1,112,114,116,-1,118,120,-1,122,124,126,128,130,-1,132,134,136,-1,138,140,-1,142,-1,144,-1,146,148,150,-1,152,-1,-1,154,156,158,160,162,164,166,-1,168,170,172,-1,174,-1,176,178,180,182,-1,-1,-1,184,186,-1,188,190,-1,192,-1,194,-1,-1,196,-1,200,-1,-1,-1,-1,202,-1,-1,204,206,-1,208,-1,-1,-1,-1,-1,-1,-1,-1,-1,-1,-1,-1,-1,-1,-1,-1,-1,-1,-1,-1,-1,-1,-1,-1,-1,-1,-1,-1,-1,-1,-1,-1,-1,-1,-1,-1,-1,-1,-1,-1,-1,-1,-1,-1,-1,-1,-1,-1,-1,-1,-1,-1,-1,-1,-1,-1,-1,-1,-1],"split_conditions":[1.075E1,2.0125E2,2.125E1,3.315E-1,1.345E1,1.975E1,2.1849998E1,4.1499996E0,3.295E1,6.25E0,4.015E1,1.5E0,1.9849998E1,3.25E0,2.275E1,4.275E1,4.3500004E0,2.2349998E1,8.65E0,1.9849998E1,8.425E-1,4.165E1,2.5650002E1,8.5E1,5.6499996E0,4.845E1,1.465E1,7.5649994E1,2.0650002E1,8.125E1,3.95E0,1.6849998E1,2.0921502E-2,4.26E1,-3.25E0,-0E0,1.5405047E-2,3.895E-1,9.95E0,-1.95E0,3.415E1,7.95E0,6.75E0,-1.3751589E-3,-1.6570138E-2,9.525673E-3,-3.6384785E-3,-1.6645204E-2,-5.6259455E-3,1.925E1,5.25E0,1.3607301E-2,-5.034949E-4,1.805E1,6.3500004E0,-1.0617053E-2,7.655E1,2.1650002E1,8.4E1,8.05E0,1.08850006E2,1.4616236E-2,7.9550004E-1,1.4619533E-2,-2.0776987E-3,-9.183932E-3,-0E0,5.6499996E0,4.485E-1,2.2650002E1,7.6499996E0,4.535E-1,-1.6312327E-2,3.1650002E1,4.845E1,7.565E-1,-4.782016E-3,5.05E0,2.3275E2,-1.3232446E-2,9.5E0,7.3500004E0,7.7849996E-1,7.955E1,7.755E-1,-6.1668926E-3,2.2150002E1,4.9150002E-1,6.75E0,1.3951611E-2,8.85E0,7.595E-1,3.4186905E-3,5.45E0,-5.345448E-3,8.025E1,1.1108192E-2,3.875E-1,8.03E-1,7.5750005E-1,1.1606087E-2,4.185E1,1.4974644E-2,-7.876171E-3,5.45E0,4.75E0,7.3899996E-1,4.515E-1,7.755E-1,4.45E0,8.155E1,-1.3252858E-3,7.815E-1,3.685E-1,4.3800003E1,-6.916358E-4,2.195E1,-1.0470888E-2,2.2849998E1,2.355E1,1.945E1,9.15E0,-8.859913E-3,-2.8737488E-3,-1.5134173E-2,3.95E0,1.13649994E2,1.4121747E-3,1.035E1,7.415E-1,-9.100028E-3,3.515E-1,-4.348871E-3,2.4150002E1,6.642213E-3,-7.1799527E-3,2.345E1,1.0595069E-2,1.095E1,2.280595E-2,1.2005758E-2,1.4596183E-2,2.6247029E-3,7.8649994E1,8.20687E-3,-1.6506067E-2,1.0395E2,6.8500004E0,-1.0762852E-2,7.565E-1,-1.0633692E-2,1.3121652E-2,-3.856233E-3,-4.8022224E-3,1.06395045E-2,-9.45639E-3,3.295687E-4,-1.4159999E-2,-3.7993006E-3,-1.1378311E-2,2.0159564E-3,2.7454689E-3,1.6425904E-2,-1.83288E-2,-4.3970295E-3,-6.383901E-3,6.8474915E-3,-7.6167313E-3,-1.7573362E-2,1.7455743E-3,-8.945149E-3,-1.8533457E-3,1.3032727E-2,6.7964448E-3,1.7687773E-2,6.3764625E-3,2.4143392E-3,9.677455E-4,-9.097122E-3,-0E0,1.54462075E-2,-6.313091E-4,1.1084718E-2,3.8306208E-3,-4.826641E-3,2.9281643E-3,-8.17422E-3,-5.1138643E-3,-1.6316427E-2,-5.528256E-4,1.1697202E-2,5.020804E-3,1.9354204E-2,-2.3736472E-3,-1.0522437E-2,9.469714E-3,-4.571261E-3,1.3117034E-2,6.8709766E-3,-2.6898393E-3,2.4408142E-3,1.4718982E-3,-1.0665526E-2,7.602838E-5,-1.0037131E-2,-8.627157E-3,4.9892827E-3,-3.9707315E-3,1.0021521E-2],"split_indices":[40,54,23,36,14,22,43,20,5,19,31,1,22,51,48,16,46,38,45,37,39,42,43,6,20,4,37,6,43,6,20,37,0,16,51,0,0,36,51,51,41,19,45,0,0,0,0,0,0,38,46,0,0,48,20,0,6,22,6,8,24,0,39,0,0,0,0,46,33,43,45,33,0,41,30,13,0,45,54,0,0,45,13,6,13,0,22,33,45,0,14,13,0,46,0,6,0,29,39,39,0,16,0,0,34,8,13,33,13,47,6,0,39,36,16,0,49,0,43,48,49,40,0,0,0,46,24,0,14,13,0,36,0,48,0,0,43,1,14,0,0,0,0,6,0,0,50,19,0,13,0,0,0,0,0,0,0,0,0,0,0,0,0,0,0,0,0,0,0,0,0,0,0,0,0,0,0,0,0,0,0,0,0,0,0,0,0,0,0,0,0,0,0,0,0,0,0,2147483647,2147483647,0,0,0,0,0,0,0,0,0,0],"split_type":[0,0,0,0,0,0,0,0,0,0,0,0,0,0,0,0,0,0,0,0,0,0,0,0,0,0,0,0,0,0,0,0,0,0,0,0,0,0,0,0,0,0,0,0,0,0,0,0,0,0,0,0,0,0,0,0,0,0,0,0,0,0,0,0,0,0,0,0,0,0,0,0,0,0,0,0,0,0,0,0,0,0,0,0,0,0,0,0,0,0,0,0,0,0,0,0,0,0,0,0,0,0,0,0,0,0,0,0,0,0,0,0,0,0,0,0,0,0,0,0,0,0,0,0,0,0,0,0,0,0,0,0,0,0,0,0,0,0,0,0,0,0,0,0,0,0,0,0,0,0,0,0,0,0,0,0,0,0,0,0,0,0,0,0,0,0,0,0,0,0,0,0,0,0,0,0,0,0,0,0,0,0,0,0,0,0,0,0,0,0,0,0,0,0,0,0,0,0,0,0,0,0,0,0,0,0,0,0,0],"sum_hessian":[3.2530342E3,1.7229036E3,1.5301307E3,5.399701E2,1.1829335E3,9.956709E2,5.3445984E2,1.21740036E2,4.1823007E2,1.1354387E3,4.7494774E1,4.3096634E2,5.647045E2,2.822281E2,2.5223177E2,2.8997334E1,9.27427E1,1.724909E1,4.0098096E2,1.4099162E2,9.944471E2,2.8997091E1,1.8497683E1,1.9998518E1,4.109678E2,2.2998251E1,5.417063E2,2.2848325E2,5.3744843E1,2.0523576E2,4.6996002E1,2.074816E1,8.249173E0,2.7997911E1,6.474479E1,8.499419E0,8.749672E0,3.359838E2,6.499718E1,1.0599464E2,3.4996983E1,9.491998E2,4.5247208E1,1.324895E1,1.5748142E1,1.0248817E1,8.248866E0,1.0999037E1,8.99948E0,3.2497427E2,8.599355E1,1.3249003E1,9.7492485E0,4.6746403E1,4.9495987E2,1.0998864E1,2.1748438E2,2.6497791E1,2.7247051E1,5.6496323E1,1.4873944E2,9.249035E0,3.7746967E1,8.249332E0,1.2498827E1,1.4498726E1,1.3499186E1,2.9497206E1,3.5247585E1,2.4073941E2,9.524438E1,4.9747982E1,1.5249193E1,4.124797E1,6.4746666E1,2.5747797E1,9.249186E0,5.274715E2,4.2172833E2,1.199923E1,3.324798E1,2.9747715E1,2.9522653E2,5.7245712E1,2.8747845E1,9.249228E0,3.7497173E1,4.447147E2,5.0245182E1,8.749474E0,2.0873491E2,1.7248547E1,9.249246E0,1.7747646E1,9.499407E0,4.2747326E1,1.3748998E1,7.274434E1,7.59951E1,2.949739E1,8.2495775E0,1.9998228E1,9.498978E0,1.4248907E1,2.0998678E1,1.6974232E2,7.099709E1,6.274648E1,3.24979E1,1.7249056E1,3.2498928E1,1.5249316E1,2.5998655E1,4.1747543E1,2.299912E1,9.249266E0,1.6498531E1,9.999509E0,5.17472E2,3.9523065E2,2.6497692E1,1.974851E1,1.3499466E1,1.574925E1,1.3998464E1,1.6998627E2,1.2524028E2,8.99946E0,4.824625E1,1.6498695E1,1.2249147E1,2.899802E1,8.499155E0,4.2871643E2,1.5998264E1,1.1748821E1,3.849636E1,1.649854E1,1.9223636E2,8.749385E0,8.499161E0,8.248883E0,9.498763E0,3.3247795E1,9.499531E0,1.3249341E1,5.9494995E1,6.1746307E1,1.42487955E1,1.8498293E1,1.0999098E1,8.2493305E0,1.1748897E1,9.249384E0,1.1749293E1,2.2998665E1,1.4674365E2,2.1749052E1,4.9248043E1,1.149924E1,5.124724E1,2.1748505E1,1.07493925E1,8.749595E0,8.49946E0,1.5749534E1,1.6749393E1,1.3999596E1,1.199906E1,1.8749159E1,2.2998384E1,1.0249474E1,1.2749648E1,8.24959E0,8.248941E0,1.9498997E2,3.2248203E2,3.7648172E2,1.8748924E1,9.999431E0,1.6498262E1,9.249341E0,1.049917E1,2.774821E1,1.4223805E2,1.0724202E2,1.7998262E1,2.2248493E1,2.5997759E1,8.2492485E0,8.249448E0,1.7748714E1,1.1249306E1,4.082184E2,2.0498028E1,2.8747555E1,9.748804E0,8.249267E0,8.249274E0,8.0994095E1,1.1124226E2,1.7498611E1,1.5749183E1,2.3498198E1,3.59968E1,1.5499292E1,4.6247017E1,9.499314E0,8.998978E0],"tree_param":{"num_deleted":"2","num_feature":"55","num_nodes":"209","size_leaf_vector":"0"}},{"base_weights":[-7.1445727E-3,4.6350386E-2,-1.1183829E-1,1.0767775E-2,1.8320453E-1,-1.3850546E-1,2.7446076E-1,-7.958941E-2,7.9420164E-2,2.475234E-1,-1.1942156E-1,-2.3137814E-1,-3.9187588E-2,-2.6866576E-1,4.2783234E-1,7.311733E-1,-1.0170153E-1,-9.463681E-3,2.1583633E-1,1.0629139E-1,4.050934E-1,-4.0542364E-1,3.2340312E-1,-2.4686092E-1,6.000588E-1,-5.375208E-3,-3.869568E-1,2.4642983E-1,1.0746121E0,2.391606E-1,1.1383066E0,-3.4448546E-1,-3.0318404E-2,3.148924E-2,-7.131922E-1,-2.3735693E-1,2.6411486E-1,2.8297868E-1,-1.7264815E-1,5.1854724E-1,-9.96038E-3,7.883952E-2,-6.5681547E-1,-8.4767975E-2,8.750506E-1,-1.9966125E-1,-5.004883E-1,-1.07669905E-1,1.2127549E-1,-6.2757695E-1,4.145931E-1,5.11205E-1,-2.4069935E-1,5.4003596E-2,-4.97877E-1,1.9957444E-1,-8.343577E-2,1.3394552E-1,-1.5744357E-1,-1.4465268E0,-3.269367E-1,-7.856054E-1,1.4767383E-1,8.483519E-1,2.2783026E-1,1.4668651E-1,9.281582E-1,-1.0531126E0,-3.128816E-2,1.1374085E0,4.4957337E-1,3.0424035E-1,-5.776704E-1,-9.382476E-1,-1.2200748E-1,3.250884E-1,-5.2778924E-1,-1.5832807E-1,-5.307467E-1,-2.8675106E-1,-7.3938864E-1,3.8087463E-1,-1.7008409E-1,1.7244521E-3,4.5179006E-1,-1.3417932E0,-3.5173187E-1,9.1789615E-1,1.3812377E-1,2.9156566E-1,-5.5508953E-1,-5.732022E-1,4.2051864E-1,9.1150033E-1,5.6226023E-2,4.5918662E-2,-2.6434714E-1,-3.2996804E-1,1.8728632E-1,3.687382E-1,-2.399734E-1,-7.144706E-1,7.0848756E-2,5.7729715E-1,-2.9569188E-1,1.3844966E0,3.0622464E-1,2.6620537E-1,-4.2972377E-1,3.8205297E-4,7.334872E-1,3.6192438E-1,1.2702829E0,1.2357502E-1,-7.232581E-1,1.7356294E-1,6.0200006E-1,-4.088074E-2,7.39679E-1,-1.2488438E0,-4.5683444E-1,-2.932901E-1,-5.060531E-2,-7.055325E-1,1.4473617E-1,2.2955166E-1,-6.1461216E-1,-6.699716E-2,-1.0111778E0,9.760054E-1,2.6722122E-2,-8.55798E-2,-5.4859823E-1,-1.19056314E-1,4.69105E-1,6.828257E-1,-1.6760256E-2,-4.6877254E-2,-8.5835296E-1,-2.5975838E-1,6.952031E-1,2.107601E-1,-6.6099447E-1,1.135391E0,5.863277E-1,-4.3010113E-1,3.0167472E-1,-3.5368705E-1,1.2972544E-1,-3.2237145E-1,6.0151535E-1,-6.002613E-1,2.748844E-1,3.1678817E-1,-5.1120506E-3,-2.3068109E-1,1.0167865E0,-9.080177E-1,-1.5405476E-1,2.2957484E-1,9.522133E-1,2.6306278E-1,-1.0235009E0,1.9424334E-1,-4.5591804E-1,1.1683223E0,1.7786995E-1,-1.8063983E-1,3.886246E-1,3.9432025E-1,-3.1189883E-1,1.0223976E0,3.899422E-1,7.817205E-2,-3.9116552E-1,2.8088567E-1,-2.1127297E-1,-9.609673E-1,-2.5955295E-2,-2.3669034E-1,7.071255E-1,-1.1918014E-1,-8.7320936E-1,-1.3764422E0,-3.8294223E-1,-4.0552562E-1,5.225386E-1,-2.0645696E-1,3.172397E-1,-1.426511E0,-2.2893898E-1,-3.954147E-2,-1.0466906E0,8.299261E-2,8.4673196E-1,9.1264886E-1,2.1986347E-1,-5.848146E-1,4.7666955E-1,2.724651E-1,-3.706171E-1],"categories":[],"categories_nodes":[],"categories_segments":[],"categories_sizes":[],"default_left":[1,1,1,1,1,1,1,1,1,1,1,1,1,0,1,1,1,1,1,1,1,1,1,1,0,1,1,1,0,0,0,1,1,1,1,1,1,1,1,1,1,0,1,1,0,1,1,1,1,1,0,1,0,1,1,1,1,1,1,0,1,0,1,1,1,1,1,0,1,0,1,1,0,1,0,0,0,1,1,1,1,1,1,1,1,0,1,0,0,1,0,1,0,1,1,1,1,1,1,1,1,0,0,0,0,0,0,1,1,1,1,0,0,1,0,1,1,0,0,0,0,1,1,1,0,1,1,0,1,0,1,1,1,1,1,1,1,1,0,0,0,0,0,1,1,0,0,0,0,0,0,0,0,0,0,0,0,0,0,0,0,0,0,0,0,0,0,0,0,0,0,0,0,0,0,0,0,0,0,0,0,0,0,0,0,0,0,0,0,0,0,0,0,0,0,0,0,0,0,0,0],"id":7,"left_children":[1,3,5,7,9,11,13,15,17,19,21,23,25,-1,27,29,31,33,35,37,39,41,43,45,-1,47,49,51,-1,-1,-1,53,55,57,59,61,63,65,67,69,71,-1,73,75,-1,77,79,81,83,85,-1,87,-1,89,91,93,95,97,99,-1,101,-1,103,105,107,109,111,-1,113,-1,115,117,-1,119,-1,-1,-1,121,123,125,127,129,131,133,135,-1,137,-1,-1,139,-1,141,-1,-1,145,147,149,151,153,155,157,-1,-1,-1,-1,-1,-1,159,161,163,165,-1,-1,167,-1,169,171,-1,-1,-1,-1,173,175,177,-1,179,181,-1,183,-1,185,187,189,191,193,195,197,199,-1,-1,-1,-1,-1,-1,-1,-1,-1,-1,-1,-1,-1,-1,-1,-1,-1,-1,-1,-1,-1,-1,-1,-1,-1,-1,-1,-1,-1,-1,-1,-1,-1,-1,-1,-1,-1,-1,-1,-1,-1,-1,-1,-1,-1,-1,-1,-1,-1,-1,-1,-1,-1,-1,-1,-1,-1,-1,-1,-1,-1,-1,-1],"loss_changes":[1.8285826E1,1.0499159E1,1.1399864E1,1.0647917E1,8.702371E0,9.504719E0,6.0691204E0,1.329399E1,1.1851727E1,8.098484E0,1.0060291E1,6.9770145E0,5.857857E0,0E0,6.233821E0,3.5732708E0,1.2469608E1,1.7121664E1,8.492802E0,9.685194E0,8.201265E0,5.961146E0,7.154438E0,6.1288433E0,0E0,5.94314E0,8.778719E0,5.9630337E0,0E0,0E0,0E0,1.0066202E1,6.8336043E0,1.0850764E1,8.667789E0,8.0613365E0,7.1268063E0,1.0350059E1,9.358611E0,5.204628E0,6.950384E0,0E0,4.6099615E0,3.5671272E0,0E0,5.9420586E0,3.8746128E0,7.7920947E0,8.047846E0,6.2020016E0,0E0,4.2961216E0,0E0,6.8093705E0,8.428394E0,1.05789E1,1.06809025E1,9.044138E0,8.62249E0,0E0,3.5964632E0,0E0,4.501339E0,5.2566404E0,8.417141E0,8.5591545E0,3.4420338E0,0E0,7.2775497E0,0E0,5.0617332E0,3.8322537E0,0E0,2.4193077E0,0E0,0E0,0E0,5.720193E0,5.8882446E0,7.725151E0,6.7313995E0,5.9882226E0,7.1371E0,8.628346E0,5.930764E0,0E0,3.9292624E0,0E0,0E0,7.753701E0,0E0,7.732273E0,0E0,5.067673E-1,1.0664474E1,8.9290905E0,9.710667E0,6.339688E0,8.172812E0,1.0742977E1,9.591388E0,0E0,0E0,0E0,0E0,0E0,0E0,7.5485287E0,7.8932886E0,7.262488E0,4.5082846E0,0E0,0E0,4.531081E0,0E0,5.015749E0,6.59169E0,0E0,0E0,0E0,0E0,6.4318933E0,1.1867752E1,6.6507244E0,0E0,4.1862493E0,3.3657484E0,0E0,5.4843903E0,0E0,4.316127E0,9.115956E0,1.1042422E1,8.78925E0,4.4384937E0,3.5944195E0,5.5023847E0,1.9034405E0,0E0,0E0,0E0,0E0,0E0,0E0,0E0,0E0,0E0,0E0,0E0,0E0,0E0,0E0,0E0,0E0,0E0,0E0,0E0,0E0,0E0,0E0,0E0,0E0,0E0,0E0,0E0,0E0,0E0,0E0,0E0,0E0,0E0,0E0,0E0,0E0,0E0,0E0,0E0,0E0,0E0,0E0,0E0,0E0,0E0,0E0,0E0,0E0,0E0,0E0,0E0,0E0,0E0,0E0,0E0,0E0,0E0,0E0,0E0,0E0,0E0,0E0,0E0],"parents":[2147483647,0,0,1,1,2,2,3,3,4,4,5,5,6,6,7,7,8,8,9,9,10,10,11,11,12,12,14,14,15,15,16,16,17,17,18,18,19,19,20,20,21,21,22,22,23,23,25,25,26,26,27,27,31,31,32,32,33,33,34,34,35,35,36,36,37,37,38,38,39,39,40,40,42,42,43,43,45,45,46,46,47,47,48,48,49,49,51,51,53,53,54,54,55,55,56,56,57,57,58,58,60,60,62,62,63,63,64,64,65,65,66,66,68,68,70,70,71,71,73,73,77,77,78,78,79,79,80,80,81,81,82,82,83,83,84,84,86,86,89,89,91,91,93,93,94,94,95,95,96,96,97,97,98,98,99,99,100,100,107,107,108,108,109,109,110,110,113,113,115,115,116,116,121,121,122,122,123,123,125,125,126,126,128,128,130,130,131,131,132,132,133,133,134,134,135,135,136,136,137,137],"right_children":[2,4,6,8,10,12,14,16,18,20,22,24,26,-1,28,30,32,34,36,38,40,42,44,46,-1,48,50,52,-1,-1,-1,54,56,58,60,62,64,66,68,70,72,-1,74,76,-1,78,80,82,84,86,-1,88,-1,90,92,94,96,98,100,-1,102,-1,104,106,108,110,112,-1,114,-1,116,118,-1,120,-1,-1,-1,122,124,126,128,130,132,134,136,-1,138,-1,-1,140,-1,142,-1,-1,146,148,150,152,154,156,158,-1,-1,-1,-1,-1,-1,160,162,164,166,-1,-1,168,-1,170,172,-1,-1,-1,-1,174,176,178,-1,180,182,-1,184,-1,186,188,190,192,194,196,198,200,-1,-1,-1,-1,-1,-1,-1,-1,-1,-1,-1,-1,-1,-1,-1,-1,-1,-1,-1,-1,-1,-1,-1,-1,-1,-1,-1,-1,-1,-1,-1,-1,-1,-1,-1,-1,-1,-1,-1,-1,-1,-1,-1,-1,-1,-1,-1,-1,-1,-1,-1,-1,-1,-1,-1,-1,-1,-1,-1,-1,-1,-1,-1],"split_conditions":[1.135E1,3.855E-1,8.85E0,4.75E0,2.5E0,2.055E1,4.6499996E0,2.775E1,2.355E1,7.7349997E-1,2.5E0,2.495E1,2.4349998E1,-3.85587E-3,1.135E1,3.625E-1,9.8850006E1,1.845E1,7.905E1,1.775E1,8.225E-1,4.3500004E0,2.385E1,2.245E1,8.611997E-3,-1.5E-1,3.945E1,5.5E0,1.5422749E-2,3.4324143E-3,1.6336888E-2,3.005E1,3.55E0,5.5E0,2.0525E2,2.495E1,1.185E1,2.0150002E1,2.9150002E1,7.765E-1,4.08E-1,1.1314986E-3,4.845E-1,1.955E1,1.2558658E-2,3.865E-1,1.945E1,2.8849998E1,5.55E0,1.205E1,5.950208E-3,1.4200001E1,-3.4544982E-3,2.4349998E1,6.3500004E0,3.645E1,2.075E1,3.025E-1,1.5E0,-2.076044E-2,2.005E1,-1.1274947E-2,4.22E-1,2.125E1,2.905E1,5.3500004E0,3.125E1,-1.511419E-2,7.1499996E0,1.6323999E-2,1.365E1,1.175E1,-8.29068E-3,8E-1,-1.7510419E-3,4.6656434E-3,-7.57479E-3,1.905E1,2.225E1,3.545E-1,7.315E-1,2.26E1,2.0150002E1,4.765E-1,3.995E1,-1.925731E-2,1.9849998E1,1.3173574E-2,1.9823415E-3,1.355E1,-7.966601E-3,7.78E1,6.0352506E-3,1.3081782E-2,3.455E-1,1.825E1,9.155E1,6.3500004E0,1.475E1,3.48E-1,1.265E1,-1.0254026E-2,1.0168158E-3,8.285324E-3,-4.243747E-3,1.9870186E-2,4.394912E-3,2.3425E2,3.775E1,1.795E1,4.5E0,5.1943106E-3,1.8231E-2,3.51E-1,-1.0380143E-2,1.475E1,1.9349998E1,-5.867172E-4,1.0615815E-2,-1.7923309E-2,-6.5564523E-3,1.175E1,2.155E1,4.855E1,2.0772424E-3,1.04149994E2,3.675E1,-9.6153805E-4,2.085E2,1.4007553E-2,9.9399994E1,1.855E1,1.525E1,4.015E-1,4.1499996E0,2.105E1,2.705E1,9.73E1,-1.2319014E-2,-3.728032E-3,9.977501E-3,3.0248126E-3,-9.486541E-3,1.6295044E-2,8.414929E-3,-6.172778E-3,4.329612E-3,-5.076089E-3,1.8618094E-3,-4.62665E-3,8.632901E-3,-8.614903E-3,3.9451197E-3,4.546519E-3,-7.336775E-5,-3.310717E-3,1.459284E-2,-1.3031799E-2,-2.210982E-3,3.2948402E-3,1.3666091E-2,3.7754565E-3,-1.4689205E-2,2.7877653E-3,-6.5433E-3,1.6767671E-2,2.5527757E-3,-2.5925287E-3,5.57751E-3,5.6592533E-3,-4.4763475E-3,1.4673371E-2,5.5964203E-3,1.1219191E-3,-5.613977E-3,4.0312493E-3,-3.0321733E-3,-1.3791728E-2,-3.7250837E-4,-3.3969614E-3,1.014861E-2,-1.7104641E-3,-1.2532232E-2,-1.975459E-2,-5.495957E-3,-5.8200723E-3,7.499433E-3,-2.9630542E-3,4.5529995E-3,-2.0473175E-2,-3.2857144E-3,-5.674961E-4,-1.5022022E-2,1.1911035E-3,1.2152231E-2,1.3098265E-2,3.1554634E-3,-8.393214E-3,6.841124E-3,3.910398E-3,-5.3190677E-3],"split_indices":[40,10,51,21,53,23,46,41,38,39,52,49,23,0,34,36,50,37,6,37,39,20,38,49,0,51,5,2,0,0,0,15,21,27,54,12,18,11,15,39,10,0,7,23,0,36,23,15,20,40,0,18,0,38,46,5,49,10,52,0,48,0,3,49,12,21,15,0,51,0,18,34,0,51,0,0,0,23,48,10,39,38,37,7,5,0,37,0,0,18,0,6,0,36,10,48,6,21,44,10,18,0,0,0,0,0,0,54,31,11,2,0,0,36,0,44,23,0,0,0,0,40,12,4,0,50,31,0,54,0,24,37,35,10,21,48,35,50,0,0,0,0,0,2147483647,2147483647,0,0,0,0,0,0,0,0,0,0,0,0,0,0,0,0,0,0,0,0,0,0,0,0,0,0,0,0,0,0,0,0,0,0,0,0,0,0,0,0,0,0,0,0,0,0,0,0,0,0,0,0,0,0,0,0],"split_type":[0,0,0,0,0,0,0,0,0,0,0,0,0,0,0,0,0,0,0,0,0,0,0,0,0,0,0,0,0,0,0,0,0,0,0,0,0,0,0,0,0,0,0,0,0,0,0,0,0,0,0,0,0,0,0,0,0,0,0,0,0,0,0,0,0,0,0,0,0,0,0,0,0,0,0,0,0,0,0,0,0,0,0,0,0,0,0,0,0,0,0,0,0,0,0,0,0,0,0,0,0,0,0,0,0,0,0,0,0,0,0,0,0,0,0,0,0,0,0,0,0,0,0,0,0,0,0,0,0,0,0,0,0,0,0,0,0,0,0,0,0,0,0,0,0,0,0,0,0,0,0,0,0,0,0,0,0,0,0,0,0,0,0,0,0,0,0,0,0,0,0,0,0,0,0,0,0,0,0,0,0,0,0,0,0,0,0,0,0,0,0,0,0,0,0,0,0,0,0,0,0],"sum_hessian":[3.262217E3,2.1588389E3,1.103378E3,1.7146394E3,4.441995E2,1.0328875E3,7.049059E1,7.3970435E2,9.7493506E2,3.6670715E2,7.7492325E1,5.326891E2,5.001984E2,1.5248325E1,5.5242268E1,1.87481E1,7.2095624E2,5.9046063E2,3.8447443E2,1.944789E2,1.7222827E2,4.7245907E1,3.0246418E1,5.236901E2,8.998943E0,4.5695355E2,4.3244865E1,4.4243885E1,1.0998382E1,9.249173E0,9.498927E0,1.6273793E2,5.582183E2,5.587136E2,3.1746983E1,3.6497765E1,3.4797665E2,1.1923789E2,7.5241005E1,1.3523337E2,3.6994904E1,1.6248676E1,3.099723E1,1.7747692E1,1.2498726E1,4.4319983E2,8.0490295E1,2.5322617E2,2.0372737E2,3.349566E1,9.7492075E0,2.8745716E1,1.5498169E1,4.524699E1,1.17490944E2,1.03993965E2,4.5422433E2,3.6272537E2,1.9598828E2,9.999249E0,2.1747734E1,1.4749137E1,2.1748629E1,1.89986E1,3.2897806E2,9.948954E1,1.9748348E1,9.499132E0,6.574187E1,1.1997946E1,1.2323542E2,2.3996643E1,1.2998259E1,1.9748426E1,1.1248803E1,9.248836E0,8.4988575E0,3.9545517E2,4.7744675E1,4.3745007E1,3.6745285E1,2.7997786E1,2.252284E2,1.5048233E2,5.324503E1,8.248941E0,2.5246717E1,1.299769E1,1.5748026E1,3.299814E1,1.2248851E1,1.0899162E2,8.499317E0,1.6498747E1,8.749522E1,2.649847E2,1.8923962E2,3.6747066E1,3.259783E2,2.599838E1,1.699899E2,1.0748555E1,1.0999179E1,1.0999263E1,1.0749366E1,8.749553E0,1.0249047E1,3.114796E2,1.7498444E1,8.0491974E1,1.899757E1,8.249332E0,1.1499015E1,5.4243E1,1.149887E1,4.4745495E1,7.848993E1,1.3748064E1,1.0248579E1,1.0999121E1,8.749306E0,1.7447945E2,2.2097571E2,3.7995884E1,9.748792E0,1.6998602E1,2.6746407E1,1.09990635E1,2.5746223E1,9.749227E0,1.824856E1,1.8523344E2,3.9994938E1,1.1998706E2,3.0495274E1,3.5496838E1,1.7748192E1,1.6498117E1,8.748599E0,1.3999385E1,1.8998755E1,1.0749226E1,9.82424E1,8.249512E0,8.249234E0,2.8998537E1,5.849668E1,4.5247684E1,2.1973701E2,1.7799098E2,1.124865E1,2.5498253E1,1.1248814E1,1.9473793E2,1.3124037E2,1.3749041E1,1.224934E1,1.8248695E1,1.517412E2,2.9698206E2,1.4497555E1,8.249162E0,9.249281E0,5.6994244E1,2.349773E1,9.998616E0,8.998954E0,2.5245752E1,2.8997248E1,3.099696E1,1.3748534E1,2.4995996E1,5.3493927E1,3.624608E1,1.3823337E2,7.174163E1,1.4923409E2,2.7246967E1,1.0748915E1,8.749225E0,8.249376E0,9.748758E0,1.6997648E1,1.549751E1,1.02487135E1,9.749127E0,8.499433E0,1.4298672E2,4.2246727E1,9.748186E0,3.0246752E1,1.114881E2,8.4989605E0,1.57475E1,1.4747773E1,2.2998013E1,1.2498824E1,8.249386E0,9.498806E0,8.2490015E0,8.249117E0],"tree_param":{"num_deleted":"2","num_feature":"55","num_nodes":"201","size_leaf_vector":"0"}},{"base_weights":[-1.8103557E-2,2.6345054E-2,-1.05544396E-1,1.556569E-2,3.8955274E-1,-9.0359026E-1,-9.732588E-2,5.5791248E-2,-9.3036965E-2,-2.2746415E-1,5.811602E-1,4.489225E-2,-1.4188723E-1,-4.515089E-2,1.3204016E-1,-9.223802E-1,-7.022628E-2,2.3980194E-1,9.7256505E-1,6.0631526E-1,-8.0401294E-2,-6.597772E-1,-1.18931174E-1,-2.2141958E-2,-7.8439516E-1,1.9217403E-1,-6.24812E-2,-1.8340883E-1,6.96355E-2,-8.233394E-2,7.5716984E-1,5.171488E-1,1.4098861E0,3.2635581E-1,1.1232587E0,-2.4414498E-1,2.2458027E-1,-9.334021E-1,1.0112079E-1,-2.2122276E-1,-9.955513E-3,-3.575267E-3,-6.2450236E-1,-1.1049175E0,-3.1826198E-1,9.909271E-3,2.7615023E-1,8.640664E-1,-1.1686351E-1,-1.0148842E-1,-5.426218E-1,-3.413321E-1,1.5421273E-1,4.633087E-2,8.0705583E-1,-3.2806936E-1,5.718154E-1,-8.1085086E-2,4.8559082E-1,-1.3366033E0,-2.9192656E-1,2.900099E-1,-2.5659248E-1,1.0410016E-1,-2.176424E-1,-4.9218446E-2,2.4912116E-1,-1.8130916E-1,-1.0443262E0,-2.0223132E-1,1.9032735E-1,3.7183285E-1,1.03827946E-1,-3.616583E-1,7.726071E-2,-2.0122941E-1,1.4851034E-1,2.3555035E-2,-7.6581556E-1,-6.890595E-1,1.2589887E-1,4.198153E-2,4.4609737E-1,5.712797E-1,-4.0915883E-1,4.604189E-1,-3.9104378E-1,-8.23461E-1,1.8340875E-1,1.8381166E-1,8.595794E-1,-3.0836505E-1,8.6432624E-1,-1.421701E-1,-4.4822797E-1,4.855158E-1,1.2563396E-2,-1.0270575E0,-1.3516611E-1,-3.1842932E-2,-9.643763E-1,3.753656E-1,-6.936881E-1,-5.6677186E-1,1.9513661E-2,5.375547E-2,7.3101604E-1,-2.8478028E-2,4.809293E-1,2.9140666E-1,-1.88764E-1,-7.3401734E-2,-8.1076735E-1,1.9196263E-1,-8.909222E-1,6.297704E-2,-4.4049475E-1,4.2658675E-1,-2.5320008E-1,-1.1377939E0,-2.4781752E-1,-3.8321625E-2,-1.1511015E0,6.583557E-1,-3.9646325E-1,1.8853606E-1,-3.5878858E-1,6.246408E-1,-2.8439218E-1,-7.187554E-1,-2.4179411E-1,-3.4528834E-1,5.573216E-1,-1.2411255E-1,6.92022E-1,3.6535102E-1,1.2472409E0,-6.51566E-1,-4.785164E-2,-5.070793E-1,4.214074E-1,1.8774648E-1,9.5865417E-1,1.6667263E-1,-1.8362944E-1,4.174845E-1,-2.4763343E-1],"categories":[],"categories_nodes":[],"categories_segments":[],"categories_sizes":[],"default_left":[1,1,1,1,1,0,1,1,1,0,1,1,1,1,1,0,1,1,1,1,1,1,1,1,1,1,1,1,1,0,0,0,0,1,0,1,1,1,0,1,1,1,1,0,0,1,1,0,1,1,1,1,1,1,0,1,0,1,1,0,0,1,1,1,1,1,1,0,0,1,1,1,1,1,1,1,1,0,1,1,1,1,1,0,0,0,1,0,1,1,1,0,0,1,1,1,1,0,1,0,0,0,0,0,0,0,0,0,0,0,0,0,0,0,0,0,0,0,0,0,0,0,0,0,0,0,0,0,0,0,0,0,0,0,0,0,0,0,0,0,0,0,0,0,0,0,0],"id":8,"left_children":[1,3,5,7,9,-1,11,13,15,-1,17,19,21,23,25,-1,27,29,31,33,35,37,39,41,43,45,47,49,51,-1,-1,-1,-1,53,-1,55,57,59,-1,61,63,65,67,-1,-1,69,71,-1,73,75,77,79,81,83,-1,85,-1,87,89,-1,-1,91,93,95,97,99,101,-1,-1,103,105,107,109,111,113,115,117,-1,119,121,123,125,127,-1,-1,-1,129,-1,131,133,135,-1,-1,137,139,141,143,-1,145,-1,-1,-1,-1,-1,-1,-1,-1,-1,-1,-1,-1,-1,-1,-1,-1,-1,-1,-1,-1,-1,-1,-1,-1,-1,-1,-1,-1,-1,-1,-1,-1,-1,-1,-1,-1,-1,-1,-1,-1,-1,-1,-1,-1,-1,-1,-1,-1],"loss_changes":[1.2605061E1,8.372962E0,7.003336E0,9.123248E0,7.4431534E0,0E0,6.8776426E0,1.1748642E1,1.0528757E1,0E0,6.0178833E0,1.8282816E1,9.673792E0,1.108045E1,1.0191044E1,0E0,8.729887E0,4.5602617E0,3.478531E0,6.401224E0,1.0646912E1,7.3758993E0,8.802408E0,7.076223E0,2.4940891E0,1.0146036E1,1.0393586E1,8.859854E0,8.597786E0,0E0,0E0,0E0,0E0,4.224616E0,0E0,9.648855E0,6.0074673E0,6.1415024E0,0E0,7.441309E0,9.141617E0,7.141182E0,3.2428503E0,0E0,0E0,8.106957E0,7.420479E0,0E0,9.32379E0,6.2511644E0,7.17725E0,6.9797664E0,6.6623583E0,5.353331E0,0E0,6.438072E0,0E0,7.050974E0,4.3278666E0,0E0,0E0,9.460653E0,8.270226E0,8.63376E0,8.913513E0,8.250099E0,1.1482576E1,0E0,0E0,7.9107313E0,8.365041E0,1.2787804E1,9.05589E0,1.1090604E1,1.2251044E1,1.1367527E1,8.0929785E0,0E0,7.411127E0,7.203347E0,5.4586716E0,8.824173E0,7.5847883E0,0E0,0E0,0E0,5.513157E0,0E0,5.419994E0,3.832038E0,2.8283253E0,0E0,0E0,1.1486214E1,7.4806976E0,6.4884663E0,6.1239924E0,0E0,7.876625E0,0E0,0E0,0E0,0E0,0E0,0E0,0E0,0E0,0E0,0E0,0E0,0E0,0E0,0E0,0E0,0E0,0E0,0E0,0E0,0E0,0E0,0E0,0E0,0E0,0E0,0E0,0E0,0E0,0E0,0E0,0E0,0E0,0E0,0E0,0E0,0E0,0E0,0E0,0E0,0E0,0E0,0E0,0E0,0E0,0E0,0E0,0E0,0E0],"parents":[2147483647,0,0,1,1,2,2,3,3,4,4,6,6,7,7,8,8,10,10,11,11,12,12,13,13,14,14,16,16,17,17,18,18,19,19,20,20,21,21,22,22,23,23,24,24,25,25,26,26,27,27,28,28,33,33,35,35,36,36,37,37,39,39,40,40,41,41,42,42,45,45,46,46,48,48,49,49,50,50,51,51,52,52,53,53,55,55,57,57,58,58,61,61,62,62,63,63,64,64,65,65,66,66,69,69,70,70,71,71,72,72,73,73,74,74,75,75,76,76,78,78,79,79,80,80,81,81,82,82,86,86,88,88,89,89,90,90,93,93,94,94,95,95,96,96,98,98],"right_children":[2,4,6,8,10,-1,12,14,16,-1,18,20,22,24,26,-1,28,30,32,34,36,38,40,42,44,46,48,50,52,-1,-1,-1,-1,54,-1,56,58,60,-1,62,64,66,68,-1,-1,70,72,-1,74,76,78,80,82,84,-1,86,-1,88,90,-1,-1,92,94,96,98,100,102,-1,-1,104,106,108,110,112,114,116,118,-1,120,122,124,126,128,-1,-1,-1,130,-1,132,134,136,-1,-1,138,140,142,144,-1,146,-1,-1,-1,-1,-1,-1,-1,-1,-1,-1,-1,-1,-1,-1,-1,-1,-1,-1,-1,-1,-1,-1,-1,-1,-1,-1,-1,-1,-1,-1,-1,-1,-1,-1,-1,-1,-1,-1,-1,-1,-1,-1,-1,-1,-1,-1,-1,-1],"split_conditions":[1.135E1,5.0750005E-1,6.6499996E0,3.85E0,1.5E0,-1.2968257E-2,4.45E0,4.6499996E0,1.7349998E1,-3.2645478E-3,2.345E1,7.955E1,1.7849998E1,3.945E1,7.9649997E-1,-1.3237929E-2,7.825E-1,7.825E-1,1.20149994E2,4.8500004E0,4.615E-1,1.255E1,2.055E1,2.425E1,1.185E1,2.175E1,6.855E-1,7.715E-1,4.595E-1,-1.1816502E-3,1.0866842E-2,7.4220793E-3,2.0234575E-2,7.645E-1,1.6120922E-2,1.375E1,4.8500004E0,1.295E1,1.4512778E-3,1.7650002E1,7.705E-1,1.175E1,8.3350006E1,-1.5857691E-2,-4.567671E-3,7.6549995E-1,5.05E0,1.2401014E-2,1.0375E2,1.0725E2,8.255E1,2.2849998E1,4.855E1,1.995E1,1.1582802E-2,-1E1,8.20665E-3,2.175E1,7.615E-1,-1.9182825E-2,-4.1897073E-3,2.175E1,1.115E1,2.345E1,2.825E1,4.755E1,8.1649995E-1,-2.602135E-3,-1.4988088E-2,1.9849998E1,3.495E1,7.295E-1,5.1499996E0,2.225E1,4.255E1,8.65E0,5.1499996E0,3.3806002E-4,3.1349998E1,2.5E0,2.245E1,8.805E1,1.205E1,8.198962E-3,-5.8722156E-3,6.607896E-3,7.4950004E-1,-1.1818248E-2,2.0150002E1,2.3000002E0,2.42E1,-4.425631E-3,1.2404743E-2,3.905E1,2.2849998E1,3.925E1,4.495E1,-1.474025E-2,2.955E1,-4.570073E-4,-1.3840653E-2,5.387218E-3,-9.955757E-3,-8.134265E-3,2.8005854E-4,7.714943E-4,1.0491486E-2,-4.0871443E-4,6.90226E-3,4.1822456E-3,-2.7091263E-3,-1.053456E-3,-1.163607E-2,2.7550326E-3,-1.2786446E-2,9.038416E-4,-6.321946E-3,6.12234E-3,-3.6339078E-3,-1.6329529E-2,-3.5566576E-3,-5.49989E-4,-1.6520519E-2,9.44867E-3,-5.69001E-3,2.7058548E-3,-5.149306E-3,8.964797E-3,-4.0815743E-3,-1.0315522E-2,-3.4702101E-3,-4.955551E-3,7.998636E-3,-1.7812536E-3,9.9318465E-3,5.2434895E-3,1.7900305E-2,-9.351225E-3,-6.86763E-4,-7.2775627E-3,6.048006E-3,2.694523E-3,1.375853E-2,2.3920727E-3,-2.6354354E-3,5.9917048E-3,-3.5540157E-3],"split_indices":[40,33,14,51,53,0,47,21,17,0,17,6,17,35,39,0,39,13,50,51,33,14,23,23,8,12,13,39,33,0,0,0,0,39,0,40,46,40,0,49,39,14,6,0,0,13,46,0,24,24,6,17,4,22,0,25,0,12,39,0,0,43,14,12,41,42,39,0,0,12,41,39,47,43,31,34,20,0,35,28,43,6,14,0,0,0,13,0,49,25,35,0,0,16,37,31,42,0,15,0,0,0,0,0,0,0,0,0,0,0,0,0,0,0,0,0,0,0,0,0,0,0,0,0,0,0,0,0,0,0,0,0,0,0,0,0,0,0,0,0,0,0,0,0,0,0,0],"split_type":[0,0,0,0,0,0,0,0,0,0,0,0,0,0,0,0,0,0,0,0,0,0,0,0,0,0,0,0,0,0,0,0,0,0,0,0,0,0,0,0,0,0,0,0,0,0,0,0,0,0,0,0,0,0,0,0,0,0,0,0,0,0,0,0,0,0,0,0,0,0,0,0,0,0,0,0,0,0,0,0,0,0,0,0,0,0,0,0,0,0,0,0,0,0,0,0,0,0,0,0,0,0,0,0,0,0,0,0,0,0,0,0,0,0,0,0,0,0,0,0,0,0,0,0,0,0,0,0,0,0,0,0,0,0,0,0,0,0,0,0,0,0,0,0,0,0,0],"sum_hessian":[3.23989E3,2.147795E3,1.0920951E3,2.0870532E3,6.0741776E1,9.997928E0,1.0820972E3,1.5238534E3,5.6319977E2,1.42482E1,4.6493572E1,2.577132E2,8.243839E2,6.554345E2,8.684189E2,1.3998235E1,5.4920154E2,2.5748014E1,2.0745558E1,4.6492943E1,2.1122025E2,3.374346E1,7.9064044E2,6.366866E2,1.874798E1,6.6368976E2,2.0472911E2,3.037246E2,2.4547696E2,1.6248718E1,9.499295E0,1.1248231E1,9.497328E0,3.1246399E1,1.5246545E1,1.3773225E2,7.348798E1,2.4744925E1,8.998535E0,4.0693753E2,3.8370294E2,6.186889E2,1.7997635E1,1.0249266E1,8.4987135E0,2.0997937E2,4.537104E2,1.0498916E1,1.942302E2,2.4848048E2,5.5244114E1,4.124696E1,2.0423E2,2.0497417E1,1.0748983E1,1.254833E2,1.2248959E1,3.399503E1,3.9492954E1,1.4496912E1,1.02480135E1,2.5746672E1,3.8119086E2,2.4772066E2,1.3598227E2,5.249491E2,9.3739845E1,9.498452E0,8.499183E0,9.6240295E1,1.1373907E2,2.9072406E2,1.6298634E2,8.574077E1,1.0848942E2,1.7798642E2,7.0494064E1,1.5748565E1,3.949555E1,2.3498087E1,1.7748873E1,1.4848506E2,5.5744923E1,9.498637E0,1.0998779E1,8.749286E0,1.1673402E2,8.498467E0,2.5496561E1,2.2746288E1,1.6746668E1,1.27480755E1,1.2998595E1,2.3996512E2,1.4122575E2,4.6994614E1,2.0072604E2,1.1498305E1,1.2448396E2,5.161998E2,8.749223E0,8.324094E1,1.0498908E1,3.599719E1,6.024311E1,9.174122E1,2.1997845E1,6.2244625E1,2.2847942E2,9.949268E1,6.3493664E1,5.2993404E1,3.2747368E1,9.774031E1,1.0749105E1,8.474284E1,9.3243576E1,4.174691E1,2.8747156E1,2.2247574E1,1.7247974E1,1.0249211E1,1.3248876E1,8.749431E0,8.999442E0,1.0923886E2,3.9246204E1,4.4996326E1,1.0748598E1,3.524471E1,8.14893E1,1.04986315E1,1.4997929E1,1.4497995E1,8.248293E0,8.248662E0,8.498006E0,3.6494675E1,2.0347044E2,1.3272684E2,8.498926E0,2.9746584E1,1.724803E1,1.12737755E2,8.798829E1,2.049797E1,1.0398599E2],"tree_param":{"num_deleted":"0","num_feature":"55","num_nodes":"147","size_leaf_vector":"0"}},{"base_weights":[-8.705439E-3,2.4070344E-3,-3.204097E-1,3.8979843E-2,-7.6426074E-2,-4.0882838E-1,6.992651E-1,3.775027E-3,1.801658E-1,1.4556682E-1,-1.3484192E-1,-1.2990416E0,-2.9437187E-1,-7.766226E-2,6.638015E-2,1.0416781E0,1.5746269E-1,3.1173366E-1,-1.2546864E-1,-1.9657072E-1,8.370019E-2,-4.4848043E-1,1.9765778E-1,8.3221996E-1,-9.3753584E-2,1.8755242E-1,-2.6441617E-2,1.3713227E-1,8.4401405E-1,4.2036343E-2,5.011258E-1,1.6215926E-1,-4.4660917E-1,-8.898622E-1,-1.7041634E-1,-2.6489598E-1,2.7740547E-1,-1.1689497E-1,-6.438064E-1,7.7722085E-1,-3.543865E-1,-3.20149E-1,-1.8925648E-2,-2.0918724E-1,2.3969804E-1,7.311574E-3,-5.1454085E-1,-1.8615249E-1,1.7896692E-1,-4.500198E-1,3.0070254E-1,-2.9757705E-1,6.0833603E-1,5.6251067E-1,-1.4671536E-1,-8.642507E-1,2.761265E-1,-5.339632E-1,-1.1803278E0,-1.2977305E-1,-4.9266243E-1,3.1035563E-1,-4.638969E-1,9.0691584E-1,1.1969565E-1,-5.983447E-1,2.4146473E-1,-1.5740581E-1,-9.5134753E-1,2.8542748E-1,-4.1468716E-1,7.272694E-1,-3.8714726E-2,-4.5170397E-1,5.7627064E-1,3.1691656E-1,-2.824482E-2,9.36901E-1,-9.866196E-3,-7.4978936E-1,2.0538712E-1,-4.766675E-1,1.1746848E-1,4.1400757E-1,7.8908846E-2,7.3525975E-3,-9.2055035E-1,1.0624468E0,2.8109696E-2,3.8205367E-2,7.409227E-1,1.2520987E0,-8.6396046E-2,-6.44265E-1,4.889674E-1,-1.3520172E-1,-1.2287503E0,-7.818326E-1,-1.113711E-1,-6.9452715E-1,2.011331E-1,-9.266834E-1,-1.6700871E-1,2.8073356E-1,1.4657149E0,-2.1857582E-1,3.7479806E-1,3.053872E-1,-5.906484E-1,-1.3652856E0,-6.159955E-1,-1.2499622E-1,7.877506E-1,-2.6150703E-1,-7.5784415E-1,5.665902E-3,-4.152708E-1,-7.282938E-1,3.1606779E-1,4.0366977E-1,-1.050557E-1,-2.712007E-1,4.8525795E-1,-4.3046277E-2,4.613454E-1,-1.4672095E-1,-1.024205E0,-9.324259E-1,-7.309841E-2,-2.1145101E-1,5.929105E-1,7.257272E-1,1.945695E-1,-7.551788E-1,1.2266286E-1,3.5757995E-1,-5.859428E-1,-4.706262E-2,8.9636135E-1,7.249367E-2,-1.84494E-1,-8.592485E-1,1.10633165E-1,-4.0270582E-1,-1.3505924E0,2.6785427E-1,-6.043374E-1,1.6374917E-1,-6.559661E-1,-2.7673623E-1,5.2782196E-1],"categories":[],"categories_nodes":[],"categories_segments":[],"categories_sizes":[],"default_left":[1,1,1,1,1,1,0,1,1,1,1,0,1,1,1,0,1,1,1,1,1,1,1,0,1,1,1,1,0,1,1,1,1,1,1,1,1,1,1,0,0,1,1,1,1,1,1,1,1,1,1,0,1,1,1,1,0,0,0,1,1,0,1,1,1,0,0,1,1,1,1,0,1,1,0,1,1,0,1,1,0,1,1,1,1,0,0,0,1,0,1,0,0,0,0,0,0,0,1,1,0,1,1,0,0,1,1,0,0,0,0,0,0,0,0,0,0,0,0,0,0,0,0,0,0,0,0,0,0,0,0,0,0,0,0,0,0,0,0,0,0,0,0,0,0,0,0,0,0,0,0],"id":9,"left_children":[1,3,5,7,9,11,-1,13,15,17,19,-1,21,23,25,-1,27,29,31,33,35,37,39,-1,41,43,45,47,-1,49,51,53,55,57,59,61,63,65,67,-1,-1,69,71,73,75,77,79,81,83,85,87,-1,89,91,93,95,-1,-1,-1,97,99,-1,101,103,105,-1,-1,107,109,111,113,-1,115,117,-1,119,121,-1,123,125,-1,127,129,131,133,-1,-1,-1,135,-1,137,-1,-1,-1,-1,-1,-1,-1,139,141,-1,143,145,-1,-1,147,149,-1,-1,-1,-1,-1,-1,-1,-1,-1,-1,-1,-1,-1,-1,-1,-1,-1,-1,-1,-1,-1,-1,-1,-1,-1,-1,-1,-1,-1,-1,-1,-1,-1,-1,-1,-1,-1,-1,-1,-1,-1,-1,-1,-1],"loss_changes":[1.12362585E1,9.010227E0,1.0307997E1,1.0601725E1,1.2855551E1,1.0048388E1,0E0,8.728533E0,8.076569E0,9.34702E0,1.0608459E1,0E0,7.1485605E0,1.0897815E1,1.0912149E1,0E0,5.618331E0,6.493615E0,7.3799777E0,1.08734455E1,1.1760754E1,4.475672E0,7.545603E0,0E0,1.2359991E1,8.751301E0,9.088639E0,5.512688E0,0E0,7.0072875E0,6.6302986E0,5.326144E0,1.1640695E1,1.5379982E0,7.633198E0,7.262847E0,1.0923252E1,4.938632E0,6.412863E0,0E0,0E0,1.0506142E1,8.106715E0,9.597727E0,7.737358E0,8.296009E0,6.2304106E0,4.1987586E0,8.385876E0,4.1553383E0,7.3916354E0,0E0,4.947859E0,8.555102E0,8.02959E0,6.154711E0,0E0,0E0,0E0,6.162965E0,9.367592E0,0E0,6.1766376E0,7.229849E0,7.912709E0,0E0,0E0,3.8852525E0,2.791174E0,5.2856607E0,8.0048065E0,0E0,9.025599E0,8.354545E0,0E0,1.065859E1,1.0573746E1,0E0,7.8887134E0,4.259717E0,0E0,4.298922E0,3.811358E0,7.104965E0,9.289342E0,0E0,0E0,0E0,5.773664E0,0E0,6.7144947E0,0E0,0E0,0E0,0E0,0E0,0E0,0E0,6.9235744E0,6.9371815E0,0E0,3.3296423E0,5.8212247E0,0E0,0E0,6.733282E0,5.3577223E0,0E0,0E0,0E0,0E0,0E0,0E0,0E0,0E0,0E0,0E0,0E0,0E0,0E0,0E0,0E0,0E0,0E0,0E0,0E0,0E0,0E0,0E0,0E0,0E0,0E0,0E0,0E0,0E0,0E0,0E0,0E0,0E0,0E0,0E0,0E0,0E0,0E0,0E0,0E0,0E0,0E0,0E0,0E0,0E0],"parents":[2147483647,0,0,1,1,2,2,3,3,4,4,5,5,7,7,8,8,9,9,10,10,12,12,13,13,14,14,16,16,17,17,18,18,19,19,20,20,21,21,22,22,24,24,25,25,26,26,27,27,29,29,30,30,31,31,32,32,33,33,34,34,35,35,36,36,37,37,38,38,41,41,42,42,43,43,44,44,45,45,46,46,47,47,48,48,49,49,50,50,52,52,53,53,54,54,55,55,59,59,60,60,62,62,63,63,64,64,67,67,68,68,69,69,70,70,72,72,73,73,75,75,76,76,78,78,79,79,81,81,82,82,83,83,84,84,88,88,90,90,98,98,99,99,101,101,102,102,105,105,106,106],"right_children":[2,4,6,8,10,12,-1,14,16,18,20,-1,22,24,26,-1,28,30,32,34,36,38,40,-1,42,44,46,48,-1,50,52,54,56,58,60,62,64,66,68,-1,-1,70,72,74,76,78,80,82,84,86,88,-1,90,92,94,96,-1,-1,-1,98,100,-1,102,104,106,-1,-1,108,110,112,114,-1,116,118,-1,120,122,-1,124,126,-1,128,130,132,134,-1,-1,-1,136,-1,138,-1,-1,-1,-1,-1,-1,-1,140,142,-1,144,146,-1,-1,148,150,-1,-1,-1,-1,-1,-1,-1,-1,-1,-1,-1,-1,-1,-1,-1,-1,-1,-1,-1,-1,-1,-1,-1,-1,-1,-1,-1,-1,-1,-1,-1,-1,-1,-1,-1,-1,-1,-1,-1,-1,-1,-1,-1,-1],"split_conditions":[3.005E1,1.145E1,2.74E1,3.865E-1,1.705E1,3.875E1,1.0035799E-2,4.75E0,8.955E1,2.155E1,8.75E0,-1.8643744E-2,6.5E0,2.7349998E1,-5.5E-1,1.4950083E-2,5.1750004E-1,2.005E1,3.505E-1,5.75E0,1.6349998E1,9.905E1,4.95E0,1.1943956E-2,9.9350006E1,1.475E1,1.7349998E1,1.795E1,1.2113224E-2,5.95E0,2.825E1,1.445E1,2.475E1,4.245E1,6.05E0,4.25E0,4.085E1,5.3500004E0,4.45E0,1.1154613E-2,-5.0861277E-3,5.95E0,5.5E0,4.0800003E1,4.595E1,2.695E1,5.8500004E0,3.31E1,4.25E0,2.2E1,2.865E-1,-4.2708027E-3,7.125E-1,2.3849998E1,5.2250004E-1,2.1650002E1,3.962946E-3,-7.6633985E-3,-1.6939972E-2,3.75E0,6.25E0,4.4541997E-3,1.215E1,1.505E1,3.835E1,-8.587397E-3,3.465483E-3,7.3500004E0,1.805E1,2.0849998E1,2.355E1,1.0437714E-2,2.305E1,3.365E1,8.2705915E-3,2.5E0,7.95E0,1.344633E-2,4.935E1,4.05E0,2.9477E-3,7.565E-1,1.005E1,1.6849998E1,1.385E1,1.05523904E-4,-1.3211667E-2,1.5248154E-2,4.455E1,5.483205E-4,1.265E1,1.7970022E-2,-1.2399494E-3,-9.246441E-3,7.017622E-3,-1.9404045E-3,-1.763493E-2,-1.12208E-2,1.955E1,2.275E1,2.8866467E-3,1.035E1,9.450001E0,4.0290663E-3,2.1035826E-2,9.45E0,3.315E-1,4.3828934E-3,-8.47694E-3,-1.9594474E-2,-8.84072E-3,-1.793936E-3,1.1305735E-2,-3.7531287E-3,-1.0876521E-2,8.131658E-5,-5.959934E-3,-1.0452416E-2,4.5361803E-3,5.7934374E-3,-1.5077512E-3,-3.892251E-3,6.964384E-3,-6.177968E-4,6.621193E-3,-2.1057276E-3,-1.469931E-2,-1.3382104E-2,-1.0491027E-3,-3.0347283E-3,8.509406E-3,1.041558E-2,2.7924462E-3,-1.0838267E-2,1.7604477E-3,5.1319594E-3,-8.409405E-3,-6.754391E-4,1.2864509E-2,1.0404235E-3,-2.6478437E-3,-1.2331868E-2,1.5877986E-3,-5.7796026E-3,-1.9383596E-2,3.8442237E-3,-8.673403E-3,2.3501155E-3,-9.414375E-3,-3.971697E-3,7.5752595E-3],"split_indices":[12,40,23,10,9,42,0,21,50,49,45,0,1,41,51,0,7,23,10,8,11,50,20,0,50,11,18,22,0,34,41,9,12,16,21,20,16,34,47,0,0,45,0,5,16,15,20,15,20,12,3,0,39,12,29,12,0,0,0,34,47,0,40,44,5,0,0,45,9,23,9,0,49,41,0,53,45,0,4,47,0,39,40,11,37,0,0,0,42,0,44,0,0,0,0,0,0,0,49,49,0,14,8,0,0,45,10,0,0,0,0,0,0,0,0,0,0,0,0,0,0,0,0,0,0,0,0,0,0,0,0,0,0,0,0,0,0,0,0,0,0,0,0,0,0,0,0,0,0,0,0],"split_type":[0,0,0,0,0,0,0,0,0,0,0,0,0,0,0,0,0,0,0,0,0,0,0,0,0,0,0,0,0,0,0,0,0,0,0,0,0,0,0,0,0,0,0,0,0,0,0,0,0,0,0,0,0,0,0,0,0,0,0,0,0,0,0,0,0,0,0,0,0,0,0,0,0,0,0,0,0,0,0,0,0,0,0,0,0,0,0,0,0,0,0,0,0,0,0,0,0,0,0,0,0,0,0,0,0,0,0,0,0,0,0,0,0,0,0,0,0,0,0,0,0,0,0,0,0,0,0,0,0,0,0,0,0,0,0,0,0,0,0,0,0,0,0,0,0,0,0,0,0,0,0],"sum_hessian":[3.2350718E3,3.1243384E3,1.1073348E2,2.1352644E3,9.890739E2,1.0248471E2,8.248772E0,1.7103372E3,4.2492728E2,2.0546034E2,7.836136E2,1.0498314E1,9.19864E1,7.4268427E2,9.676529E2,9.746592E0,4.151807E2,1.2747682E2,7.798353E1,6.113971E2,1.7221648E2,7.023931E1,2.1747082E1,1.1998026E1,7.306862E2,4.1970914E2,5.479437E2,4.0443933E2,1.0741353E1,5.3239418E1,7.4237404E1,4.124272E1,3.6740803E1,2.0996243E1,5.904009E2,6.123777E1,1.10978714E2,2.6746532E1,4.3492783E1,1.0498652E1,1.1248429E1,1.8047838E2,5.502078E2,4.824494E1,3.714642E2,5.131969E2,3.474688E1,4.574348E1,3.5869586E2,1.7995817E1,3.5243603E1,8.498111E0,6.5739296E1,1.7748123E1,2.34946E1,2.324362E1,1.3497185E1,1.0748275E1,1.0247967E1,5.256631E2,6.47378E1,1.5497792E1,4.5739975E1,2.1243853E1,8.9734856E1,1.124796E1,1.5498571E1,1.7496225E1,2.599656E1,2.3997707E1,1.5648068E2,1.3248276E1,5.369596E2,3.72459E1,1.0999045E1,2.884727E2,8.2991516E1,8.498724E0,5.0469815E2,2.6247953E1,8.498927E0,2.3247263E1,2.2496218E1,1.0598465E2,2.527112E2,9.49814E0,8.497676E0,8.498782E0,2.674482E1,1.2748304E1,5.299099E1,8.248988E0,9.499135E0,1.3246202E1,1.0248397E1,8.248093E0,1.4995526E1,1.3246388E1,5.124167E2,5.024002E1,1.4497776E1,1.6996199E1,2.8743776E1,1.0745887E1,1.0497967E1,3.8494427E1,5.1240433E1,8.498362E0,8.997864E0,1.0248035E1,1.5748523E1,1.34985285E1,1.049918E1,1.0948647E2,4.69942E1,4.8096436E2,5.599521E1,2.7497032E1,9.748866E0,2.3947754E2,4.899515E1,5.674469E1,2.6246828E1,4.7245163E2,3.2246532E1,8.749301E0,1.7498652E1,1.0249214E1,1.299805E1,1.349723E1,8.998987E0,4.274353E1,6.3241123E1,1.1748512E1,2.4096269E2,1.7746794E1,8.998026E0,8.748457E0,4.4242535E1,1.4547821E2,3.6693848E2,4.174218E1,8.497843E0,8.498368E0,8.497831E0,1.4496594E1,1.4247183E1,2.0747501E1,1.7746923E1,9.498852E0,4.174158E1],"tree_param":{"num_deleted":"0","num_feature":"55","num_nodes":"151","size_leaf_vector":"0"}},{"base_weights":[-6.552443E-3,3.9408173E-2,-9.651405E-2,4.564744E-3,1.7350733E-1,-9.199717E-1,-8.717662E-2,1.4938944E-2,-5.4896474E-1,1.5002249E-1,9.41271E-1,-7.476861E-2,-5.725058E-1,7.3456174E-1,7.3608435E-3,-2.6596668E-1,-1.1509402E0,3.3282757E-1,4.682749E-2,-9.28257E-2,2.3819353E-1,-1.0758788E-1,-8.700774E-1,1.1214335E0,2.6427555E-1,2.62511E-2,-2.9324344E-1,1.4541933E-1,-8.9502984E-1,-2.2770402E-1,4.384988E-1,5.0363934E-1,-2.3274822E-2,-5.062252E-2,-3.1003237E-1,-7.690458E-2,8.5080945E-1,1.4374379E-2,5.9093916E-1,-5.363879E-1,2.4194391E-2,-8.3026296E-1,3.5065615E-1,5.3331107E-1,-2.5020128E-1,1.4312844E-1,1.1072184E0,-5.7795115E-2,8.23936E-1,1.6068341E-1,-9.283019E-2,-2.1944834E-1,-8.677653E-1,1.6973305E-1,-5.9638923E-1,2.0174184E-1,1.3605893E0,-7.067948E-2,8.3955325E-2,8.919023E-2,9.805166E-1,-7.26577E-2,-8.440186E-1,3.0859527E-1,-5.050816E-1,5.3308006E-2,6.8465686E-1,-5.087117E-1,5.594368E-1,4.3260944E-1,-1.25716E-1,2.6421355E-2,6.2506455E-1,-7.369481E-2,-5.4389346E-1,-3.1143459E-2,-5.760344E-1,-1.236163E0,-2.799763E-1,-1.8758623E-1,7.2467285E-1,6.4942354E-1,-8.7363705E-2,-7.733086E-1,1.0352436E-1,1.3478158E0,5.0786173E-1,4.726096E-1,-7.727533E-1,-1.1414392E0,-1.9221461E-1,-1.3741903E-1,8.9692295E-1,-8.4815127E-1,4.7104368E-1,9.027649E-1,2.7816418E-1,1.139787E0,-6.952616E-2,-2.9924962E-1,4.0325962E-2,-3.2766104E-1,2.6904246E-1,1.2679437E0,3.2147706E-1,-2.1244188E-1,-4.1886754E-3,5.4727765E-3,-9.507046E-1,-5.3680784E-1,1.1515687E-1,-2.6452237E-1,-1.096313E0],"categories":[],"categories_nodes":[],"categories_segments":[],"categories_sizes":[],"default_left":[1,1,1,1,1,0,1,1,1,1,0,1,1,1,1,1,0,1,1,1,1,0,0,0,0,1,1,0,0,1,1,1,1,1,1,1,1,1,1,1,1,0,0,1,0,1,0,1,0,1,1,1,1,1,0,0,0,1,1,0,1,1,1,1,0,1,1,0,0,1,1,1,1,1,1,1,1,0,0,0,0,0,0,0,0,0,0,0,0,0,0,0,0,0,0,0,0,0,0,0,0,0,0,0,0,0,0,0,0,0,0,0,0],"id":10,"left_children":[1,3,5,7,9,-1,11,13,15,17,-1,19,21,23,25,27,-1,29,31,33,35,-1,-1,-1,-1,37,39,-1,-1,41,43,45,47,49,51,53,55,57,59,61,63,-1,-1,65,-1,67,-1,69,-1,71,73,75,77,79,-1,-1,-1,81,83,-1,85,87,89,91,-1,93,95,-1,-1,97,99,101,103,105,107,109,111,-1,-1,-1,-1,-1,-1,-1,-1,-1,-1,-1,-1,-1,-1,-1,-1,-1,-1,-1,-1,-1,-1,-1,-1,-1,-1,-1,-1,-1,-1,-1,-1,-1,-1,-1,-1],"loss_changes":[1.3490143E1,1.006821E1,8.325487E0,9.808145E0,7.793682E0,0E0,6.4831734E0,9.116235E0,4.9494247E0,8.114461E0,0E0,6.033637E0,3.555356E0,2.7790098E0,9.453651E0,6.050823E0,0E0,9.329496E0,8.9498625E0,9.204176E0,1.1354046E1,0E0,0E0,0E0,0E0,1.0470949E1,7.65026E0,0E0,0E0,9.082869E0,8.727589E0,7.8362284E0,7.046824E0,7.555607E0,7.9996986E0,5.1485305E0,6.206869E0,9.113317E0,6.11792E0,7.842676E0,6.663956E0,0E0,0E0,8.324177E0,0E0,6.89585E0,0E0,7.790261E0,0E0,8.715064E0,6.0070653E0,9.477341E0,4.4068756E0,5.559445E0,0E0,0E0,0E0,8.323814E0,1.4232954E1,0E0,2.3210754E0,9.305338E0,6.163044E0,7.767357E0,0E0,1.12304735E1,7.4618454E0,0E0,0E0,1.025527E1,5.9583726E0,9.561861E0,5.6208086E0,6.527036E0,6.4354324E0,7.0585384E0,7.545065E0,0E0,0E0,0E0,0E0,0E0,0E0,0E0,0E0,0E0,0E0,0E0,0E0,0E0,0E0,0E0,0E0,0E0,0E0,0E0,0E0,0E0,0E0,0E0,0E0,0E0,0E0,0E0,0E0,0E0,0E0,0E0,0E0,0E0,0E0,0E0,0E0],"parents":[2147483647,0,0,1,1,2,2,3,3,4,4,6,6,7,7,8,8,9,9,11,11,12,12,13,13,14,14,15,15,17,17,18,18,19,19,20,20,25,25,26,26,29,29,30,30,31,31,32,32,33,33,34,34,35,35,36,36,37,37,38,38,39,39,40,40,43,43,45,45,47,47,49,49,50,50,51,51,52,52,53,53,57,57,58,58,60,60,61,61,62,62,63,63,65,65,66,66,69,69,70,70,71,71,72,72,73,73,74,74,75,75,76,76],"right_children":[2,4,6,8,10,-1,12,14,16,18,-1,20,22,24,26,28,-1,30,32,34,36,-1,-1,-1,-1,38,40,-1,-1,42,44,46,48,50,52,54,56,58,60,62,64,-1,-1,66,-1,68,-1,70,-1,72,74,76,78,80,-1,-1,-1,82,84,-1,86,88,90,92,-1,94,96,-1,-1,98,100,102,104,106,108,110,112,-1,-1,-1,-1,-1,-1,-1,-1,-1,-1,-1,-1,-1,-1,-1,-1,-1,-1,-1,-1,-1,-1,-1,-1,-1,-1,-1,-1,-1,-1,-1,-1,-1,-1,-1,-1],"split_conditions":[1.135E1,3.855E-1,6.75E0,5.5E0,5.1750004E-1,-1.3203362E-2,4.5E0,3.245E1,5.05E0,2.1650002E1,1.3509048E-2,3.645E1,2.2849998E1,1.605E1,1.355E1,2.78E1,-1.6518204E-2,2.9150002E1,2.9849998E1,3.415E1,2.505E1,-1.5440929E-3,-1.2487283E-2,1.6094726E-2,3.7928622E-3,5.1049995E-1,5.6499996E0,2.0870469E-3,-1.2845399E-2,3.605E1,4.895E1,7.8E-1,4.495E1,1.295E1,2.745E1,3.51E1,4.815E1,4.75E0,7.7E-1,4.545E1,5.1499996E0,-1.1915869E-2,5.0325897E-3,4.05E0,-3.5908693E-3,2.055E1,1.5890712E-2,7.95E0,1.1825065E-2,2.645E1,3.0150002E1,4.075E1,2.2349998E1,3.415E1,-8.559332E-3,2.8953832E-3,1.952707E-2,2.775E1,8.9649994E1,1.2800512E-3,2.025E1,4.675E-1,2.97E1,1.015E1,-7.2488915E-3,2.615E-1,3.725E1,-7.3009906E-3,8.028993E-3,4.5E0,4.285E1,4.45E0,6.95E0,1.365E1,4.365E-1,3.635E1,2.375E1,-1.7741315E-2,-4.0181982E-3,-2.692223E-3,1.0400448E-2,9.320476E-3,-1.2538371E-3,-1.1098464E-2,1.4857735E-3,1.9343747E-2,7.288792E-3,6.7828563E-3,-1.1090495E-2,-1.6381847E-2,-2.7586492E-3,-1.9722271E-3,1.2872568E-2,-1.2172601E-2,6.760382E-3,1.2956412E-2,3.9921906E-3,1.6358133E-2,-9.97834E-4,-4.294807E-3,5.7875505E-4,-4.7025657E-3,3.8612764E-3,1.819743E-2,4.6138135E-3,-3.0489492E-3,-6.0115544E-5,7.8544865E-5,-1.3644438E-2,-7.7042244E-3,1.6527224E-3,-3.7964045E-3,-1.57342E-2],"split_indices":[40,10,14,52,7,0,52,5,47,43,0,15,38,18,14,9,0,15,15,15,38,0,0,0,0,33,21,0,0,31,30,13,5,44,38,9,16,21,13,16,47,0,0,46,0,22,0,40,0,12,12,31,48,41,0,0,0,41,24,0,22,33,9,40,0,29,31,0,0,27,42,46,19,18,33,31,12,0,0,0,0,0,0,0,0,0,0,0,0,0,0,0,0,0,0,0,0,0,0,0,0,0,0,0,0,0,0,0,0,0,0,0,0],"split_type":[0,0,0,0,0,0,0,0,0,0,0,0,0,0,0,0,0,0,0,0,0,0,0,0,0,0,0,0,0,0,0,0,0,0,0,0,0,0,0,0,0,0,0,0,0,0,0,0,0,0,0,0,0,0,0,0,0,0,0,0,0,0,0,0,0,0,0,0,0,0,0,0,0,0,0,0,0,0,0,0,0,0,0,0,0,0,0,0,0,0,0,0,0,0,0,0,0,0,0,0,0,0,0,0,0,0,0,0,0,0,0,0,0],"sum_hessian":[3.2597332E3,2.1572178E3,1.1025153E3,1.713562E3,4.4365585E2,1.1246564E1,1.0912687E3,1.6830721E3,3.048989E1,4.3166977E2,1.1986086E1,1.065277E3,2.5991718E1,1.6496489E1,1.6665757E3,2.174432E1,8.745569E0,1.5471771E2,2.7695206E2,1.0080364E3,5.724056E1,1.0746508E1,1.524521E1,8.248406E0,8.248082E0,1.5690977E3,9.747796E1,1.349735E1,8.24697E0,2.4245079E1,1.3047264E2,3.624253E1,2.4070953E2,8.453208E2,1.627156E2,3.8244038E1,1.8996521E1,1.5378528E3,3.1244919E1,5.4985622E1,4.2492336E1,1.1747287E1,1.2497791E1,1.1497526E2,1.5497382E1,2.3495481E1,1.2747051E1,2.3221123E2,8.498308E0,1.3997375E2,7.0534705E2,1.4122205E2,2.1493559E1,2.6246134E1,1.1997906E1,8.998535E0,9.997986E0,6.9143787E2,8.464149E2,1.4248762E1,1.6996157E1,2.249517E1,3.249045E1,2.7994839E1,1.4497497E1,2.7995201E1,8.698006E1,8.998539E0,1.4496942E1,2.7492619E1,2.047186E2,1.0948144E2,3.0492313E1,6.778556E2,2.749145E1,9.323214E1,4.7989902E1,1.2495852E1,8.997706E0,1.6247477E1,9.998657E0,1.4746856E1,6.76691E2,1.7997128E1,8.284178E2,8.497653E0,8.498503E0,1.2748021E1,9.747149E0,2.174337E1,1.074708E1,1.624659E1,1.1748251E1,8.498716E0,1.9496485E1,5.5735664E1,3.124439E1,1.0995836E1,1.6496784E1,9.9984184E1,1.0473442E2,4.4242657E1,6.523878E1,8.746921E0,2.1745394E1,2.2520016E2,4.5265543E2,1.199802E1,1.549343E1,2.0494255E1,7.2737885E1,3.099335E1,1.6996555E1],"tree_param":{"num_deleted":"0","num_feature":"55","num_nodes":"113","size_leaf_vector":"0"}},{"base_weights":[-8.6685475E-3,3.332944E-2,-9.9384785E-2,-2.3572783E-3,1.7314588E-1,-1.0078549E0,-9.1027275E-2,-1.0962512E-1,4.6272896E-2,2.3612353E-1,-1.2904346E-1,-1.0826811E-1,3.320145E-1,-7.8027524E-2,-6.457887E-1,5.902025E-1,2.805929E-2,3.256235E-1,-9.449277E-2,-4.418669E-1,3.4049094E-1,8.3560747E-1,-1.1741463E-1,6.392266E-1,-6.159615E-1,-9.694934E-3,-2.604464E-1,-1.027547E0,4.1625176E-2,8.9543885E-1,-3.3493057E-2,3.6891203E-2,-7.335348E-1,5.2015513E-1,1.2140377E-1,-3.9619523E-1,2.6209337E-1,-8.405438E-1,-1.2619059E-1,6.005696E-1,-3.2347584E-1,-1.0057784E-1,-6.321861E-1,2.5118527E-1,1.2877809E0,-5.1184125E-2,5.6327677E-1,-9.31403E-1,-1.8399991E-1,-1.4175446E0,-5.2609974E-1,1.1572413E0,3.0056185E-1,2.6724176E-2,8.84524E-1,2.578669E-1,7.444234E-1,1.0151925E0,3.684542E-2,-6.630533E-1,3.4329817E-1,-8.095659E-2,6.818944E-1,-3.1114316E-1,