{"learner":{"attributes":{"best_iteration":"499","best_ntree_limit":"500"},"feature_names":[],"feature_types":[],"gradient_booster":{"model":{"gbtree_model_param":{"num_parallel_tree":"1","num_trees":"500","size_leaf_vector":"0"},"tree_info":[0,0,0,0,0,0,0,0,0,0,0,0,0,0,0,0,0,0,0,0,0,0,0,0,0,0,0,0,0,0,0,0,0,0,0,0,0,0,0,0,0,0,0,0,0,0,0,0,0,0,0,0,0,0,0,0,0,0,0,0,0,0,0,0,0,0,0,0,0,0,0,0,0,0,0,0,0,0,0,0,0,0,0,0,0,0,0,0,0,0,0,0,0,0,0,0,0,0,0,0,0,0,0,0,0,0,0,0,0,0,0,0,0,0,0,0,0,0,0,0,0,0,0,0,0,0,0,0,0,0,0,0,0,0,0,0,0,0,0,0,0,0,0,0,0,0,0,0,0,0,0,0,0,0,0,0,0,0,0,0,0,0,0,0,0,0,0,0,0,0,0,0,0,0,0,0,0,0,0,0,0,0,0,0,0,0,0,0,0,0,0,0,0,0,0,0,0,0,0,0,0,0,0,0,0,0,0,0,0,0,0,0,0,0,0,0,0,0,0,0,0,0,0,0,0,0,0,0,0,0,0,0,0,0,0,0,0,0,0,0,0,0,0,0,0,0,0,0,0,0,0,0,0,0,0,0,0,0,0,0,0,0,0,0,0,0,0,0,0,0,0,0,0,0,0,0,0,0,0,0,0,0,0,0,0,0,0,0,0,0,0,0,0,0,0,0,0,0,0,0,0,0,0,0,0,0,0,0,0,0,0,0,0,0,0,0,0,0,0,0,0,0,0,0,0,0,0,0,0,0,0,0,0,0,0,0,0,0,0,0,0,0,0,0,0,0,0,0,0,0,0,0,0,0,0,0,0,0,0,0,0,0,0,0,0,0,0,0,0,0,0,0,0,0,0,0,0,0,0,0,0,0,0,0,0,0,0,0,0,0,0,0,0,0,0,0,0,0,0,0,0,0,0,0,0,0,0,0,0,0,0,0,0,0,0,0,0,0,0,0,0,0,0,0,0,0,0,0,0,0,0,0,0,0,0,0,0,0,0,0,0,0,0,0,0,0,0,0,0,0,0,0,0,0,0,0,0,0,0,0,0,0,0,0,0,0,0,0,0,0,0,0,0,0,0,0,0,0,0,0,0,0,0,0,0,0,0,0,0,0,0,0,0,0,0,0,0,0,0,0],"trees":[{"base_weights":[2.239323E-2,-2.5551373E-1,2.8758165E-1,-4.0991887E-1,1.1928397E-2,1.7652364E-1,4.8999304E-1,-5.841E-1,-3.2148632E-1,-2.4682333E-1,1.164539E-1,-3.184334E-2,3.4555268E-1,3.2958835E-1,5.6129354E-1,-7.46721E-1,-4.9223477E-1,-4.1692728E-1,-1.9945982E-1,-3.2170618E-1,1.2054341E-1,4.6231527E-2,3.9535978E-1,-1.1807515E-1,3.0945918E-1,3.0147645E-1,6.8917334E-1,4.0489057E-1,-1.9220646E-2,5.1223785E-1,7.374334E-1,-7.9515964E-1,2.2005486E-1,-2.1024724E-2,-5.6547636E-1,-6.039561E-1,-3.1823352E-1,2.7785248E-1,-2.434961E-1,-1.7324395E-1,-5.456395E-1,-5.6401424E-2,9.054626E-1,-6.2587184E-1,6.476376E-2,-2.0928194E-1,5.05844E-1,-7.708038E-2,-5.676955E-1,4.4606623E-1,-1.9908132E-1,1.955283E-1,4.2625993E-1,8.4476817E-1,3.836267E-1,-8.771238E-2,4.591356E-1,-3.130059E-1,5.6967205E-1,4.3254817E-1,6.6549385E-1,5.1261365E-1,8.63641E-1],"categories":[],"categories_nodes":[],"categories_segments":[],"categories_sizes":[],"default_left":[1,1,1,1,1,1,1,1,1,1,1,1,1,1,1,1,1,1,1,1,1,1,1,1,1,1,1,1,1,1,1,0,0,0,0,0,0,0,0,0,0,0,0,0,0,0,0,0,0,0,0,0,0,0,0,0,0,0,0,0,0,0,0],"id":0,"left_children":[1,3,5,7,9,11,13,15,17,19,21,23,25,27,29,31,33,35,37,39,41,43,45,47,49,51,53,55,57,59,61,-1,-1,-1,-1,-1,-1,-1,-1,-1,-1,-1,-1,-1,-1,-1,-1,-1,-1,-1,-1,-1,-1,-1,-1,-1,-1,-1,-1,-1,-1,-1,-1],"loss_changes":[3.419777E2,9.3601746E1,5.325737E1,2.1918716E1,2.2442066E1,5.4088703E1,9.40744E0,6.8546295E0,1.1002434E1,6.6090107E0,1.1529867E1,2.023992E1,1.26065445E1,6.890276E0,4.654236E0,8.251076E0,1.0651703E1,9.653946E0,8.879053E0,6.4701176E0,5.7608175E0,5.8657694E0,8.02E0,1.0036549E1,9.710076E0,9.834007E0,4.2183304E0,5.7982483E0,8.148078E0,5.285103E0,3.119995E0,0E0,0E0,0E0,0E0,0E0,0E0,0E0,0E0,0E0,0E0,0E0,0E0,0E0,0E0,0E0,0E0,0E0,0E0,0E0,0E0,0E0,0E0,0E0,0E0,0E0,0E0,0E0,0E0,0E0,0E0,0E0,0E0],"parents":[2147483647,0,0,1,1,2,2,3,3,4,4,5,5,6,6,7,7,8,8,9,9,10,10,11,11,12,12,13,13,14,14,15,15,16,16,17,17,18,18,19,19,20,20,21,21,22,22,23,23,24,24,25,25,26,26,27,27,28,28,29,29,30,30],"right_children":[2,4,6,8,10,12,14,16,18,20,22,24,26,28,30,32,34,36,38,40,42,44,46,48,50,52,54,56,58,60,62,-1,-1,-1,-1,-1,-1,-1,-1,-1,-1,-1,-1,-1,-1,-1,-1,-1,-1,-1,-1,-1,-1,-1,-1,-1,-1,-1,-1,-1,-1,-1,-1],"split_conditions":[9.85E0,8.5649994E1,2.525E1,6.8500004E0,8.15E0,8.6850006E1,1.155E1,8.0850006E1,8.45E0,4.025E1,1.265E1,1.275E1,1.455E1,2.7849998E1,2.5E0,3.5199997E1,2.9349998E1,4.3500004E0,3.25E0,4.855E1,2.33E1,2.9849998E1,8.645E1,4.635E1,5.6499996E0,3.365E1,2.595E1,3.75E0,3.275E1,8.925E1,4.3500004E0,-1.0208456E-1,2.8251188E-2,-2.6992061E-3,-7.259725E-2,-7.753738E-2,-4.0855605E-2,3.5671387E-2,-3.1260632E-2,-2.2241488E-2,-7.005055E-2,-7.2409543E-3,1.1624553E-1,-8.035097E-2,8.314532E-3,-2.6868133E-2,6.49415E-2,-9.89577E-3,-7.288215E-2,5.7267085E-2,-2.5558552E-2,2.5102407E-2,5.4724306E-2,1.0845343E-1,4.9250945E-2,-1.1260732E-2,5.8944963E-2,-4.018447E-2,7.3135905E-2,5.5531602E-2,8.5437745E-2,6.5810606E-2,1.10876374E-1],"split_indices":[8,32,17,8,34,32,8,32,34,31,34,8,8,17,53,41,41,20,20,30,35,41,32,42,20,35,43,47,35,32,20,0,0,0,0,0,0,0,0,0,0,0,0,0,0,0,0,0,0,0,0,0,0,0,0,0,0,0,0,0,0,0,0],"split_type":[0,0,0,0,0,0,0,0,0,0,0,0,0,0,0,0,0,0,0,0,0,0,0,0,0,0,0,0,0,0,0,0,0,0,0,0,0,0,0,0,0,0,0,0,0,0,0,0,0,0,0,0,0,0,0,0,0,0,0,0,0,0,0],"sum_hessian":[4.639E3,2.265E3,2.374E3,1.436E3,8.29E2,1.534E3,8.4E2,4.82E2,9.54E2,2.38E2,5.91E2,6.87E2,8.47E2,2.6E2,5.8E2,1.72E2,3.1E2,5.34E2,4.2E2,1.98E2,4E1,4.73E2,1.18E2,5.49E2,1.38E2,7.52E2,9.5E1,2.14E2,4.6E1,4.56E2,1.24E2,1.64E2,8E0,4.2E1,2.68E2,1.83E2,3.51E2,3.5E1,3.85E2,1.2E2,7.8E1,3.3E1,7E0,1.2E1,4.61E2,1.8E1,1E2,5.04E2,4.5E1,1.09E2,2.9E1,4.08E2,3.44E2,6.2E1,3.3E1,2.1E1,1.93E2,3.1E1,1.5E1,3.02E2,1.54E2,4.6E1,7.8E1],"tree_param":{"num_deleted":"0","num_feature":"54","num_nodes":"63","size_leaf_vector":"0"}},{"base_weights":[-1.9744225E-3,-3.9552984E-1,1.7918496E-1,-4.619861E-1,-4.3668542E-2,-1.3559155E-1,2.640878E-1,-6.182477E-1,-3.918337E-1,-5.867026E-1,5.6863677E-2,-1.9892347E-1,3.6535528E-1,1.677414E-1,4.745455E-1,-8.375563E-1,-5.4518044E-1,-0E0,-4.3733326E-1,-8.4559506E-1,-3.167165E-1,-5.791057E-2,5.152268E-1,3.0565163E-2,-3.436535E-1,8.290847E-1,8.3576255E-2,2.2330925E-1,-3.6060996E-2,5.3932935E-1,2.9211965E-1,-4.4159812E-1,-9.1112995E-1,4.5218158E-1,-5.760783E-1,-3.6208433E-1,2.4984488E-1,1.9113025E-1,-4.5959845E-1,1.176459E-1,-5.936638E-1,4.8001537E-1,-1.4142013E-1,8.406268E-1,-5.0915116E-1,-1.1148359E-1,2.3641697E-1,-5.354278E-1,-2.1385168E-1,3.802515E-1,9.650759E-1,4.6138197E-1,-2.9200515E-1,1.2930728E-1,4.0010908E-1,-4.4380596E-1,6.200623E-2,4.6449E-1,6.741451E-1,4.1027042E-1,-1.6570531E-1],"categories":[],"categories_nodes":[],"categories_segments":[],"categories_sizes":[],"default_left":[1,1,1,1,1,1,1,1,1,1,1,1,1,1,1,1,1,1,1,0,1,1,1,1,1,1,1,1,1,1,1,0,0,0,0,0,0,0,0,0,0,0,0,0,0,0,0,0,0,0,0,0,0,0,0,0,0,0,0,0,0],"id":1,"left_children":[1,3,5,7,9,11,13,15,17,19,21,23,25,27,29,31,33,35,37,-1,39,41,43,45,47,49,51,53,55,57,59,-1,-1,-1,-1,-1,-1,-1,-1,-1,-1,-1,-1,-1,-1,-1,-1,-1,-1,-1,-1,-1,-1,-1,-1,-1,-1,-1,-1,-1,-1],"loss_changes":[3.2129968E2,3.3153824E1,8.249979E1,1.2841217E1,1.2447172E1,2.0827477E1,4.9169388E1,5.48172E0,1.4737122E1,2.2036037E0,1.0146532E1,1.938998E1,9.481734E0,1.8921284E1,8.829254E0,2.2512932E0,8.75927E0,7.891432E0,1.0445374E1,0E0,2.3319516E0,6.907328E0,1.3170088E1,6.626465E0,8.753548E0,1.3196316E0,6.7152653E0,2.1711517E1,1.4356445E1,5.355118E0,1.0973202E1,0E0,0E0,0E0,0E0,0E0,0E0,0E0,0E0,0E0,0E0,0E0,0E0,0E0,0E0,0E0,0E0,0E0,0E0,0E0,0E0,0E0,0E0,0E0,0E0,0E0,0E0,0E0,0E0,0E0,0E0],"parents":[2147483647,0,0,1,1,2,2,3,3,4,4,5,5,6,6,7,7,8,8,9,9,10,10,11,11,12,12,13,13,14,14,15,15,16,16,17,17,18,18,20,20,21,21,22,22,23,23,24,24,25,25,26,26,27,27,28,28,29,29,30,30],"right_children":[2,4,6,8,10,12,14,16,18,20,22,24,26,28,30,32,34,36,38,-1,40,42,44,46,48,50,52,54,56,58,60,-1,-1,-1,-1,-1,-1,-1,-1,-1,-1,-1,-1,-1,-1,-1,-1,-1,-1,-1,-1,-1,-1,-1,-1,-1,-1,-1,-1,-1,-1],"split_conditions":[3.795E1,1.09649994E2,1.0175E2,9.7149994E1,3.535E1,2.6349998E1,4.185E1,3.485E1,-6.6499996E0,7.78E-1,1.162E2,-5.1499996E0,4.305E-1,6.05E0,4.25E0,1.815E1,2.7849998E1,3.635E1,3.05E-1,-1.08559586E-1,4.6499996E0,3.345E-1,9.15E0,3.39E-1,3.915E1,4.145E1,3.82E-1,1.11149994E2,1.07649994E2,1.12850006E2,1.165E1,-5.6693457E-2,-1.1697312E-1,5.805219E-2,-7.395836E-2,-4.6485282E-2,3.2075703E-2,2.4537774E-2,-5.9004385E-2,1.5103672E-2,-7.621603E-2,6.162556E-2,-1.8155865E-2,1.0792174E-1,-6.536609E-2,-1.4312539E-2,3.0351795E-2,-6.873955E-2,-2.7454806E-2,4.8817627E-2,1.23898834E-1,5.923336E-2,-3.7488345E-2,1.660079E-2,5.1366992E-2,-5.6976907E-2,7.960513E-3,5.9632376E-2,8.654842E-2,5.2671533E-2,-2.1273658E-2],"split_indices":[5,50,50,50,5,17,5,5,51,39,50,51,33,51,51,17,41,5,36,0,20,36,45,36,5,5,29,50,50,50,14,0,0,0,0,0,0,0,0,0,0,0,0,0,0,0,0,0,0,0,0,0,0,0,0,0,0,0,0,0,0],"split_type":[0,0,0,0,0,0,0,0,0,0,0,0,0,0,0,0,0,0,0,0,0,0,0,0,0,0,0,0,0,0,0,0,0,0,0,0,0,0,0,0,0,0,0,0,0,0,0,0,0,0,0,0,0,0,0,0,0,0,0,0,0],"sum_hessian":[4.505E3,1.42E3,3.085E3,1.194E3,2.26E2,6.55E2,2.43E3,3.68E2,8.26E2,3.5E1,1.91E2,5.82E2,7.3E1,1.668E3,7.62E2,9E1,2.78E2,8.6E1,7.4E2,1.7E1,1.8E1,1.53E2,3.8E1,2.25E2,3.57E2,2.7E1,4.6E1,1.311E3,3.57E2,5.61E2,2.01E2,1.5E1,7.5E1,8E0,2.7E2,3.5E1,5.1E1,2.5E1,7.15E2,7E0,1.1E1,2E1,1.33E2,2.9E1,9E0,1.33E2,9.2E1,1.43E2,2.14E2,7E0,2E1,2.3E1,2.3E1,8.57E2,4.54E2,6.9E1,2.88E2,3.63E2,1.98E2,1.6E2,4.1E1],"tree_param":{"num_deleted":"0","num_feature":"54","num_nodes":"61","size_leaf_vector":"0"}},{"base_weights":[1.3512591E-2,-3.4596905E-1,2.2896472E-1,-4.9902105E-1,-1.6406997E-1,-3.5660062E-2,3.722641E-1,-6.563177E-1,-4.0818337E-1,5.143359E-2,-2.8975305E-1,-6.2093094E-2,5.607283E-1,2.8085434E-1,5.2861166E-1,-8.1499225E-1,-5.512448E-1,-9.681643E-1,-3.85366E-1,1.1809672E-1,-5.5549335E-1,-4.4612232E-1,-4.0993426E-2,-1.1361812E-1,2.2284843E-1,5.7376422E-2,8.290847E-1,1.2825505E-1,3.730044E-1,5.651895E-1,1.5804254E-1,-9.479121E-1,-5.249449E-1,-6.8928546E-1,-3.376585E-1,-4.0476876E-1,3.1352422E-1,-4.4159812E-1,1.5366396E-1,-7.713417E-2,-8.4559506E-1,-5.151623E-1,8.131151E-2,1.4635037E-1,-2.8240514E-1,-1.5116353E-1,2.1149656E-1,3.7855315E-1,2.8461477E-2,-6.428571E-1,6.843083E-1,5.0915116E-1,9.6132386E-1,6.4476416E-2,4.4685933E-1,2.721393E-1,5.4483414E-1,3.1948468E-1,6.220492E-1,-1.06401324E-1,5.2209187E-1],"categories":[],"categories_nodes":[],"categories_segments":[],"categories_sizes":[],"default_left":[1,1,1,1,1,1,1,1,1,1,1,1,1,1,1,1,1,0,1,1,1,1,1,1,1,1,1,1,1,1,1,0,0,0,0,0,0,0,0,0,0,0,0,0,0,0,0,0,0,0,0,1,1,0,0,0,0,0,0,0,0],"id":2,"left_children":[1,3,5,7,9,11,13,15,17,19,21,23,25,27,29,31,33,-1,35,37,39,41,43,45,47,49,-1,53,55,57,59,-1,-1,-1,-1,-1,-1,-1,-1,-1,-1,-1,-1,-1,-1,-1,-1,-1,-1,-1,-1,-1,-1,-1,-1,-1,-1,-1,-1,-1,-1],"loss_changes":[3.548103E2,4.7671234E1,1.08671036E2,1.3035614E1,2.1312496E1,1.5838231E1,2.6387146E1,5.243393E0,7.2014236E0,1.1712678E1,1.9255615E1,1.4166359E1,5.634965E0,1.6435875E1,9.149445E0,4.691597E0,5.8416023E0,0E0,7.8254547E0,5.2197886E0,3.8349705E0,1.1163212E1,8.751051E0,9.993705E0,4.418918E0,7.1306868E0,7.139263E-1,8.943411E0,1.2503784E1,8.478043E0,6.1055346E0,0E0,0E0,0E0,0E0,0E0,0E0,0E0,0E0,0E0,0E0,0E0,0E0,0E0,0E0,0E0,0E0,0E0,0E0,0E0,0E0,0E0,0E0,0E0,0E0,0E0,0E0,0E0,0E0,0E0,0E0],"parents":[2147483647,0,0,1,1,2,2,3,3,4,4,5,5,6,6,7,7,8,8,9,9,10,10,11,11,12,12,13,13,14,14,15,15,16,16,18,18,19,19,20,20,21,21,22,22,23,23,24,24,25,25,26,26,27,27,28,28,29,29,30,30],"right_children":[2,4,6,8,10,12,14,16,18,20,22,24,26,28,30,32,34,-1,36,38,40,42,44,46,48,50,-1,54,56,58,60,-1,-1,-1,-1,-1,-1,-1,-1,-1,-1,-1,-1,-1,-1,-1,-1,-1,-1,-1,-1,-1,-1,-1,-1,-1,-1,-1,-1,-1,-1],"split_conditions":[9.05E0,3.775E1,3.935E1,6.3500004E0,4.365E-1,1.41E1,4.215E1,1.975E1,4.8500004E0,1.295E1,9.45E0,4.655E1,-3.1E0,1.095E1,6.3500004E0,4.395E1,3.255E-1,-1.2429533E-1,3.685E1,2.855E1,3.02E1,4.725E1,6.835E-1,2.2849998E1,4.4E0,1.975E1,1.0643995E-1,1.325E1,1.075E1,1.855E1,1.455E1,-1.216953E-1,-6.739373E-2,-8.849217E-2,-4.3349434E-2,-5.1965214E-2,4.0251013E-2,-5.6693457E-2,1.9727759E-2,-9.902676E-3,-1.08559586E-1,-6.6137806E-2,1.0438973E-2,1.8788822E-2,-3.625587E-2,-1.9406749E-2,2.7152453E-2,4.859959E-2,3.6539547E-3,-8.253158E-2,8.785319E-2,6.536609E-2,1.2341713E-1,8.277642E-3,5.7368908E-2,3.493792E-2,6.994715E-2,4.1016232E-2,7.986022E-2,-1.3660065E-2,6.702744E-2],"split_indices":[8,5,5,8,29,8,5,48,34,40,34,42,51,8,46,16,10,0,41,41,41,16,29,48,51,48,16,34,40,48,44,0,0,0,0,0,0,0,0,0,0,0,0,0,0,0,0,0,0,0,0,2147483647,2147483647,0,0,0,0,0,0,0,0],"split_type":[0,0,0,0,0,0,0,0,0,0,0,0,0,0,0,0,0,0,0,0,0,0,0,0,0,0,0,0,0,0,0,0,0,0,0,0,0,0,0,0,0,0,0,0,0,0,0,0,0,0,0,0,0,0,0,0,0,0,0,0,0],"sum_hessian":[4.58E3,1.716E3,2.864E3,9.31E2,7.85E2,1.006E3,1.858E3,3.39E2,5.92E2,2.89E2,4.96E2,9.64E2,4.2E1,1.174E3,6.84E2,1.33E2,2.06E2,2.2E1,5.7E2,2.61E2,2.8E1,3.04E2,1.92E2,8.17E2,1.47E2,1.5E1,2.7E1,4.43E2,7.31E2,6.22E2,6.2E1,9E1,4.3E1,1.24E2,8.2E1,5.55E2,1.5E1,1.5E1,2.46E2,1.1E1,1.7E1,2.69E2,3.5E1,1.08E2,8.4E1,7.33E2,8.4E1,8.1E1,6.6E1,7E0,8E0,9E0,1.8E1,3.7E2,7.3E1,4.62E2,2.69E2,1.18E2,5.04E2,3.6E1,2.6E1],"tree_param":{"num_deleted":"2","num_feature":"54","num_nodes":"61","size_leaf_vector":"0"}},{"base_weights":[3.0739047E-2,-2.9808792E-1,2.4818525E-1,-3.7388584E-1,-2.954674E-2,1.1163079E-1,3.842573E-1,-3.8999695E-1,4.1571134E-1,-4.2166224E-1,9.0390615E-2,7.2528064E-2,7.0785666E-1,4.529804E-2,4.634589E-1,-2.0160618E-1,-4.543508E-1,-3.0116412E-1,7.5938016E-1,-5.9897226E-1,1.2262835E-1,-6.977459E-1,1.3247232E-1,-5.079031E-2,1.7533709E-1,5.3559256E-1,8.837897E-1,1.3429399E-1,-4.4061443E-1,3.1169435E-1,5.6312925E-1,-8.406268E-1,-1.4314316E-1,-5.3386086E-1,-2.915684E-1,9.429299E-1,3.802515E-1,-4.199361E-1,-8.406268E-1,9.054626E-1,-2.3447238E-1,-3.802515E-1,-9.1643494E-1,8.492074E-2,6.457588E-1,1.2908238E-1,-1.4383347E-1,-1.922844E-2,2.5345212E-1,6.990117E-1,-9.317708E-2,3.802515E-1,9.785818E-1,6.99641E-2,6.457588E-1,-7.816433E-1,-4.5676492E-2,1.4767587E-1,5.32107E-1,5.803341E-1,-0E0],"categories":[],"categories_nodes":[],"categories_segments":[],"categories_sizes":[],"default_left":[1,1,1,1,1,1,1,1,1,1,1,1,1,1,1,1,1,0,1,1,1,1,1,1,1,1,1,1,1,1,1,0,0,0,0,0,0,0,0,0,0,1,1,0,0,0,0,0,0,0,0,0,0,0,0,0,0,0,0,0,0],"id":3,"left_children":[1,3,5,7,9,11,13,15,17,19,21,23,25,27,29,31,33,-1,35,37,39,-1,43,45,47,49,51,53,55,57,59,-1,-1,-1,-1,-1,-1,-1,-1,-1,-1,-1,-1,-1,-1,-1,-1,-1,-1,-1,-1,-1,-1,-1,-1,-1,-1,-1,-1,-1,-1],"loss_changes":[3.2777893E2,3.709105E1,5.1199097E1,1.8194687E1,1.8992682E1,3.202834E1,3.7025192E1,1.6783218E1,7.23859E0,9.226007E0,1.0233738E1,1.6431894E1,2.1252403E0,1.1361218E1,1.673668E1,1.3146401E1,1.3260895E1,0E0,1.0065689E0,2.749897E0,6.802432E0,7.347331E-1,7.056679E0,9.864003E0,1.0766859E1,4.687561E0,1.5681114E0,7.222344E0,5.362332E0,1.5990688E1,6.5360565E0,0E0,0E0,0E0,0E0,0E0,0E0,0E0,0E0,0E0,0E0,0E0,0E0,0E0,0E0,0E0,0E0,0E0,0E0,0E0,0E0,0E0,0E0,0E0,0E0,0E0,0E0,0E0,0E0,0E0,0E0],"parents":[2147483647,0,0,1,1,2,2,3,3,4,4,5,5,6,6,7,7,8,8,9,9,10,10,11,11,12,12,13,13,14,14,15,15,16,16,18,18,19,19,20,20,21,21,22,22,23,23,24,24,25,25,26,26,27,27,28,28,29,29,30,30],"right_children":[2,4,6,8,10,12,14,16,18,20,22,24,26,28,30,32,34,-1,36,38,40,-1,44,46,48,50,52,54,56,58,60,-1,-1,-1,-1,-1,-1,-1,-1,-1,-1,-1,-1,-1,-1,-1,-1,-1,-1,-1,-1,-1,-1,-1,-1,-1,-1,-1,-1,-1,-1],"split_conditions":[2.595E1,8.655E1,4.605E-1,4.895E1,8.145E1,1.455E1,8.445E1,3.485E-1,4.5E0,6.5E0,1.67E1,8.6850006E1,4.255E1,7.64E-1,8.705E1,4.1750002E-1,9.05E0,-3.8664196E-2,7.55E0,8.45E0,7.945E1,-8.9578345E-2,1.2950001E1,4.0850002E-1,3.025E1,4.19E1,4.365E-1,4.9699998E-1,2.975E1,4.795E-1,1.025E1,-1.0792174E-1,-1.8377073E-2,-6.8538375E-2,-3.7432272E-2,1.2105568E-1,4.8817627E-2,-5.3912435E-2,-1.0792174E-1,1.1624553E-1,-3.0102145E-2,-4.8817627E-2,-1.1765418E-1,1.0902335E-2,8.2904115E-2,1.6571915E-2,-1.8465698E-2,-2.4685946E-3,3.253881E-2,8.974085E-2,-1.1962304E-2,4.8817627E-2,1.2563275E-1,8.982165E-3,8.2904115E-2,-1.003493E-1,-5.864061E-3,1.8958993E-2,6.831321E-2,7.450473E-2,-0E0],"split_indices":[9,32,7,16,6,8,6,29,1,1,9,32,9,29,32,7,34,0,8,45,6,9,34,29,9,9,7,7,9,7,45,0,0,0,0,0,0,0,0,0,0,2147483647,2147483647,0,0,0,0,0,0,0,0,0,0,0,0,0,0,0,0,0,0],"split_type":[0,0,0,0,0,0,0,0,0,0,0,0,0,0,0,0,0,0,0,0,0,0,0,0,0,0,0,0,0,0,0,0,0,0,0,0,0,0,0,0,0,0,0,0,0,0,0,0,0,0,0,0,0,0,0,0,0,0,0,0,0],"sum_hessian":[4.583E3,1.824E3,2.759E3,1.422E3,4.02E2,1.378E3,1.381E3,1.394E3,2.8E1,9.4E1,3.08E2,1.294E3,8.4E1,2.62E2,1.119E3,3.56E2,1.038E3,9E0,1.9E1,7.1E1,2.3E1,1.5E1,2.93E2,5.88E2,7.06E2,4.4E1,4E1,2.22E2,4E1,4.45E2,6.74E2,2.9E1,3.27E2,6.96E2,3.42E2,1.2E1,7E0,4.2E1,2.9E1,7E0,1.6E1,7E0,8E0,2.69E2,2.4E1,2E2,3.88E2,2.02E2,5.04E2,3.5E1,9E0,7E0,3.3E1,1.98E2,2.4E1,2.1E1,1.9E1,2.56E2,1.89E2,6.54E2,2E1],"tree_param":{"num_deleted":"2","num_feature":"54","num_nodes":"61","size_leaf_vector":"0"}},{"base_weights":[2.6614597E-2,-3.3072734E-1,2.2596383E-1,-4.7357807E-1,-2.1085124E-1,8.601069E-2,3.8795123E-1,-5.4438764E-1,-3.347258E-1,-1.24233924E-1,-3.5407656E-1,5.9364475E-2,4.3807337E-1,3.4694642E-1,5.996679E-1,-5.610545E-1,6.580423E-2,-5.679343E-1,-2.081901E-1,-4.2324E-1,-4.061584E-2,-5.1516855E-1,-1.8916349E-1,-3.0051481E-2,1.4601867E-1,5.4022986E-1,-5.553879E-1,3.7931734E-1,9.107606E-2,7.848811E-1,4.2786577E-1,-7.1618795E-1,-4.80001E-1,-6.512478E-1,-6.580423E-2,9.1246605E-2,-3.9468804E-1,4.5218158E-1,-4.8768058E-1,-9.9564895E-2,3.2823008E-1,-5.9143025E-1,-0E0,-4.774498E-1,-1.778335E-2,2.810472E-3,-4.375274E-1,-2.8779337E-2,2.2759414E-1,7.1028847E-1,2.3649493E-1,-1.7728825E-1,3.9462602E-1,-6.6534154E-2,4.199361E-1,4.832628E-1,8.6865324E-1,-2.779288E-1,5.510761E-1],"categories":[],"categories_nodes":[],"categories_segments":[],"categories_sizes":[],"default_left":[1,1,1,1,1,1,1,1,1,1,1,1,1,1,1,1,0,1,1,1,1,1,1,1,1,1,0,1,1,1,1,0,0,0,0,0,0,0,0,0,0,0,0,0,0,0,0,0,0,0,0,0,0,0,0,0,0,0,0],"id":4,"left_children":[1,3,5,7,9,11,13,15,17,19,21,23,25,27,29,31,-1,33,35,37,39,41,43,45,47,49,-1,51,53,55,57,-1,-1,-1,-1,-1,-1,-1,-1,-1,-1,-1,-1,-1,-1,-1,-1,-1,-1,-1,-1,-1,-1,-1,-1,-1,-1,-1,-1],"loss_changes":[3.289749E2,2.8184479E1,6.713989E1,7.2059174E0,1.10960045E1,1.4863413E1,1.1698303E1,5.13501E0,7.418976E0,1.4007866E1,8.86245E0,1.1486975E1,1.15109825E1,9.476639E0,6.7188263E0,5.757431E0,0E0,3.6480389E0,9.414146E0,7.0566235E0,9.576711E0,6.7030983E0,8.273994E0,9.802471E0,1.0756437E1,5.0467987E0,0E0,8.779312E0,6.8240166E0,2.2694168E0,1.0263819E1,0E0,0E0,0E0,0E0,0E0,0E0,0E0,0E0,0E0,0E0,0E0,0E0,0E0,0E0,0E0,0E0,0E0,0E0,0E0,0E0,0E0,0E0,0E0,0E0,0E0,0E0,0E0,0E0],"parents":[2147483647,0,0,1,1,2,2,3,3,4,4,5,5,6,6,7,7,8,8,9,9,10,10,11,11,12,12,13,13,14,14,15,15,17,17,18,18,19,19,20,20,21,21,22,22,23,23,24,24,25,25,27,27,28,28,29,29,30,30],"right_children":[2,4,6,8,10,12,14,16,18,20,22,24,26,28,30,32,-1,34,36,38,40,42,44,46,48,50,-1,52,54,56,58,-1,-1,-1,-1,-1,-1,-1,-1,-1,-1,-1,-1,-1,-1,-1,-1,-1,-1,-1,-1,-1,-1,-1,-1,-1,-1,-1,-1],"split_conditions":[8.85E0,7.05E0,1.155E1,5.3500004E0,5.1499996E0,2.305E1,7.5E0,7.45E0,1.975E1,1.875E1,2.045E1,2.005E1,9.35E0,3.955E-1,7.45E0,5.55E0,8.44811E-3,7.05E0,5.95E0,3.115E-1,4.575E1,9.25E0,3.5E0,4.905E1,9.35E0,2.425E1,-7.130207E-2,1.6650002E1,6.125E-1,1.8349998E1,1.215E1,-9.194598E-2,-6.1623715E-2,-8.3608806E-2,-8.44811E-3,1.1714465E-2,-5.0671026E-2,5.805219E-2,-6.260964E-2,-1.2782387E-2,4.213899E-2,-7.592928E-2,-0E0,-6.1296187E-2,-2.2830705E-3,3.6081535E-4,-5.6170847E-2,-3.6947625E-3,2.9219098E-2,9.118859E-2,3.0361803E-2,-2.2760704E-2,5.0663065E-2,-8.54182E-3,5.3912435E-2,6.2042475E-2,1.1151985E-1,-3.5681188E-2,7.0748515E-2],"split_indices":[8,8,8,47,46,23,1,46,48,23,48,48,45,36,45,8,0,47,47,36,42,45,1,30,14,23,0,48,3,48,8,0,0,0,0,0,0,0,0,0,0,0,0,0,0,0,0,0,0,0,0,0,0,0,0,0,0,0,0],"split_type":[0,0,0,0,0,0,0,0,0,0,0,0,0,0,0,0,0,0,0,0,0,0,0,0,0,0,0,0,0,0,0,0,0,0,0,0,0,0,0,0,0,0,0,0,0,0,0,0,0,0,0,0,0,0,0,0,0,0,0],"sum_hessian":[4.617E3,1.653E3,2.964E3,7.53E2,9E2,1.591E3,1.373E3,4.97E2,2.56E2,5.62E2,3.38E2,1.48E3,1.11E2,1.152E3,2.21E2,4.84E2,1.3E1,8.9E1,1.67E2,1.22E2,4.4E2,1.7E2,1.68E2,7.28E2,7.52E2,1.01E2,1E1,1.022E3,1.3E2,1.05E2,1.16E2,1.64E2,3.2E2,7.6E1,1.3E1,6.4E1,1.03E2,8E0,1.14E2,3.8E2,6E1,1.48E2,2.2E1,6.2E1,1.06E2,6.74E2,5.4E1,2.39E2,5.13E2,6.4E1,3.7E1,2.7E1,9.95E2,8.8E1,4.2E1,2.4E1,8.1E1,1.7E1,9.9E1],"tree_param":{"num_deleted":"0","num_feature":"54","num_nodes":"59","size_leaf_vector":"0"}},{"base_weights":[1.8133337E-2,-2.864868E-1,2.2229569E-1,-3.741536E-1,6.772407E-3,2.7015686E-2,3.5197067E-1,-4.846503E-1,-2.2987825E-1,-7.085052E-2,6.1494154E-1,-7.618528E-1,5.407727E-2,7.0084825E-2,4.061977E-1,-5.2007407E-1,-1.5551055E-2,3.1871613E-2,-3.1560168E-1,-3.5994926E-1,5.2119866E-2,6.9434834E-1,1.176459E-1,-9.081579E-1,-1.176459E-1,-4.006647E-1,8.819444E-2,1.5659374E-1,-5.169863E-1,3.336926E-1,5.848771E-1,-5.912388E-1,-3.6792263E-1,4.5350716E-1,-2.5626665E-1,-5.972347E-1,1.6374116E-1,-4.305232E-1,-1.8249346E-1,-5.1780373E-2,-5.0113374E-1,7.710517E-1,-7.6880227E-3,9.049484E-1,2.1269041E-1,-1.769767E-1,-7.1518165E-1,2.2341102E-1,-2.3635652E-2,-7.6584035E-1,2.0433092E-1,-0E0,-7.2700685E-1,1.4771794E-1,3.7880182E-1,2.4469297E-1,6.303335E-1],"categories":[],"categories_nodes":[],"categories_segments":[],"categories_sizes":[],"default_left":[1,1,1,1,1,1,1,1,1,1,1,1,1,1,1,1,1,1,1,1,1,1,0,0,0,1,1,1,1,1,1,0,0,0,0,0,0,0,0,0,0,0,0,0,0,0,0,0,0,0,0,0,0,0,0,0,0],"id":5,"left_children":[1,3,5,7,9,11,13,15,17,19,21,23,25,27,29,31,33,35,37,39,41,43,-1,-1,-1,45,47,49,51,53,55,-1,-1,-1,-1,-1,-1,-1,-1,-1,-1,-1,-1,-1,-1,-1,-1,-1,-1,-1,-1,-1,-1,-1,-1,-1,-1],"loss_changes":[2.877709E2,4.7771698E1,7.011485E1,2.2647934E1,2.0270267E1,2.3575832E1,2.537796E1,1.3376282E1,1.3983589E1,1.3539144E1,1.7850037E0,3.2785778E0,1.6599348E1,1.370534E1,1.786467E1,7.904587E0,6.5564733E0,1.2759128E1,7.056259E0,4.869788E0,1.1546948E1,3.9866028E0,0E0,0E0,0E0,5.0787487E0,1.5094145E1,1.0413197E1,3.7585268E0,8.254768E0,6.0243683E0,0E0,0E0,0E0,0E0,0E0,0E0,0E0,0E0,0E0,0E0,0E0,0E0,0E0,0E0,0E0,0E0,0E0,0E0,0E0,0E0,0E0,0E0,0E0,0E0,0E0,0E0],"parents":[2147483647,0,0,1,1,2,2,3,3,4,4,5,5,6,6,7,7,8,8,9,9,10,10,11,11,12,12,13,13,14,14,15,15,16,16,17,17,18,18,19,19,20,20,21,21,25,25,26,26,27,27,28,28,29,29,30,30],"right_children":[2,4,6,8,10,12,14,16,18,20,22,24,26,28,30,32,34,36,38,40,42,44,-1,-1,-1,46,48,50,52,54,56,-1,-1,-1,-1,-1,-1,-1,-1,-1,-1,-1,-1,-1,-1,-1,-1,-1,-1,-1,-1,-1,-1,-1,-1,-1,-1],"split_conditions":[1.04350006E2,2.4150002E1,2.305E1,8.05E0,2.825E1,7.8149994E1,1.495E1,4.8049998E-1,4.3150002E-1,9.805E1,3.0650002E1,4.8250002E-1,4.1750002E-1,4.9150002E-1,2.6349998E1,1.8650002E1,1.39E1,1.95E1,1.455E1,6.3500004E0,1.355E1,1.7650002E1,1.5103672E-2,-1.1659156E-1,-1.5103672E-2,1.096E2,4.655E-1,1.175E1,1.315E1,4.485E-1,1.5E0,-7.59047E-2,-4.723482E-2,5.8222372E-2,-3.2900147E-2,-7.667447E-2,2.1021495E-2,-5.5271633E-2,-2.3428962E-2,-6.6476925E-3,-6.433679E-2,9.8989524E-2,-9.870074E-4,1.1617952E-1,2.7305722E-2,-2.2720706E-2,-9.181679E-2,2.868206E-2,-3.0344035E-3,-9.832048E-2,2.6232509E-2,-0E0,-9.3334936E-2,1.8964395E-2,4.8631515E-2,3.141429E-2,8.092377E-2],"split_indices":[50,17,17,34,17,6,11,7,33,50,17,7,7,33,17,11,18,12,44,34,37,11,0,0,0,50,33,18,18,7,52,0,0,0,0,0,0,0,0,0,0,0,0,0,0,0,0,0,0,0,0,0,0,0,0,0,0],"split_type":[0,0,0,0,0,0,0,0,0,0,0,0,0,0,0,0,0,0,0,0,0,0,0,0,0,0,0,0,0,0,0,0,0,0,0,0,0,0,0,0,0,0,0,0,0,0,0,0,0,0,0,0,0,0,0,0,0],"sum_hessian":[4.626E3,1.856E3,2.77E3,1.429E3,4.27E2,1.106E3,1.664E3,8.08E2,6.21E2,3.79E2,4.8E1,3.6E1,1.07E3,2.69E2,1.395E3,7.51E2,5.7E1,1.53E2,4.68E2,1.13E2,2.66E2,4.1E1,7E0,2.9E1,7E0,7.4E1,9.96E2,2.35E2,3.4E1,9.94E2,4.01E2,5.1E2,2.41E2,1.9E1,3.8E1,2.6E1,1.27E2,2.5E2,2.18E2,3.6E1,7.7E1,2E1,2.46E2,2.8E1,1.3E1,4.4E1,3E1,4.51E2,5.45E2,1.1E1,2.24E2,1E1,2.4E1,1.95E2,7.99E2,4.8E1,3.53E2],"tree_param":{"num_deleted":"0","num_feature":"54","num_nodes":"57","size_leaf_vector":"0"}},{"base_weights":[4.238044E-3,-3.2001007E-1,2.1977326E-1,-4.8536283E-1,-1.3686706E-1,6.0697835E-2,3.8348436E-1,-6.1626244E-1,-3.8994008E-1,-3.566925E-1,-5.388377E-2,2.9946918E-2,6.889636E-1,2.1048425E-1,4.9653175E-1,-5.3426754E-1,-7.3890084E-1,-4.4020635E-1,1.4084343E-2,-4.019666E-1,3.1352422E-1,-1.08853765E-1,3.3782148E-1,-1.7476465E-1,7.873752E-2,-3.802515E-1,8.2018256E-1,4.0068217E-3,3.5070324E-1,3.0385095E-1,5.713831E-1,-6.053736E-1,-1.6570531E-1,-8.446328E-1,-5.280486E-1,-7.4458975E-1,-3.605789E-1,-3.241312E-1,3.8855484E-1,-4.6075708E-1,3.2444593E-2,-0E0,6.428571E-1,-5.5113006E-1,-6.535855E-2,6.1494154E-1,-9.15989E-2,-2.8336003E-1,5.855327E-2,-2.0847628E-2,1.8533176E-1,5.4022974E-1,8.965276E-1,-2.5876895E-1,1.6399261E-1,3.9359716E-1,-2.0731676E-1,2.5336328E-1,9.5666856E-1,4.6341735E-1,6.660993E-1],"categories":[],"categories_nodes":[],"categories_segments":[],"categories_sizes":[],"default_left":[1,1,1,1,1,1,1,1,1,1,1,1,1,1,1,1,1,1,1,1,1,1,1,1,1,0,1,1,1,1,1,0,0,0,0,0,0,0,0,0,0,0,0,0,0,0,0,0,0,0,0,0,0,0,0,0,0,0,0,0,0],"id":6,"left_children":[1,3,5,7,9,11,13,15,17,19,21,23,25,27,29,31,33,35,37,39,41,43,45,47,49,-1,51,53,55,57,59,-1,-1,-1,-1,-1,-1,-1,-1,-1,-1,-1,-1,-1,-1,-1,-1,-1,-1,-1,-1,-1,-1,-1,-1,-1,-1,-1,-1,-1,-1],"loss_changes":[3.28125E2,5.6663757E1,7.3395096E1,1.2045944E1,1.6191927E1,2.757098E1,2.7039093E1,3.783615E0,1.1656967E1,7.4789867E0,1.3943327E1,1.3638263E1,9.584173E0,1.5903702E1,1.1911316E1,6.4259033E0,3.2301254E0,1.2047142E1,8.1413555E0,5.892437E0,1.61241E0,1.0852098E1,9.563515E0,6.6875687E0,1.1734597E1,0E0,8.263931E-1,9.417186E0,7.9113503E0,7.5235214E0,5.8650208E0,0E0,0E0,0E0,0E0,0E0,0E0,0E0,0E0,0E0,0E0,0E0,0E0,0E0,0E0,0E0,0E0,0E0,0E0,0E0,0E0,0E0,0E0,0E0,0E0,0E0,0E0,0E0,0E0,0E0,0E0],"parents":[2147483647,0,0,1,1,2,2,3,3,4,4,5,5,6,6,7,7,8,8,9,9,10,10,11,11,12,12,13,13,14,14,15,15,16,16,17,17,18,18,19,19,20,20,21,21,22,22,23,23,24,24,26,26,27,27,28,28,29,29,30,30],"right_children":[2,4,6,8,10,12,14,16,18,20,22,24,26,28,30,32,34,36,38,40,42,44,46,48,50,-1,52,54,56,58,60,-1,-1,-1,-1,-1,-1,-1,-1,-1,-1,-1,-1,-1,-1,-1,-1,-1,-1,-1,-1,-1,-1,-1,-1,-1,-1,-1,-1,-1,-1],"split_conditions":[9.05E0,3.765E1,4.035E1,3.575E1,2.0849998E1,1.455E1,1.155E1,2.075E1,2.5150002E1,1.005E1,4.735E1,1.8650002E1,1.73E1,2.345E1,3.5E0,7.5E0,-2.25E0,1.8650002E1,8.65E0,4.115E1,5.5E0,1.5E0,6.515E-1,2.0849998E1,1.095E1,-4.8817627E-2,3.5E0,4.5E0,9.75E0,5.015E1,5.5E0,-7.771936E-2,-2.1273658E-2,-1.0843605E-1,-6.7792185E-2,-9.5592275E-2,-4.629201E-2,-4.1612763E-2,4.988363E-2,-5.9153132E-2,4.165317E-3,-0E0,8.253158E-2,-7.075544E-2,-8.390892E-3,7.8947715E-2,-1.1759693E-2,-3.6378462E-2,7.517214E-3,-2.67647E-3,2.379335E-2,6.935603E-2,1.1509843E-1,-3.3221398E-2,2.1053778E-2,5.0530978E-2,-2.6615838E-2,3.2527406E-2,1.22819476E-1,5.9494667E-2,8.551548E-2],"split_indices":[8,5,5,5,43,8,8,49,43,25,16,23,49,43,28,28,25,23,45,5,28,28,3,49,8,0,28,28,25,16,1,0,0,0,0,0,0,0,0,0,0,0,0,0,0,0,0,0,0,0,0,0,0,0,0,0,0,0,0,0,0],"split_type":[0,0,0,0,0,0,0,0,0,0,0,0,0,0,0,0,0,0,0,0,0,0,0,0,0,0,0,0,0,0,0,0,0,0,0,0,0,0,0,0,0,0,0,0,0,0,0,0,0,0,0,0,0,0,0,0,0,0,0,0,0],"sum_hessian":[4.694E3,1.874E3,2.82E3,9.84E2,8.9E2,1.431E3,1.389E3,4.13E2,5.71E2,2.43E2,6.47E2,1.365E3,6.6E1,5.5E2,8.39E2,2.5E2,1.63E2,5.08E2,6.3E1,2.28E2,1.5E1,5.68E2,7.9E1,2.62E2,1.103E3,7E0,5.9E1,2.23E2,3.27E2,2.36E2,6.03E2,2.09E2,4.1E1,1.07E2,5.6E1,1.04E2,4.04E2,3.3E1,3E1,2.01E2,2.7E1,8E0,7E0,5E1,5.18E2,4.8E1,3.1E1,1.79E2,8.3E1,5.7E2,5.33E2,1.4E1,4.5E1,8.4E1,1.39E2,3.04E2,2.3E1,2.2E2,1.6E1,2.84E2,3.19E2],"tree_param":{"num_deleted":"0","num_feature":"54","num_nodes":"61","size_leaf_vector":"0"}},{"base_weights":[3.328508E-2,-2.9027587E-1,2.58839E-1,-4.533922E-1,-1.242821E-1,7.0995934E-2,3.9787358E-1,-5.9479916E-1,-3.1496307E-1,-3.459535E-1,-4.9175877E-2,-5.1430844E-2,2.192442E-1,1.8696526E-1,4.4588247E-1,-8.460125E-1,-5.5063254E-1,-3.454769E-1,3.8300326E-1,-4.4367668E-1,1.8332604E-1,-2.748044E-2,-7.0286524E-1,-3.3040443E-1,3.546451E-3,1.948749E-1,9.5666856E-1,-3.4283268E-1,2.6458207E-1,3.735273E-1,5.738449E-1,-3.0116412E-1,-9.2213285E-1,-5.9644854E-1,-2.0355423E-1,-9.015065E-1,-3.0998877E-1,-2.2005486E-1,7.844009E-1,3.7939955E-2,-5.060573E-1,-7.171382E-1,4.8560235E-1,-6.7305654E-2,2.7160853E-1,-9.538937E-1,-1.176459E-1,-5.160908E-1,-0E0,-3.38618E-1,5.3240243E-2,6.8110424E-1,1.6032824E-1,-9.1643494E-1,-1.6531578E-1,3.7773035E-2,4.9285355E-1,1.2664936E-1,4.142625E-1,3.1912532E-1,6.574884E-1],"categories":[],"categories_nodes":[],"categories_segments":[],"categories_sizes":[],"default_left":[1,1,1,1,1,1,1,1,1,1,1,1,1,1,1,1,1,1,1,1,1,1,1,1,1,1,0,1,1,1,1,0,0,0,0,0,0,0,0,0,0,0,0,0,0,0,0,0,0,0,0,0,0,0,0,0,0,0,0,0,0],"id":7,"left_children":[1,3,5,7,9,11,13,15,17,19,21,23,25,27,29,31,33,35,37,39,41,43,45,47,49,51,-1,53,55,57,59,-1,-1,-1,-1,-1,-1,-1,-1,-1,-1,-1,-1,-1,-1,-1,-1,-1,-1,-1,-1,-1,-1,-1,-1,-1,-1,-1,-1,-1,-1],"loss_changes":[3.3966595E2,5.166469E1,7.156189E1,1.8652603E1,1.5741838E1,2.1216112E1,1.5836685E1,4.8448486E0,1.0483959E1,1.2470814E1,9.975968E0,9.8446455E0,9.264893E0,1.2121585E1,1.1644836E1,2.588955E0,6.3079224E0,8.9487915E0,5.1554546E0,6.1478195E0,1.0429088E1,8.180399E0,3.141862E0,6.4797106E0,9.071738E0,8.455931E0,0E0,3.6243792E0,1.3219389E1,8.174103E0,9.604187E0,0E0,0E0,0E0,0E0,0E0,0E0,0E0,0E0,0E0,0E0,0E0,0E0,0E0,0E0,0E0,0E0,0E0,0E0,0E0,0E0,0E0,0E0,0E0,0E0,0E0,0E0,0E0,0E0,0E0,0E0],"parents":[2147483647,0,0,1,1,2,2,3,3,4,4,5,5,6,6,7,7,8,8,9,9,10,10,11,11,12,12,13,13,14,14,15,15,16,16,17,17,18,18,19,19,20,20,21,21,22,22,23,23,24,24,25,25,27,27,28,28,29,29,30,30],"right_children":[2,4,6,8,10,12,14,16,18,20,22,24,26,28,30,32,34,36,38,40,42,44,46,48,50,52,-1,54,56,58,60,-1,-1,-1,-1,-1,-1,-1,-1,-1,-1,-1,-1,-1,-1,-1,-1,-1,-1,-1,-1,-1,-1,-1,-1,-1,-1,-1,-1,-1,-1],"split_conditions":[1.0475E2,8.4149994E1,1.1005E2,2.1349998E1,9.725E1,8.675E1,2.9150002E1,9.1350006E1,1.285E1,2.62E1,4.935E1,2.5E0,2.4150002E1,8.175E1,8.925E1,7.75E1,2.275E1,1.5E0,9.4E0,8.95E0,1.975E1,2.605E1,1.031E2,2.915E1,9.52E1,3.45E0,1.22819476E-1,2.5E0,2.2650002E1,1.9650002E1,2.325E1,-3.8664196E-2,-1.18385695E-1,-7.6573536E-2,-2.6132796E-2,-1.1573763E-1,-3.9797124E-2,-2.8251188E-2,1.0070333E-1,4.8708254E-3,-6.496889E-2,-9.206797E-2,6.234283E-2,-8.640867E-3,3.4869775E-2,-1.22463234E-1,-1.5103672E-2,-6.6257015E-2,-0E0,-4.3472618E-2,6.835114E-3,8.744185E-2,2.0583335E-2,-1.1765418E-1,-2.122365E-2,4.8493957E-3,6.327376E-2,1.6259558E-2,5.3184044E-2,4.09701E-2,8.440999E-2],"split_indices":[24,32,24,9,24,32,9,24,40,9,4,28,48,32,32,32,48,28,14,14,38,38,24,9,50,46,0,28,38,38,43,0,0,0,0,0,0,0,0,0,0,0,0,0,0,0,0,0,0,0,0,0,0,0,0,0,0,0,0,0,0],"split_type":[0,0,0,0,0,0,0,0,0,0,0,0,0,0,0,0,0,0,0,0,0,0,0,0,0,0,0,0,0,0,0,0,0,0,0,0,0,0,0,0,0,0,0,0,0,0,0,0,0,0,0,0,0,0,0,0,0,0,0,0,0],"sum_hessian":[4.653E3,1.911E3,2.742E3,9.63E2,9.48E2,1.167E3,1.575E3,4.75E2,4.88E2,2.39E2,7.09E2,6.39E2,5.28E2,2.93E2,1.282E3,6.9E1,4.06E2,4.68E2,2E1,2.02E2,3.7E1,6.87E2,2.2E1,1.05E2,5.34E2,5.12E2,1.6E1,3.7E1,2.56E2,8.21E2,4.61E2,9E0,6E1,3.58E2,4.8E1,2.7E1,4.41E2,8E0,1.2E1,2.3E1,1.79E2,9E0,2.8E1,6.07E2,8E1,1.5E1,7E0,6.7E1,3.8E1,6.7E1,4.67E2,3.3E1,4.79E2,8E0,2.9E1,1.29E2,1.27E2,1.17E2,7.04E2,1.15E2,3.46E2],"tree_param":{"num_deleted":"0","num_feature":"54","num_nodes":"61","size_leaf_vector":"0"}},{"base_weights":[2.2293013E-2,-3.2560423E-1,2.7398327E-1,-5.9067917E-1,-1.911184E-1,1.14180915E-1,4.4648093E-1,-6.445876E-1,-3.3642396E-1,-4.7692823E-1,-4.7685664E-2,-6.309019E-2,2.9957566E-1,1.9905573E-1,5.029476E-1,-7.955639E-1,-5.673572E-1,-4.6680868E-2,-4.8793903E-1,-3.2252264E-1,-6.2735903E-1,3.1122595E-1,-1.1455799E-1,-5.8961767E-1,-2.6846025E-2,5.284997E-1,1.943817E-1,-4.0143272E-1,2.995702E-1,5.6003916E-1,3.2429892E-1,-1.176459E-1,-8.2203275E-1,-5.9284294E-1,1.502847E-1,-4.4159812E-1,1.9113025E-1,-8.383404E-2,-6.508505E-1,-6.340257E-1,-2.0870973E-1,-3.8873538E-1,-7.296436E-1,1.4541508E-2,5.555314E-1,-2.8400317E-1,2.7681775E-2,-8.84824E-1,-2.607001E-1,-1.4542273E-1,1.21018395E-1,3.46686E-1,7.863404E-1,-2.3886341E-1,2.4110775E-1,3.802515E-1,-6.118192E-1,4.3000787E-1,1.3655047E-2,4.231374E-1,6.569077E-1,-5.936638E-1,3.6749843E-1],"categories":[],"categories_nodes":[],"categories_segments":[],"categories_sizes":[],"default_left":[1,1,1,1,1,1,1,1,1,1,1,1,1,1,1,1,1,1,1,1,1,1,1,1,1,1,1,1,1,1,1,0,0,0,0,0,0,0,0,0,0,0,0,0,0,0,0,0,0,0,0,0,0,0,0,0,0,0,0,0,0,0,0],"id":8,"left_children":[1,3,5,7,9,11,13,15,17,19,21,23,25,27,29,31,33,35,37,39,41,43,45,47,49,51,53,55,57,59,61,-1,-1,-1,-1,-1,-1,-1,-1,-1,-1,-1,-1,-1,-1,-1,-1,-1,-1,-1,-1,-1,-1,-1,-1,-1,-1,-1,-1,-1,-1,-1,-1],"loss_changes":[4.0420377E2,6.89229E1,7.374777E1,8.695755E0,5.2675583E1,4.5771885E1,1.785495E1,5.8371124E0,5.0059576E0,9.755409E0,2.0585365E1,1.3506289E1,1.6251736E1,1.4586527E1,1.048114E1,3.0656738E0,6.6415863E0,3.8925211E0,4.8680267E0,7.4041767E0,4.9960175E0,9.692915E0,1.7471981E1,4.168009E0,1.170134E1,9.728329E0,9.50205E0,5.86019E0,7.655798E0,1.0227692E1,1.0247454E1,0E0,0E0,0E0,0E0,0E0,0E0,0E0,0E0,0E0,0E0,0E0,0E0,0E0,0E0,0E0,0E0,0E0,0E0,0E0,0E0,0E0,0E0,0E0,0E0,0E0,0E0,0E0,0E0,0E0,0E0,0E0,0E0],"parents":[2147483647,0,0,1,1,2,2,3,3,4,4,5,5,6,6,7,7,8,8,9,9,10,10,11,11,12,12,13,13,14,14,15,15,16,16,17,17,18,18,19,19,20,20,21,21,22,22,23,23,24,24,25,25,26,26,27,27,28,28,29,29,30,30],"right_children":[2,4,6,8,10,12,14,16,18,20,22,24,26,28,30,32,34,36,38,40,42,44,46,48,50,52,54,56,58,60,62,-1,-1,-1,-1,-1,-1,-1,-1,-1,-1,-1,-1,-1,-1,-1,-1,-1,-1,-1,-1,-1,-1,-1,-1,-1,-1,-1,-1,-1,-1,-1,-1],"split_conditions":[1.0475E2,9.725E1,1.1105E2,8.655E1,8.2850006E1,8.6649994E1,2.925E1,9.295E1,4.55E0,7.585E-1,-6.6499996E0,6.05E0,-2.85E0,8.205E1,4.25E0,1.775E1,1.1185E2,4.41E1,9.945E1,1.9849998E1,-2.6E0,9.855E1,1.04850006E2,8.445E1,1.0425E2,1.08350006E2,8.325E1,-4.45E0,2.45E0,2.3650002E1,1.0805E2,-1.5103672E-2,-1.055346E-1,-7.6110646E-2,1.9293921E-2,-5.6693457E-2,2.4537774E-2,-1.0762821E-2,-8.355779E-2,-8.139779E-2,-2.6794672E-2,-4.990681E-2,-9.3673445E-2,1.8668748E-3,7.13205E-2,-3.646103E-2,3.5538548E-3,-1.1359589E-1,-3.3469323E-2,-1.866973E-2,1.5536641E-2,4.450841E-2,1.0095233E-1,-3.0665874E-2,3.0954009E-2,4.8817627E-2,-7.854687E-2,5.5205476E-2,1.7530688E-3,5.4323427E-2,8.433543E-2,-7.621603E-2,4.718036E-2],"split_indices":[24,24,24,32,32,32,9,24,21,13,51,19,51,32,51,43,50,42,50,9,51,50,50,32,50,50,6,51,51,43,50,0,0,0,0,0,0,0,0,0,0,0,0,0,0,0,0,0,0,0,0,0,0,0,0,0,0,0,0,0,0,0,0],"split_type":[0,0,0,0,0,0,0,0,0,0,0,0,0,0,0,0,0,0,0,0,0,0,0,0,0,0,0,0,0,0,0,0,0,0,0,0,0,0,0,0,0,0,0,0,0,0,0,0,0,0,0,0,0,0,0,0,0,0,0,0,0,0,0],"sum_hessian":[4.615E3,1.937E3,2.678E3,6.51E2,1.286E3,1.391E3,1.287E3,5.36E2,1.15E2,4.29E2,8.57E2,7.11E2,6.8E2,2.4E2,1.047E3,1.79E2,3.57E2,4E1,7.5E1,2.13E2,2.16E2,1.34E2,7.23E2,4.5E1,6.66E2,2.13E2,4.67E2,3.4E1,2.06E2,7.92E2,2.55E2,7E0,1.72E2,3.45E2,1.2E1,1.5E1,2.5E1,2.2E1,5.3E1,5.6E1,1.57E2,6.6E1,1.5E2,6.1E1,7.3E1,3.3E2,3.93E2,2.3E1,2.2E1,3.7E2,2.96E2,1.26E2,8.7E1,4.5E1,4.22E2,7E0,2.7E1,1.41E2,6.5E1,3.3E2,4.62E2,1.1E1,2.44E2],"tree_param":{"num_deleted":"0","num_feature":"54","num_nodes":"63","size_leaf_vector":"0"}},{"base_weights":[2.7576396E-2,-2.6021612E-1,2.915485E-1,-3.8914976E-1,-1.0519346E-2,5.528162E-2,3.542604E-1,-7.960376E-1,-3.418028E-1,-1.8996766E-1,1.389008E-1,-2.4163495E-1,1.2034266E-1,2.6660186E-1,4.6335775E-1,-3.8300326E-1,-8.5667914E-1,-5.401502E-1,-2.8501523E-1,-3.233628E-1,8.946256E-2,7.5144485E-2,4.7086072E-1,-8.4559506E-1,-9.367517E-2,2.352599E-2,2.666569E-1,1.6137214E-1,4.4836313E-1,1.950852E-1,5.1058865E-1,-9.054626E-1,-6.580423E-2,-9.0647036E-1,-4.7520444E-1,-7.972899E-1,-4.5193335E-1,-3.2853246E-1,5.0559014E-2,-1.2170018E-1,-5.795938E-1,-1.1181589E-1,4.4061443E-1,1.8168284E-1,-2.1482241E-1,7.702269E-2,6.9434834E-1,1.0733056E-1,-4.1571134E-1,-3.453822E-2,6.144322E-1,-1.6110284E-2,4.095752E-1,5.8041954E-1,1.3111414E-1,6.916158E-1,3.6249197E-1,4.321021E-1,-0E0,5.3849965E-1,2.2616863E-2],"categories":[],"categories_nodes":[],"categories_segments":[],"categories_sizes":[],"default_left":[1,1,1,1,1,1,1,1,1,1,1,1,1,1,1,1,1,1,1,1,1,1,1,0,1,1,1,1,1,1,1,0,0,0,0,0,0,0,0,0,0,0,0,0,0,0,0,0,0,0,0,0,0,0,0,0,0,0,0,0,0],"id":9,"left_children":[1,3,5,7,9,11,13,15,17,19,21,23,25,27,29,31,33,35,37,39,41,43,45,-1,47,49,51,53,55,57,59,-1,-1,-1,-1,-1,-1,-1,-1,-1,-1,-1,-1,-1,-1,-1,-1,-1,-1,-1,-1,-1,-1,-1,-1,-1,-1,-1,-1,-1,-1],"loss_changes":[3.496311E2,7.08354E1,3.5514664E1,2.767929E1,2.0147976E1,9.753318E0,1.7985916E1,3.4414368E0,1.4480301E1,1.2775759E1,8.59075E0,7.951122E0,5.8392615E0,2.0044197E1,1.0554504E1,3.2788305E0,2.0718842E0,6.195114E0,1.4841248E1,1.1851717E1,7.8828077E0,1.0666679E1,5.6622076E0,0E0,4.8248043E0,8.672149E0,6.697551E0,8.3568535E0,7.7908325E0,5.900771E0,9.69429E0,0E0,0E0,0E0,0E0,0E0,0E0,0E0,0E0,0E0,0E0,0E0,0E0,0E0,0E0,0E0,0E0,0E0,0E0,0E0,0E0,0E0,0E0,0E0,0E0,0E0,0E0,0E0,0E0,0E0,0E0],"parents":[2147483647,0,0,1,1,2,2,3,3,4,4,5,5,6,6,7,7,8,8,9,9,10,10,11,11,12,12,13,13,14,14,15,15,16,16,17,17,18,18,19,19,20,20,21,21,22,22,24,24,25,25,26,26,27,27,28,28,29,29,30,30],"right_children":[2,4,6,8,10,12,14,16,18,20,22,24,26,28,30,32,34,36,38,40,42,44,46,-1,48,50,52,54,56,58,60,-1,-1,-1,-1,-1,-1,-1,-1,-1,-1,-1,-1,-1,-1,-1,-1,-1,-1,-1,-1,-1,-1,-1,-1,-1,-1,-1,-1,-1,-1],"split_conditions":[9.75E0,8.595E1,2.695E1,5.25E0,8.35E0,8.125E1,1.235E1,3.65E0,8.0350006E1,2.655E1,3.55E1,6.8E0,1.155E1,8.905E1,8.45E0,4.8E0,8.5E1,6.45E0,1.645E1,4.855E1,8.855E1,2.1650002E1,9.95E0,-1.08559586E-1,2.375E1,1.695E1,7.05E0,1.5E0,4.385E1,4.5E0,1.255E1,-1.1624553E-1,-8.44811E-3,-1.1637491E-1,-6.100792E-2,-1.0235805E-1,-5.8020324E-2,-4.217781E-2,6.4908913E-3,-1.562417E-2,-7.4409686E-2,-1.4355201E-2,5.656717E-2,2.3324892E-2,-2.7579432E-2,9.888363E-3,8.914216E-2,1.3779363E-2,-5.337005E-2,-4.434102E-3,7.888233E-2,-2.0682781E-3,5.2582275E-2,7.45157E-2,1.6832758E-2,8.879135E-2,4.6537615E-2,5.5474337E-2,-0E0,6.9133915E-2,2.9036088E-3],"split_indices":[8,32,35,8,8,32,8,46,32,35,35,19,8,32,14,8,32,8,44,30,32,22,14,0,35,44,19,27,42,27,14,0,0,0,0,0,0,0,0,0,0,0,0,0,0,0,0,0,0,0,0,0,0,0,0,0,0,0,0,0,0],"split_type":[0,0,0,0,0,0,0,0,0,0,0,0,0,0,0,0,0,0,0,0,0,0,0,0,0,0,0,0,0,0,0,0,0,0,0,0,0,0,0,0,0,0,0,0,0,0,0,0,0,0,0,0,0,0,0,0,0,0,0,0,0],"sum_hessian":[4.601E3,2.201E3,2.4E3,1.451E3,7.5E2,5.04E2,1.896E3,1.5E2,1.301E3,3.41E2,4.09E2,9E1,4.14E2,1.053E3,8.43E2,2E1,1.3E2,2.88E2,1.013E3,2.31E2,1.1E2,3.44E2,6.5E1,1.7E1,7.3E1,2.5E2,1.64E2,6.68E2,3.85E2,1.27E2,7.16E2,7E0,1.3E1,1.14E2,1.6E1,7.2E1,2.16E2,8.97E2,1.16E2,1.3E2,1.01E2,7E1,4E1,2.52E2,9.2E1,2.4E1,4.1E1,4.5E1,2.8E1,2.28E2,2.2E1,5.5E1,1.09E2,4.4E1,6.24E2,9.9E1,2.86E2,5.7E1,7E1,6.77E2,3.9E1],"tree_param":{"num_deleted":"0","num_feature":"54","num_nodes":"61","size_leaf_vector":"0"}},{"base_weights":[6.9390154E-3,-3.460319E-1,2.7179307E-1,-6.086267E-1,-2.1936907E-1,7.353996E-2,4.336532E-1,-7.9441935E-1,-5.3585696E-1,-2.9616657E-1,9.0304404E-2,1.3211754E-1,-2.0277226E-1,2.8480858E-1,5.463574E-1,-8.421617E-1,-4.3756616E-1,-1.4922154E-1,-5.918893E-1,-4.436189E-2,-3.7109306E-1,-1.9488478E-1,3.3583885E-1,-1.3755878E-2,2.4633318E-1,-7.816433E-1,-1.3412632E-1,3.7814927E-1,1.0618874E-1,5.982027E-1,2.19124E-1,-4.5218158E-1,-8.605803E-1,2.2005486E-1,-8.1390274E-1,5.553879E-1,-3.0022562E-1,-6.671408E-1,-2.9774198E-1,-1.4739329E-1,5.4336894E-1,-5.1847E-1,-2.7180603E-1,-3.1082866E-1,3.8300326E-1,2.230504E-1,7.241903E-1,-4.8736808E-1,2.495106E-2,5.097477E-1,1.7840847E-1,-9.507392E-1,-3.802515E-1,1.00437455E-1,-3.056794E-1,6.4374316E-1,3.1216928E-1,7.150149E-1,-2.1812098E-2,8.012344E-1,5.3596663E-1,-2.4959183E-1,3.1597188E-1],"categories":[],"categories_nodes":[],"categories_segments":[],"categories_sizes":[],"default_left":[1,1,1,1,1,1,1,1,1,1,1,1,1,1,1,1,1,1,1,1,1,1,1,1,1,1,1,1,1,1,1,1,1,0,0,0,0,0,0,0,0,0,0,0,0,0,0,0,0,0,0,0,0,0,0,0,0,0,0,0,0,0,0],"id":10,"left_children":[1,3,5,7,9,11,13,15,17,19,21,23,25,27,29,-1,33,35,37,39,41,43,45,47,49,51,53,55,57,59,61,-1,-1,-1,-1,-1,-1,-1,-1,-1,-1,-1,-1,-1,-1,-1,-1,-1,-1,-1,-1,-1,-1,-1,-1,-1,-1,-1,-1,-1,-1,-1,-1],"loss_changes":[4.2976843E2,6.537628E1,8.421382E1,8.260605E0,3.1682793E1,1.9134438E1,2.4068481E1,2.6829834E0,9.8906555E0,2.007032E1,1.8584387E1,1.6281042E1,8.050501E0,1.03387985E1,1.3773376E1,7.48703E-1,5.7692494E0,6.4192457E0,8.711334E0,1.4881357E1,1.1853394E1,8.281412E0,6.0487785E0,7.913008E0,9.670544E0,1.1060295E0,7.509472E0,6.9548492E0,1.6884716E1,8.550369E0,5.212982E0,0E0,0E0,0E0,0E0,0E0,0E0,0E0,0E0,0E0,0E0,0E0,0E0,0E0,0E0,0E0,0E0,0E0,0E0,0E0,0E0,0E0,0E0,0E0,0E0,0E0,0E0,0E0,0E0,0E0,0E0,0E0,0E0],"parents":[2147483647,0,0,1,1,2,2,3,3,4,4,5,5,6,6,7,7,8,8,9,9,10,10,11,11,12,12,13,13,14,14,15,15,16,16,17,17,18,18,19,19,20,20,21,21,22,22,23,23,24,24,25,25,26,26,27,27,28,28,29,29,30,30],"right_children":[2,4,6,8,10,12,14,16,18,20,22,24,26,28,30,-1,34,36,38,40,42,44,46,48,50,52,54,56,58,60,62,-1,-1,-1,-1,-1,-1,-1,-1,-1,-1,-1,-1,-1,-1,-1,-1,-1,-1,-1,-1,-1,-1,-1,-1,-1,-1,-1,-1,-1,-1,-1,-1],"split_conditions":[1.0475E2,9.725E1,1.10149994E2,9.245E1,1.09649994E2,5.75E0,1.0995E2,1.0725E2,4.135E-1,-5.3500004E0,4.6499996E0,1.0475E2,1.0305E2,2.105E1,8.45E0,-1.081188E-1,1.86E1,1.845E1,1.9150002E1,1.0445E2,1.0105E2,1.172E2,4.695E1,6.05E0,1.5E0,2.165E1,2.325E1,3.145E1,-7.55E0,3.215E1,3.5E0,-5.805219E-2,-1.1048343E-1,2.8251188E-2,-1.0449085E-1,7.130207E-2,-3.854371E-2,-8.5649185E-2,-3.8224854E-2,-1.8922715E-2,6.975905E-2,-6.656246E-2,-3.489513E-2,-3.9904952E-2,4.9170908E-2,2.8635763E-2,9.2973344E-2,-6.256952E-2,3.2032786E-3,6.544267E-2,2.290452E-2,-1.2205825E-1,-4.8817627E-2,1.2894409E-2,-3.924388E-2,8.264534E-2,4.0077064E-2,9.179538E-2,-2.8002912E-3,1.0286446E-1,6.880872E-2,-3.2043215E-2,4.0565252E-2],"split_indices":[24,24,24,24,50,51,50,50,7,51,47,50,50,23,51,41,37,17,37,50,50,50,42,19,53,22,17,41,51,41,1,2147483647,2147483647,0,0,0,0,0,0,0,0,0,0,0,0,0,0,0,0,0,0,0,0,0,0,0,0,0,0,0,0,0,0],"split_type":[0,0,0,0,0,0,0,0,0,0,0,0,0,0,0,0,0,0,0,0,0,0,0,0,0,0,0,0,0,0,0,0,0,0,0,0,0,0,0,0,0,0,0,0,0,0,0,0,0,0,0,0,0,0,0,0,0,0,0,0,0,0,0],"sum_hessian":[4.596E3,1.97E3,2.626E3,6.4E2,1.33E3,1.181E3,1.445E3,1.78E2,4.62E2,1.066E3,2.64E2,9.75E2,2.06E2,6.24E2,8.21E2,1.56E2,2.2E1,5.9E1,4.03E2,2.45E2,8.21E2,1.22E2,1.42E2,4.28E2,5.47E2,2.1E1,1.85E2,4.09E2,2.15E2,7.08E2,1.13E2,8E0,1.48E2,8E0,1.4E1,1E1,4.9E1,3.2E2,8.3E1,2.09E2,3.6E1,3.29E2,4.92E2,1.02E2,2E1,1.11E2,3.1E1,3.2E1,3.96E2,1.11E2,4.36E2,1.4E1,7E0,7.8E1,1.07E2,8E1,3.29E2,3.7E1,1.78E2,1.64E2,5.44E2,1.9E1,9.4E1],"tree_param":{"num_deleted":"2","num_feature":"54","num_nodes":"63","size_leaf_vector":"0"}},{"base_weights":[2.3101019E-2,-2.4880207E-1,2.4398358E-1,-6.0655262E-2,-3.7031305E-1,3.6635467E-1,7.76287E-2,-2.302964E-1,2.3097256E-1,-4.1563255E-1,7.563589E-2,2.6627624E-1,5.910787E-1,-3.5170332E-1,1.5371507E-1,-2.935193E-1,4.459386E-1,9.0145744E-2,5.4366773E-1,-6.7437804E-1,-3.634845E-1,-1.1425131E-1,5.9767205E-1,4.981325E-1,2.0268705E-1,4.908849E-1,7.262948E-1,1.8545032E-1,-4.0701526E-1,-3.405352E-1,1.8157288E-1,-3.718381E-1,-1.5491655E-1,-1.6439554E-1,8.290847E-1,1.800298E-1,-3.0805868E-1,1.04866415E-1,7.1898645E-1,-7.1918327E-1,-0E0,-2.7575576E-1,-5.28826E-1,-2.7695918E-1,3.4913313E-1,2.1269041E-1,8.538893E-1,5.3568876E-1,-4.5218158E-1,-8.485963E-2,2.510713E-1,4.145485E-1,7.712889E-1,5.7974243E-1,8.307659E-1,-3.802515E-1,6.843083E-1,-8.082549E-1,-3.2556358E-1,1.1410635E-1,-5.621132E-1,1.0745757E-1,3.3458003E-1],"categories":[],"categories_nodes":[],"categories_segments":[],"categories_sizes":[],"default_left":[1,1,1,1,1,1,1,1,1,1,1,1,1,1,1,1,1,1,1,1,1,1,1,1,1,1,1,1,1,1,1,0,0,0,0,0,0,0,0,0,0,0,0,0,0,0,0,0,0,0,0,0,0,0,0,0,0,0,0,0,0,0,0],"id":11,"left_children":[1,3,5,7,9,11,13,15,17,19,21,23,25,27,29,31,33,35,37,39,41,43,45,47,49,51,53,55,57,59,61,-1,-1,-1,-1,-1,-1,-1,-1,-1,-1,-1,-1,-1,-1,-1,-1,-1,-1,-1,-1,-1,-1,-1,-1,-1,-1,-1,-1,-1,-1,-1,-1],"loss_changes":[2.805478E2,4.7805405E1,5.2408905E1,4.0729214E1,2.5754303E1,3.3202927E1,3.5737114E1,2.2322947E1,1.3229845E1,1.5320389E1,1.1751377E1,1.5030357E1,5.8399506E0,4.9604454E0,1.2821186E1,5.0834923E0,1.0586411E1,7.523468E0,7.0697556E0,5.820015E0,1.3789421E1,6.5825806E0,2.8957596E0,8.031731E0,1.1280468E1,5.3438263E0,2.5056534E0,4.5988164E0,4.60968E0,5.084351E0,9.918217E0,0E0,0E0,0E0,0E0,0E0,0E0,0E0,0E0,0E0,0E0,0E0,0E0,0E0,0E0,0E0,0E0,0E0,0E0,0E0,0E0,0E0,0E0,0E0,0E0,0E0,0E0,0E0,0E0,0E0,0E0,0E0,0E0],"parents":[2147483647,0,0,1,1,2,2,3,3,4,4,5,5,6,6,7,7,8,8,9,9,10,10,11,11,12,12,13,13,14,14,15,15,16,16,17,17,18,18,19,19,20,20,21,21,22,22,23,23,24,24,25,25,26,26,27,27,28,28,29,29,30,30],"right_children":[2,4,6,8,10,12,14,16,18,20,22,24,26,28,30,32,34,36,38,40,42,44,46,48,50,52,54,56,58,60,62,-1,-1,-1,-1,-1,-1,-1,-1,-1,-1,-1,-1,-1,-1,-1,-1,-1,-1,-1,-1,-1,-1,-1,-1,-1,-1,-1,-1,-1,-1,-1,-1],"split_conditions":[1.0505E2,-3.75E0,3.05E0,9.995E1,7.5E0,1.1245E2,1.07649994E2,9.15E0,1.565E1,9.6149994E1,1.03350006E2,-6.05E0,1.055E1,8.200001E0,3.05E0,3.6650002E-1,3.475E-1,5.75E0,3.5E0,8.1200004E-1,2.65E0,5.6499996E0,1.005E1,3.9200002E-1,2.5E0,5.55E0,7.1499996E0,1.063E2,3.95E0,7.4E0,1.1675E2,-4.7737494E-2,-1.988857E-2,-2.1105506E-2,1.0643995E-1,2.311267E-2,-3.9549336E-2,1.346301E-2,9.230526E-2,-9.233053E-2,-0E0,-3.540221E-2,-6.789199E-2,-3.5556704E-2,4.4822577E-2,2.7305722E-2,1.09624416E-1,6.8773046E-2,-5.805219E-2,-1.08944895E-2,3.2233156E-2,5.322076E-2,9.9019974E-2,7.442877E-2,1.06655784E-1,-4.8817627E-2,8.785319E-2,-1.0376576E-1,-4.179666E-2,1.4649255E-2,-7.216549E-2,1.3795669E-2,4.2954214E-2],"split_indices":[50,51,51,50,1,50,50,45,44,50,50,51,14,14,47,10,10,47,1,39,51,47,14,36,1,47,45,50,51,51,50,0,0,0,0,0,0,0,0,0,0,0,0,0,0,0,0,0,0,0,0,0,0,0,0,0,0,0,0,0,0,0,0],"split_type":[0,0,0,0,0,0,0,0,0,0,0,0,0,0,0,0,0,0,0,0,0,0,0,0,0,0,0,0,0,0,0,0,0,0,0,0,0,0,0,0,0,0,0,0,0,0,0,0,0,0,0,0,0,0,0,0,0,0,0,0,0,0,0],"sum_hessian":[4.67E3,2.093E3,2.577E3,8.22E2,1.271E3,1.484E3,1.093E3,5.2E2,3.02E2,1.154E3,1.17E2,1.028E3,4.56E2,1.64E2,9.29E2,4.76E2,4.4E1,2.09E2,9.3E1,1.92E2,9.62E2,8.6E1,3.1E1,2.2E2,8.08E2,2.64E2,1.92E2,1.5E1,1.49E2,4.9E1,8.8E2,3.03E2,1.73E2,1.7E1,2.7E1,1.71E2,3.8E1,2.7E1,6.6E1,1.8E2,1.2E1,6.3E2,3.32E2,6.4E1,2.2E1,1.3E1,1.8E1,2.12E2,8E0,1.16E2,6.92E2,2.09E2,5.5E1,8.2E1,1.1E2,7E0,8E0,2.4E1,1.25E2,1.6E1,3.3E1,5.94E2,2.86E2],"tree_param":{"num_deleted":"0","num_feature":"54","num_nodes":"63","size_leaf_vector":"0"}},{"base_weights":[9.301726E-3,-3.4062436E-1,2.9193106E-1,-5.581621E-1,-2.1156543E-1,1.2052468E-1,4.4042802E-1,-8.131151E-2,-5.807637E-1,-3.8685048E-1,-5.7768703E-2,1.4640809E-2,2.3140734E-1,2.286193E-1,4.8926476E-1,-5.049953E-1,3.167165E-1,-6.118905E-1,-2.5749806E-1,-3.340894E-1,-5.7229894E-1,9.516234E-2,-1.5105581E-1,3.5201192E-2,-8.1390274E-1,2.7104738E-1,2.0471513E-2,-1.7455896E-2,4.0701526E-1,6.4998376E-1,4.3698072E-1,-7.4378306E-1,-1.176459E-1,-3.802515E-1,7.6584035E-1,-4.2800242E-1,-6.61855E-1,8.383404E-2,-4.332354E-1,-1.3860676E-1,-4.5261836E-1,-8.072497E-1,-3.980622E-1,2.790943E-1,-8.154705E-2,6.843083E-1,-1.6815299E-1,-1.4053378E-1,1.2839407E-1,4.6296012E-1,2.1722358E-1,-1.4038332E-1,8.258198E-1,2.858792E-1,-1.594295E-1,8.3576255E-2,5.491044E-1,4.729408E-1,7.6334834E-1,3.380216E-1,5.106085E-1],"categories":[],"categories_nodes":[],"categories_segments":[],"categories_sizes":[],"default_left":[1,1,1,1,1,1,1,1,1,1,1,1,1,1,1,1,1,1,1,1,1,1,1,1,0,1,1,1,1,1,1,0,0,0,0,0,0,0,0,0,0,0,0,0,0,0,0,0,0,0,0,0,0,0,0,0,0,0,0,0,0],"id":12,"left_children":[1,3,5,7,9,11,13,15,17,19,21,23,25,27,29,31,33,35,37,39,41,43,45,47,-1,49,51,53,55,57,59,-1,-1,-1,-1,-1,-1,-1,-1,-1,-1,-1,-1,-1,-1,-1,-1,-1,-1,-1,-1,-1,-1,-1,-1,-1,-1,-1,-1,-1,-1],"loss_changes":[4.5614215E2,5.7699387E1,6.4856064E1,8.164307E0,3.4840595E1,1.3892269E1,1.3992767E1,6.124313E0,7.1741943E0,5.7037888E0,9.867336E0,1.0287497E1,4.8043613E0,1.1353933E1,9.036133E0,1.4858799E0,6.046755E0,5.8369446E0,3.994676E0,1.0850544E1,5.105606E0,8.537742E0,6.1531315E0,9.731648E0,0E0,4.893795E0,1.2140565E1,4.6925325E0,6.7818527E0,5.0803986E0,5.9229584E0,0E0,0E0,0E0,0E0,0E0,0E0,0E0,0E0,0E0,0E0,0E0,0E0,0E0,0E0,0E0,0E0,0E0,0E0,0E0,0E0,0E0,0E0,0E0,0E0,0E0,0E0,0E0,0E0,0E0,0E0],"parents":[2147483647,0,0,1,1,2,2,3,3,4,4,5,5,6,6,7,7,8,8,9,9,10,10,11,11,12,12,13,13,14,14,15,15,16,16,17,17,18,18,19,19,20,20,21,21,22,22,23,23,25,25,26,26,27,27,28,28,29,29,30,30],"right_children":[2,4,6,8,10,12,14,16,18,20,22,24,26,28,30,32,34,36,38,40,42,44,46,48,-1,50,52,54,56,58,60,-1,-1,-1,-1,-1,-1,-1,-1,-1,-1,-1,-1,-1,-1,-1,-1,-1,-1,-1,-1,-1,-1,-1,-1,-1,-1,-1,-1,-1,-1],"split_conditions":[1.05149994E2,9.805E1,1.1075E2,-1.355E1,1.03149994E2,1.07649994E2,1.05149994E2,7.4E0,2.5150002E1,4.865E1,4.5E0,1.015E1,7.5E0,1.115E1,3.5E0,7.25E0,-1.515E1,2.005E1,1.395E1,3.5E0,9.625E1,2.305E1,5.25E0,9.5E0,-1.0449085E-1,1.5E0,2.5E0,2.5E0,1.345E1,1.09649994E2,9.5E0,-9.548871E-2,-1.5103672E-2,-4.8817627E-2,9.832048E-2,-5.494801E-2,-8.497058E-2,1.0762821E-2,-5.5619832E-2,-1.7794678E-2,-5.8108266E-2,-1.0363672E-1,-5.110421E-2,3.5830818E-2,-1.0469212E-2,8.785319E-2,-2.1587897E-2,-1.8042075E-2,1.6483547E-2,5.9435967E-2,2.7887702E-2,-1.8022757E-2,1.06020786E-1,3.6701877E-2,-2.0467954E-2,1.0729726E-2,7.049538E-2,6.071731E-2,9.800055E-2,4.3396052E-2,6.555318E-2],"split_indices":[24,24,24,25,50,50,50,45,43,4,27,45,27,8,27,19,25,43,18,27,50,43,45,26,0,53,53,27,18,50,0,0,0,0,0,0,0,0,0,0,0,0,0,0,0,0,0,0,0,0,0,0,0,0,0,0,0,0,0,0,0],"split_type":[0,0,0,0,0,0,0,0,0,0,0,0,0,0,0,0,0,0,0,0,0,0,0,0,0,0,0,0,0,0,0,0,0,0,0,0,0,0,0,0,0,0,0,0,0,0,0,0,0,0,0,0,0,0,0,0,0,0,0,0,0],"sum_hessian":[4.611E3,2.06E3,2.551E3,7.66E2,1.294E3,1.185E3,1.366E3,3.5E1,7.31E2,6.04E2,6.9E2,6.07E2,5.78E2,2.57E2,1.109E3,1.7E1,1.8E1,6.66E2,6.5E1,4.72E2,1.32E2,2.61E2,4.29E2,5.93E2,1.4E1,4.86E2,9.2E1,1.08E2,1.49E2,2.7E2,8.39E2,1E1,7E0,7E0,1.1E1,1.44E2,5.22E2,2.2E1,4.3E1,1.79E2,2.93E2,5.5E1,7.7E1,1.28E2,1.33E2,8E0,4.21E2,2.05E2,3.88E2,1.05E2,3.81E2,7.7E1,1.5E1,3.4E1,7.4E1,4.6E1,1.03E2,1.07E2,1.63E2,3.6E2,4.79E2],"tree_param":{"num_deleted":"0","num_feature":"54","num_nodes":"61","size_leaf_vector":"0"}},{"base_weights":[1.0793073E-2,-2.3140557E-1,2.3608291E-1,-3.6491597E-1,-7.218084E-2,-5.2113436E-2,3.4480473E-1,-5.954474E-1,-2.6697183E-1,-2.2961204E-1,6.2357027E-2,-1.9517398E-1,1.3338086E-1,1.6043837E-1,4.2549384E-1,-8.460509E-1,-5.0582504E-1,-4.397981E-1,-1.8755111E-1,6.2387856E-3,-3.3042523E-1,1.3264866E-1,-2.8730124E-1,-7.1106285E-2,-4.017625E-1,7.072318E-1,5.0450638E-2,1.17052406E-1,6.068548E-1,3.296713E-1,5.2499604E-1,-8.944515E-1,-5.064628E-1,-2.2344469E-1,-6.117723E-1,-5.306967E-1,-1.0058671E-1,-2.1943408E-1,3.647288E-1,-6.3075876E-1,1.3179007E-1,-3.9870515E-1,-4.4135425E-2,-3.897022E-2,2.6414123E-1,-6.3803345E-1,-1.221987E-1,-0E0,-4.2649424E-1,1.2972026E-1,-4.615095E-1,8.406268E-1,1.176459E-1,-3.0988067E-1,1.2066198E-1,3.682775E-1,4.849901E-2,7.741869E-1,-9.317708E-2,4.1306832E-1,1.24694966E-1,5.405784E-1,-3.6699274E-1],"categories":[],"categories_nodes":[],"categories_segments":[],"categories_sizes":[],"default_left":[1,1,1,1,1,1,1,1,1,1,1,1,1,1,1,1,1,1,1,1,1,1,1,1,1,1,1,1,1,1,1,0,0,0,0,0,0,0,0,0,0,0,0,0,0,0,0,0,0,0,0,0,0,0,0,0,0,0,0,0,0,0,0],"id":13,"left_children":[1,3,5,7,9,11,13,15,17,19,21,23,25,27,29,31,33,35,37,39,41,43,45,47,49,51,53,55,57,59,61,-1,-1,-1,-1,-1,-1,-1,-1,-1,-1,-1,-1,-1,-1,-1,-1,-1,-1,-1,-1,-1,-1,-1,-1,-1,-1,-1,-1,-1,-1,-1,-1],"loss_changes":[2.5734122E2,4.824993E1,7.6607895E1,2.7711609E1,2.2003397E1,1.7792004E1,2.629683E1,7.85231E0,1.1806545E1,1.141498E1,1.3761662E1,9.637509E0,1.3777096E1,1.0371082E1,1.1566467E1,1.1468124E0,7.984894E0,8.307259E0,1.0539595E1,1.1485121E1,6.5036697E0,1.0559698E1,5.293902E0,6.004631E0,4.5683346E0,2.7191792E0,6.470268E0,8.46409E0,5.6928997E0,1.0692352E1,8.530106E0,0E0,0E0,0E0,0E0,0E0,0E0,0E0,0E0,0E0,0E0,0E0,0E0,0E0,0E0,0E0,0E0,0E0,0E0,0E0,0E0,0E0,0E0,0E0,0E0,0E0,0E0,0E0,0E0,0E0,0E0,0E0,0E0],"parents":[2147483647,0,0,1,1,2,2,3,3,4,4,5,5,6,6,7,7,8,8,9,9,10,10,11,11,12,12,13,13,14,14,15,15,16,16,17,17,18,18,19,19,20,20,21,21,22,22,23,23,24,24,25,25,26,26,27,27,28,28,29,29,30,30],"right_children":[2,4,6,8,10,12,14,16,18,20,22,24,26,28,30,32,34,36,38,40,42,44,46,48,50,52,54,56,58,60,62,-1,-1,-1,-1,-1,-1,-1,-1,-1,-1,-1,-1,-1,-1,-1,-1,-1,-1,-1,-1,-1,-1,-1,-1,-1,-1,-1,-1,-1,-1,-1,-1],"split_conditions":[8.595E1,8.505E1,8.505E1,3.875E-1,4.7750002E-1,8.8350006E1,3.6949998E-1,4.55E0,3.1150002E1,3.5E0,5.75E0,4.95E0,4.265E1,2.69E1,8.895E1,6.5E0,5.05E0,8.425E1,2.3349998E1,1.98E1,3.515E1,3.5750002E-1,3.38E-1,3.8349998E-1,-8.700001E0,7.8E0,1.285E1,4.285E1,3E1,3.45E0,7.05E0,-1.14831895E-1,-6.502095E-2,-2.8686382E-2,-7.854084E-2,-6.8132155E-2,-1.2913571E-2,-2.817149E-2,4.6824787E-2,-8.097837E-2,1.6919535E-2,-5.1186755E-2,-5.666215E-3,-5.0030933E-3,3.3911105E-2,-8.191232E-2,-1.5688172E-2,-0E0,-5.4754388E-2,1.6653808E-2,-5.9249733E-2,1.0792174E-1,1.5103672E-2,-3.9783247E-2,1.5490884E-2,4.7280375E-2,6.226423E-3,9.9392034E-2,-1.1962304E-2,5.3030733E-2,1.6008649E-2,6.9400795E-2,-4.7115438E-2],"split_indices":[32,6,6,3,3,32,3,21,15,27,21,21,42,38,32,28,21,32,48,38,15,36,36,36,51,19,18,42,38,51,21,0,0,0,0,0,0,0,0,0,0,0,0,0,0,0,0,0,0,0,0,0,0,0,0,0,0,0,0,0,0,0,0],"split_type":[0,0,0,0,0,0,0,0,0,0,0,0,0,0,0,0,0,0,0,0,0,0,0,0,0,0,0,0,0,0,0,0,0,0,0,0,0,0,0,0,0,0,0,0,0,0,0,0,0,0,0,0,0,0,0,0,0,0,0,0,0,0,0],"sum_hessian":[4.715E3,2.272E3,2.443E3,1.235E3,1.037E3,6.69E2,1.774E3,3.67E2,8.68E2,4.78E2,5.59E2,3.78E2,2.91E2,5.41E2,1.233E3,9.5E1,2.72E2,2.72E2,5.96E2,1.43E2,3.35E2,4.66E2,9.3E1,2.37E2,1.41E2,3.6E1,2.55E2,4.94E2,4.7E1,6.3E2,6.03E2,8.2E1,1.3E1,7.5E1,1.97E2,2.14E2,5.8E1,5.64E2,3.2E1,2.3E1,1.2E2,2.7E2,6.5E1,2.02E2,2.64E2,2.9E1,6.4E1,1.98E2,3.9E1,1.4E1,1.27E2,2.9E1,7E0,4.1E1,2.14E2,1.05E2,3.89E2,3.8E1,9E0,4.47E2,1.83E2,5.93E2,1E1],"tree_param":{"num_deleted":"0","num_feature":"54","num_nodes":"63","size_leaf_vector":"0"}},{"base_weights":[3.2892026E-2,-2.7180183E-1,3.2833564E-1,-5.1562536E-1,-1.7407858E-1,1.4721644E-1,4.6536553E-1,-7.144465E-1,-4.4341654E-1,-3.3416644E-2,-2.3804094E-1,1.876009E-1,-2.9774198E-1,1.945827E-1,5.101952E-1,-8.1601197E-1,-5.1003134E-1,-3.754428E-1,-6.8421865E-1,-4.8566395E-1,3.1395137E-2,-2.5513455E-1,2.2455555E-1,3.0772343E-1,7.03483E-2,-4.7591096E-1,1.1305399E-1,-3.7311766E-2,3.5426578E-1,5.444928E-1,1.9443056E-1,-8.842533E-1,-4.8001537E-1,1.176459E-1,-5.9857404E-1,-6.7509025E-1,-3.196796E-1,-3.0881375E-1,-7.301781E-1,1.502847E-1,-6.3732177E-1,-1.6298352E-1,1.2776111E-1,-4.565574E-1,-2.1664354E-1,3.647288E-1,-3.802515E-1,-3.8300326E-1,3.402912E-1,1.13332175E-1,-3.2655197E-1,-0E0,-7.223949E-1,4.673428E-1,-2.1269041E-1,4.2415106E-1,-1.827696E-1,-0E0,5.207267E-1,5.564325E-1,-3.595766E-1,1.2445946E-1,9.251252E-1],"categories":[],"categories_nodes":[],"categories_segments":[],"categories_sizes":[],"default_left":[1,1,1,1,1,1,1,1,1,1,1,1,1,1,1,1,1,1,1,1,1,1,1,1,1,1,1,1,1,1,1,0,0,0,0,0,0,0,0,0,0,0,0,0,0,0,0,0,0,0,0,0,0,0,0,0,0,0,0,0,0,0,0],"id":14,"left_children":[1,3,5,7,9,11,13,15,17,19,21,23,25,27,29,31,33,35,37,39,41,43,45,47,49,51,53,55,57,59,61,-1,-1,-1,-1,-1,-1,-1,-1,-1,-1,-1,-1,-1,-1,-1,-1,-1,-1,-1,-1,-1,-1,-1,-1,-1,-1,-1,-1,-1,-1,-1,-1],"loss_changes":[4.1303738E2,5.3689545E1,5.7712234E1,8.953293E0,1.448468E1,1.8075304E1,1.5957336E1,3.1479645E0,7.516533E0,1.4876726E1,8.804783E0,1.2928009E1,6.190828E0,7.062516E0,1.216745E1,2.1788025E0,3.3510542E0,5.989746E0,1.5407677E0,6.2452E0,8.300019E0,8.161758E0,3.4423702E0,1.0302616E1,7.9782944E0,6.8759117E0,3.0439944E0,5.232493E0,6.6411247E0,1.1203796E1,5.5776825E0,0E0,0E0,0E0,0E0,0E0,0E0,0E0,0E0,0E0,0E0,0E0,0E0,0E0,0E0,0E0,0E0,0E0,0E0,0E0,0E0,0E0,0E0,0E0,0E0,0E0,0E0,0E0,0E0,0E0,0E0,0E0,0E0],"parents":[2147483647,0,0,1,1,2,2,3,3,4,4,5,5,6,6,7,7,8,8,9,9,10,10,11,11,12,12,13,13,14,14,15,15,16,16,17,17,18,18,19,19,20,20,21,21,22,22,23,23,24,24,25,25,26,26,27,27,28,28,29,29,30,30],"right_children":[2,4,6,8,10,12,14,16,18,20,22,24,26,28,30,32,34,36,38,40,42,44,46,48,50,52,54,56,58,60,62,-1,-1,-1,-1,-1,-1,-1,-1,-1,-1,-1,-1,-1,-1,-1,-1,-1,-1,-1,-1,-1,-1,-1,-1,-1,-1,-1,-1,-1,-1,-1,-1],"split_conditions":[1.0605E2,9.725E1,1.1095E2,5.55E0,-2.85E0,8.85E0,1.015E1,6.5E0,3.645E-1,4.1750002E-1,1.265E1,3.5549998E-1,5.3500004E0,1.045E1,4.905E1,4.565E-1,2.7600002E-1,9.0850006E1,9.19E1,4.0100002E-1,1.9150002E1,8.45E0,3.775E-1,7.95E0,1.225E1,2.0650002E1,5.6499996E0,-3.8000002E0,2.2E1,2.45E1,5.035E-1,-1.1352263E-1,-6.162556E-2,1.5103672E-2,-7.684641E-2,-8.666976E-2,-4.1041255E-2,-3.964627E-2,-9.374207E-2,1.9293921E-2,-8.182094E-2,-2.0924227E-2,1.6402287E-2,-5.8613967E-2,-2.7813233E-2,4.6824787E-2,-4.8817627E-2,-4.9170908E-2,4.3687426E-2,1.4549865E-2,-4.192355E-2,-0E0,-9.2742845E-2,5.9998624E-2,-2.7305722E-2,5.4453563E-2,-2.3464413E-2,-0E0,6.685218E-2,7.143618E-2,-4.6163335E-2,1.5978413E-2,1.1876986E-1],"split_indices":[24,24,24,8,51,51,8,2,10,33,8,10,20,14,4,7,10,24,24,33,23,14,10,14,14,38,20,51,38,23,33,0,0,0,0,0,0,0,0,0,0,0,0,0,0,0,0,0,0,0,0,0,0,0,0,0,0,0,0,0,0,0,0],"split_type":[0,0,0,0,0,0,0,0,0,0,0,0,0,0,0,0,0,0,0,0,0,0,0,0,0,0,0,0,0,0,0,0,0,0,0,0,0,0,0,0,0,0,0,0,0,0,0,0,0,0,0,0,0,0,0,0,0,0,0,0,0,0,0],"sum_hessian":[4.587E3,2.258E3,2.329E3,6.45E2,1.613E3,1.004E3,1.325E3,1.7E2,4.75E2,5.05E2,1.108E3,9.21E2,8.3E1,1.89E2,1.136E3,1.12E2,5.8E1,3.72E2,1.03E2,6.3E1,4.42E2,1.069E3,3.9E1,4.54E2,4.67E2,5.8E1,2.5E1,7.7E1,1.12E2,1.024E3,1.12E2,9.2E1,2E1,7E0,5.1E1,5.7E1,3.15E2,1.2E1,9.1E1,1.2E1,5.1E1,1.46E2,2.96E2,1.7E2,8.99E2,3.2E1,7E0,2E1,4.34E2,4.22E2,4.5E1,2E1,3.8E1,1.2E1,1.3E1,1.8E1,5.9E1,3.6E1,7.6E1,1.011E3,1.3E1,1.03E2,9E0],"tree_param":{"num_deleted":"0","num_feature":"54","num_nodes":"63","size_leaf_vector":"0"}},{"base_weights":[3.2147656E-3,-3.2355693E-1,2.1165274E-1,-5.0615185E-1,-1.0163605E-1,5.5466294E-2,4.0019476E-1,-5.148461E-1,6.428571E-1,-2.7061832E-1,5.108533E-2,-8.509809E-2,2.5231096E-1,2.4711874E-1,4.788178E-1,-6.2657577E-1,-4.3631646E-1,-4.700834E-1,-6.240814E-2,9.380169E-1,2.609093E-2,-1.15855366E-1,4.325904E-1,2.0766455E-1,7.839407E-1,3.3433816E-1,-1.3350312E-1,-6.958839E-2,5.069449E-1,-7.3892915E-1,-5.2797586E-1,-5.882526E-1,-3.2446605E-1,-5.030847E-1,3.802515E-1,3.6790907E-1,-1.416691E-1,6.357245E-2,-5.2209187E-1,-3.2815877E-1,-5.5431344E-2,6.7060286E-1,-3.0881375E-1,1.6053085E-1,5.3468424E-1,1.785976E-1,9.31341E-1,1.4563441E-1,4.5031327E-1,9.1643494E-1,-2.5668323E-1,-6.770662E-1,2.4971007E-1,3.2323194E-1,5.7906127E-1],"categories":[],"categories_nodes":[],"categories_segments":[],"categories_sizes":[],"default_left":[1,1,1,1,1,1,1,1,0,1,1,1,1,1,1,1,1,1,1,0,1,1,1,1,1,1,1,1,1,0,0,0,0,0,0,0,0,0,0,0,0,0,0,0,0,0,0,0,0,0,0,0,0,0,0],"id":15,"left_children":[1,3,5,7,9,11,13,15,-1,17,19,21,23,25,27,29,31,33,35,-1,37,39,41,43,45,47,49,51,53,-1,-1,-1,-1,-1,-1,-1,-1,-1,-1,-1,-1,-1,-1,-1,-1,-1,-1,-1,-1,-1,-1,-1,-1,-1,-1],"loss_changes":[3.156337E2,7.303108E1,8.326462E1,1.0076538E1,2.108012E1,4.2879814E1,1.527626E1,8.342621E0,0E0,1.6024488E1,9.386345E0,1.4385925E1,1.512051E1,1.4542988E1,1.3110916E1,4.099182E0,9.63755E0,5.6761513E0,6.5099807E0,0E0,8.553396E0,1.0899276E1,9.097063E0,9.070847E0,4.209219E0,7.680256E0,1.0631796E1,8.220711E0,1.04509735E1,0E0,0E0,0E0,0E0,0E0,0E0,0E0,0E0,0E0,0E0,0E0,0E0,0E0,0E0,0E0,0E0,0E0,0E0,0E0,0E0,0E0,0E0,0E0,0E0,0E0,0E0],"parents":[2147483647,0,0,1,1,2,2,3,3,4,4,5,5,6,6,7,7,9,9,10,10,11,11,12,12,13,13,14,14,15,15,16,16,17,17,18,18,20,20,21,21,22,22,23,23,24,24,25,25,26,26,27,27,28,28],"right_children":[2,4,6,8,10,12,14,16,-1,18,20,22,24,26,28,30,32,34,36,-1,38,40,42,44,46,48,50,52,54,-1,-1,-1,-1,-1,-1,-1,-1,-1,-1,-1,-1,-1,-1,-1,-1,-1,-1,-1,-1,-1,-1,-1,-1,-1,-1],"split_conditions":[9.15E0,3.775E1,4.065E1,2.625E1,2.2650002E1,2.325E1,1.125E1,3.575E1,8.253158E-2,8.545E1,1.695E1,1.405E1,1.41E1,3.8349998E-1,1.745E1,2.3349998E1,2.225E1,2.3650002E1,7.5E0,1.2042493E-1,4.945E1,3.735E1,3.605E1,2.275E1,1.845E1,1.975E1,6.05E0,4.25E0,3.5E0,-9.486555E-2,-6.778285E-2,-7.552133E-2,-4.1655753E-2,-6.458726E-2,4.8817627E-2,4.723308E-2,-1.8187828E-2,8.161589E-3,-6.702744E-2,-4.2129833E-2,-7.116413E-3,8.609366E-2,-3.964627E-2,2.0609347E-2,6.8644084E-2,2.2928802E-2,1.1956786E-1,1.8696906E-2,5.7812333E-2,1.1765418E-1,-3.2953627E-2,-8.6923435E-2,3.2058395E-2,4.1497316E-2,7.434132E-2],"split_indices":[8,5,5,48,12,12,8,5,0,6,49,8,8,10,12,12,12,48,26,0,4,5,41,48,48,48,19,47,28,0,0,0,0,0,0,0,0,0,0,0,0,0,0,0,0,0,0,0,0,0,0,0,0,0,0],"split_type":[0,0,0,0,0,0,0,0,0,0,0,0,0,0,0,0,0,0,0,0,0,0,0,0,0,0,0,0,0,0,0,0,0,0,0,0,0,0,0,0,0,0,0,0,0,0,0,0,0,0,0,0,0,0,0],"sum_hessian":[4.633E3,1.804E3,2.829E3,9.89E2,8.15E2,1.548E3,1.281E3,9.82E2,7E0,3.87E2,4.28E2,9.03E2,6.45E2,4.36E2,8.45E2,4.03E2,5.79E2,1.97E2,1.9E2,1.1E1,4.17E2,8.53E2,5E1,5.96E2,4.9E1,3.55E2,8.1E1,4.1E1,8.04E2,1.86E2,2.17E2,2.44E2,3.35E2,1.9E2,7E0,2.9E1,1.61E2,3.91E2,2.6E1,1.88E2,6.65E2,3.8E1,1.2E1,5.22E2,7.4E1,1E1,3.9E1,1.36E2,2.19E2,8E0,7.3E1,1.4E1,2.7E1,2.28E2,5.76E2],"tree_param":{"num_deleted":"0","num_feature":"54","num_nodes":"55","size_leaf_vector":"0"}},{"base_weights":[1.5280573E-2,-2.583577E-1,1.9733469E-1,-3.3823258E-1,-7.167597E-2,2.7749358E-2,3.518732E-1,-4.2731655E-1,-2.1632557E-1,-1.1888991E-1,5.979899E-1,-1.2750392E-1,1.6613606E-1,-1.1167274E-1,3.8178292E-1,-5.656937E-1,-3.183331E-1,4.9883607E-3,-3.2350463E-1,-2.795407E-1,3.3241622E-2,-1.176459E-1,7.7309567E-1,-1.987004E-1,1.0991862E-1,8.030934E-2,2.8476387E-1,9.1246605E-2,-6.457588E-1,3.1657445E-1,5.0333184E-1,1.1410635E-1,-6.0104406E-1,-3.816694E-1,-1.0242601E-1,-1.9357474E-1,2.4082494E-1,-3.548387E-1,5.064628E-1,-2.4375866E-1,-9.429299E-1,-1.1148359E-1,1.7751227E-1,5.064628E-1,9.5666856E-1,-2.8611192E-1,9.940147E-2,-2.3649493E-1,2.31341E-1,-4.5684483E-2,2.215519E-1,2.1309233E-1,7.6818377E-1,-3.221319E-1,3.9600158E-1,-8.4559506E-1,-1.176459E-1,-1.5268262E-1,3.3764678E-1,2.9365835E-1,5.639907E-1],"categories":[],"categories_nodes":[],"categories_segments":[],"categories_sizes":[],"default_left":[1,1,1,1,1,1,1,1,1,1,1,1,1,1,1,1,1,1,1,1,1,0,1,1,1,1,1,1,1,1,1,0,0,0,0,0,0,0,0,0,0,0,0,0,0,0,0,0,0,0,0,0,0,0,0,0,0,0,0,0,0],"id":16,"left_children":[1,3,5,7,9,11,13,15,17,19,21,23,25,27,29,31,33,35,37,39,41,-1,43,45,47,49,51,53,55,57,59,-1,-1,-1,-1,-1,-1,-1,-1,-1,-1,-1,-1,-1,-1,-1,-1,-1,-1,-1,-1,-1,-1,-1,-1,-1,-1,-1,-1,-1,-1],"loss_changes":[2.311567E2,2.7582024E1,7.298462E1,1.3968185E1,1.7592806E1,2.858385E1,2.026355E1,1.1086853E1,1.3071136E1,1.2755222E1,4.71262E0,1.0614784E1,7.111763E0,9.697852E0,1.0672165E1,7.989929E0,5.677387E0,8.444767E0,9.733257E0,5.7551785E0,5.6067724E0,0E0,9.989643E-1,1.2612722E1,6.116054E0,7.3139257E0,1.0004797E1,8.226528E0,2.43641E0,8.887367E0,5.8706436E0,0E0,0E0,0E0,0E0,0E0,0E0,0E0,0E0,0E0,0E0,0E0,0E0,0E0,0E0,0E0,0E0,0E0,0E0,0E0,0E0,0E0,0E0,0E0,0E0,0E0,0E0,0E0,0E0,0E0,0E0],"parents":[2147483647,0,0,1,1,2,2,3,3,4,4,5,5,6,6,7,7,8,8,9,9,10,10,11,11,12,12,13,13,14,14,15,15,16,16,17,17,18,18,19,19,20,20,22,22,23,23,24,24,25,25,26,26,27,27,28,28,29,29,30,30],"right_children":[2,4,6,8,10,12,14,16,18,20,22,24,26,28,30,32,34,36,38,40,42,-1,44,46,48,50,52,54,56,58,60,-1,-1,-1,-1,-1,-1,-1,-1,-1,-1,-1,-1,-1,-1,-1,-1,-1,-1,-1,-1,-1,-1,-1,-1,-1,-1,-1,-1,-1,-1],"split_conditions":[9.25E0,2.3349998E1,2.3650002E1,5.5E0,2.825E1,1.105E1,1.5E0,7.3500004E0,4.55E0,7.75E0,7.295E-1,2.175E1,4.5E0,5.55E0,2.645E1,2.95E0,2.1849998E1,2.1349998E1,2.405E1,6.75E0,2.0349998E1,-1.5103672E-2,7.685E-1,1.8849998E1,3.5E0,1.745E1,2.325E1,1.775E1,2.6150002E1,6.975E-1,1.305E1,1.4649255E-2,-7.7163525E-2,-4.8999663E-2,-1.3149704E-2,-2.4851603E-2,3.0917702E-2,-4.555507E-2,6.502095E-2,-3.1294342E-2,-1.2105568E-1,-1.4312539E-2,2.2789465E-2,6.502095E-2,1.22819476E-1,-3.6731757E-2,1.2761407E-2,-3.0361803E-2,2.970013E-2,-5.865087E-3,2.8443381E-2,2.735732E-2,9.862133E-2,-4.135609E-2,5.0839663E-2,-1.08559586E-1,-1.5103672E-2,-1.9601772E-2,4.334793E-2,3.7700586E-2,7.240652E-2],"split_indices":[34,17,17,28,17,34,28,34,21,34,39,48,28,21,17,21,48,17,23,21,48,0,39,37,28,37,17,37,17,13,18,0,0,0,0,0,0,0,0,0,0,0,0,0,0,0,0,0,0,0,0,0,0,0,0,0,0,0,0,0,0],"split_type":[0,0,0,0,0,0,0,0,0,0,0,0,0,0,0,0,0,0,0,0,0,0,0,0,0,0,0,0,0,0,0,0,0,0,0,0,0,0,0,0,0,0,0,0,0,0,0,0,0,0,0,0,0,0,0,0,0,0,0,0,0],"sum_hessian":[4.639E3,1.853E3,2.786E3,1.297E3,5.56E2,1.329E3,1.457E3,7.48E2,5.49E2,5.2E2,3.6E1,6.26E2,7.03E2,8.8E1,1.369E3,3.28E2,4.2E2,1.79E2,3.7E2,2.53E2,2.67E2,7E0,2.9E1,4.82E2,1.44E2,4.09E2,2.94E2,6.4E1,2.4E1,8.93E2,4.76E2,1.6E1,3.12E2,3.24E2,9.6E1,9.7E1,8.2E1,3.57E2,1.3E1,2.41E2,1.2E1,1.33E2,1.34E2,1.3E1,1.6E1,3.73E2,1.09E2,3.7E1,1.07E2,2.16E2,1.93E2,2.57E2,3.7E1,2.7E1,3.7E1,1.7E1,7E0,3.8E1,8.55E2,1.08E2,3.68E2],"tree_param":{"num_deleted":"0","num_feature":"54","num_nodes":"61","size_leaf_vector":"0"}},{"base_weights":[5.85508E-3,-2.7482644E-1,2.8621396E-1,-5.378842E-1,-1.4588328E-1,6.665187E-2,4.017598E-1,-5.930708E-1,-2.0887455E-1,-2.4706191E-1,-2.0179592E-2,1.2510048E-1,-3.056794E-1,5.363827E-1,3.171713E-1,-5.546868E-1,-7.381915E-1,5.4013543E-2,-4.5739713E-1,-2.1774669E-1,-6.634062E-1,-1.8166994E-1,6.0826465E-2,1.5723334E-1,-1.841029E-1,3.595766E-1,-4.0052417E-1,5.922271E-1,2.870948E-1,2.9297405E-1,6.5817606E-1,-6.185555E-1,-3.1207183E-1,-7.8728825E-1,1.176459E-1,-2.9666343E-1,3.9455372E-1,-8.363025E-1,-2.9288936E-1,-7.874494E-1,-1.9397198E-1,-5.3909785E-1,-9.538937E-1,1.3835159E-1,-2.5393388E-1,-4.713171E-2,2.203258E-1,1.7749439E-1,-2.9666343E-1,1.1764684E-1,-7.154472E-1,-6.7060286E-1,-2.1011715E-1,4.1310832E-1,6.925892E-1,3.941206E-1,-4.0339324E-1,-1.21276766E-1,3.1748217E-1,7.5356483E-1,9.317708E-2],"categories":[],"categories_nodes":[],"categories_segments":[],"categories_sizes":[],"default_left":[1,1,1,1,1,1,1,1,1,1,1,1,1,1,1,1,1,1,1,1,1,1,1,1,1,0,1,1,1,1,1,0,0,0,0,0,0,0,0,0,0,0,0,0,0,0,0,0,0,0,0,0,0,0,0,0,0,0,0,0,0],"id":17,"left_children":[1,3,5,7,9,11,13,15,17,19,21,23,25,27,29,31,33,35,37,39,41,43,45,47,49,-1,51,53,55,57,59,-1,-1,-1,-1,-1,-1,-1,-1,-1,-1,-1,-1,-1,-1,-1,-1,-1,-1,-1,-1,-1,-1,-1,-1,-1,-1,-1,-1,-1,-1],"loss_changes":[3.6152844E2,7.774669E1,5.824951E1,1.3541809E1,1.9576214E1,1.7275642E1,1.6951706E1,3.2095947E0,7.2187834E0,1.0237942E1,9.02764E0,6.8369694E0,6.8831167E0,7.872818E0,7.4281464E0,7.7430267E0,5.699074E0,6.4850817E0,3.2607088E0,1.0620708E1,1.5362434E0,5.366894E0,7.9214373E0,5.745881E0,1.04741E1,0E0,4.687215E0,8.204849E0,8.049794E0,8.842461E0,3.1355515E0,0E0,0E0,0E0,0E0,0E0,0E0,0E0,0E0,0E0,0E0,0E0,0E0,0E0,0E0,0E0,0E0,0E0,0E0,0E0,0E0,0E0,0E0,0E0,0E0,0E0,0E0,0E0,0E0,0E0,0E0],"parents":[2147483647,0,0,1,1,2,2,3,3,4,4,5,5,6,6,7,7,8,8,9,9,10,10,11,11,12,12,13,13,14,14,15,15,16,16,17,17,18,18,19,19,20,20,21,21,22,22,23,23,24,24,26,26,27,27,28,28,29,29,30,30],"right_children":[2,4,6,8,10,12,14,16,18,20,22,24,26,28,30,32,34,36,38,40,42,44,46,48,50,-1,52,54,56,58,60,-1,-1,-1,-1,-1,-1,-1,-1,-1,-1,-1,-1,-1,-1,-1,-1,-1,-1,-1,-1,-1,-1,-1,-1,-1,-1,-1,-1,-1,-1],"split_conditions":[1.06350006E2,9.7850006E1,1.10149994E2,2.525E1,2.595E1,1.225E1,4.365E-1,4.515E-1,4.7750002E-1,4.055E1,1.0205E2,4.875E-1,4.3449998E-1,4.865E1,5.0549996E-1,4.415E-1,1.265E1,4.415E-1,8.75E0,4.115E-1,6.68E-1,2.725E1,1.055E1,8.66E-1,5.2250004E-1,4.6163335E-2,4.845E1,9.55E0,8.45E-1,7.55E0,1.05E1,-7.9411685E-2,-4.0064555E-2,-1.0107401E-1,1.5103672E-2,-3.8086385E-2,5.065378E-2,-1.07366584E-1,-3.7601862E-2,-1.0109471E-1,-2.4902603E-2,-6.9210716E-2,-1.22463234E-1,1.776192E-2,-3.260066E-2,-6.0508857E-3,2.828597E-2,2.2787169E-2,-3.8086385E-2,1.5103793E-2,-9.185088E-2,-8.609366E-2,-2.697536E-2,5.3035866E-2,8.891632E-2,5.0598178E-2,-5.178862E-2,-1.5569812E-2,4.0759146E-2,9.6744515E-2,1.1962304E-2],"split_indices":[24,24,24,9,9,14,29,7,29,5,24,7,33,30,7,7,14,33,14,33,29,9,40,29,29,0,4,40,3,40,0,0,0,0,0,0,0,0,0,0,0,0,0,0,0,0,0,0,0,0,0,0,0,0,0,0,0,0,0,0,0],"split_type":[0,0,0,0,0,0,0,0,0,0,0,0,0,0,0,0,0,0,0,0,0,0,0,0,0,0,0,0,0,0,0,0,0,0,0,0,0,0,0,0,0,0,0,0,0,0,0,0,0,0,0,0,0,0,0,0,0,0,0,0,0],"sum_hessian":[4.593E3,2.295E3,2.298E3,7.54E2,1.541E3,7.93E2,1.505E3,6.45E2,1.09E2,8.53E2,6.88E2,6.86E2,1.07E2,5.79E2,9.26E2,5.13E2,1.32E2,5.3E1,5.6E1,7.98E2,5.5E1,2.3E2,4.58E2,6.22E2,6.4E1,1.3E1,9.4E1,4.72E2,1.07E2,8.66E2,6E1,4.05E2,1.08E2,1.25E2,7E0,2.6E1,2.7E1,1.6E1,4E1,3.1E1,7.67E2,4E1,1.5E1,4.2E1,1.88E2,2.73E2,1.85E2,5.96E2,2.6E1,4.1E1,2.3E1,3.8E1,5.6E1,1.71E2,3.01E2,9.3E1,1.4E1,4.8E1,8.18E2,5.1E1,9E0],"tree_param":{"num_deleted":"0","num_feature":"54","num_nodes":"61","size_leaf_vector":"0"}},{"base_weights":[4.8226286E-3,-3.1712076E-1,2.216283E-1,-4.8053434E-1,-1.18124396E-1,8.8932335E-2,3.6214444E-1,-6.262034E-1,-3.808676E-1,-3.714656E-1,-1.5144779E-3,-8.138748E-2,1.487552E-1,1.5445824E-1,4.2051858E-1,-7.444076E-1,-5.280799E-1,-4.5955655E-1,-1.4526439E-1,-2.0696764E-1,-5.4213667E-1,2.8661253E-2,-4.4917047E-1,-3.308902E-1,4.296255E-2,-1.4344421E-1,1.9932018E-1,2.126031E-1,-2.7026418E-1,1.6438486E-1,4.6609098E-1,-8.145107E-1,-2.692065E-1,-5.555477E-1,2.2005486E-1,-2.5379577E-1,-5.371748E-1,-6.4285713E-1,-0E0,-6.4985627E-1,-8.115595E-2,-5.896971E-1,9.317708E-2,-1.785737E-1,8.7597296E-2,-2.2152062E-1,-9.380169E-1,-3.7533435E-1,3.802515E-1,-1.4347114E-1,3.237285E-1,-7.586892E-2,-7.159365E-1,2.7381146E-1,6.8220794E-2,8.027429E-3,3.5689837E-1,4.5218158E-1,-4.8560235E-1,-6.836448E-2,3.4438968E-1,5.7075894E-1,3.551289E-1],"categories":[],"categories_nodes":[],"categories_segments":[],"categories_sizes":[],"default_left":[1,1,1,1,1,1,1,1,1,1,1,1,1,1,1,1,1,1,1,1,1,1,1,1,1,1,1,1,1,1,1,0,0,0,0,0,0,0,0,0,0,0,0,0,0,0,0,0,0,0,0,0,0,0,0,0,0,0,0,0,0,0,0],"id":18,"left_children":[1,3,5,7,9,11,13,15,17,19,21,23,25,27,29,31,33,35,37,39,41,43,45,47,49,51,53,55,57,59,61,-1,-1,-1,-1,-1,-1,-1,-1,-1,-1,-1,-1,-1,-1,-1,-1,-1,-1,-1,-1,-1,-1,-1,-1,-1,-1,-1,-1,-1,-1,-1,-1],"loss_changes":[3.3141293E2,6.203354E1,5.2843216E1,1.4972549E1,2.544434E1,1.4896708E1,1.660173E1,4.550461E0,1.1475952E1,7.4785995E0,8.043421E0,1.1816546E1,1.6004366E1,7.5273223E0,1.2430832E1,6.1022034E0,4.931465E0,7.301964E0,1.1392878E1,7.6709623E0,4.0925865E0,6.7740345E0,3.9375267E0,4.089238E0,1.3322692E1,6.059142E0,8.962967E0,7.860118E0,5.8350883E0,6.8980684E0,1.036647E1,0E0,0E0,0E0,0E0,0E0,0E0,0E0,0E0,0E0,0E0,0E0,0E0,0E0,0E0,0E0,0E0,0E0,0E0,0E0,0E0,0E0,0E0,0E0,0E0,0E0,0E0,0E0,0E0,0E0,0E0,0E0,0E0],"parents":[2147483647,0,0,1,1,2,2,3,3,4,4,5,5,6,6,7,7,8,8,9,9,10,10,11,11,12,12,13,13,14,14,15,15,16,16,17,17,18,18,19,19,20,20,21,21,22,22,23,23,24,24,25,25,26,26,27,27,28,28,29,29,30,30],"right_children":[2,4,6,8,10,12,14,16,18,20,22,24,26,28,30,32,34,36,38,40,42,44,46,48,50,52,54,56,58,60,62,-1,-1,-1,-1,-1,-1,-1,-1,-1,-1,-1,-1,-1,-1,-1,-1,-1,-1,-1,-1,-1,-1,-1,-1,-1,-1,-1,-1,-1,-1,-1,-1],"split_conditions":[2.6150002E1,8.4149994E1,8.755E1,1.645E1,2.025E1,8.345E1,2.995E1,8.105E1,1.945E1,7.565E-1,3.695E1,1.945E1,1.495E1,7.5E0,1.495E1,2.5E0,2.355E1,3.5E0,7.9350006E1,1.535E1,2.2150002E1,1.575E1,2.435E1,3.5E0,3.0349998E1,2.605E1,5.5E0,8.945E1,4.465E-1,1.645E1,3.455E1,-1.045689E-1,-3.4561396E-2,-7.132259E-2,2.8251188E-2,-3.2582927E-2,-6.896383E-2,-8.253159E-2,-0E0,-8.3430156E-2,-1.0419002E-2,-7.570677E-2,1.1962304E-2,-2.2925733E-2,1.1245958E-2,-2.8439365E-2,-1.2042493E-1,-4.8186354E-2,4.8817627E-2,-1.841918E-2,4.1561067E-2,-9.74024E-3,-9.19137E-2,3.515259E-2,8.758354E-3,1.0305812E-3,4.5819495E-2,5.805219E-2,-6.234283E-2,-8.776801E-3,4.42136E-2,7.327545E-2,4.559233E-2],"split_indices":[9,32,32,11,9,32,9,32,37,39,41,23,37,2,37,53,37,27,32,11,11,11,12,52,9,12,2,32,33,11,41,0,0,0,0,0,0,0,0,0,0,0,0,0,0,0,0,0,0,0,0,0,0,0,0,0,0,0,0,0,0,0,0],"split_type":[0,0,0,0,0,0,0,0,0,0,0,0,0,0,0,0,0,0,0,0,0,0,0,0,0,0,0,0,0,0,0,0,0,0,0,0,0,0,0,0,0,0,0,0,0,0,0,0,0,0,0,0,0,0,0,0,0,0,0,0,0,0,0],"sum_hessian":[4.747E3,1.91E3,2.837E3,1.048E3,8.62E2,1.46E3,1.377E3,4.24E2,6.24E2,2.71E2,5.91E2,3.79E2,1.081E3,3.03E2,1.074E3,1.9E2,2.34E2,4.67E2,1.57E2,1.39E2,1.32E2,5.54E2,3.7E1,1.26E2,2.53E2,1.59E2,9.22E2,2.67E2,3.6E1,1.63E2,9.11E2,1.65E2,2.5E1,2.26E2,8E0,1.29E2,3.38E2,3.5E1,1.22E2,3E1,1.09E2,1.23E2,9E0,1.22E2,4.32E2,2.6E1,1.1E1,1.19E2,7E0,1.52E2,1.01E2,1.43E2,1.6E1,5.87E2,3.35E2,1.11E2,1.56E2,8E0,2.8E1,7.1E1,9.2E1,4.67E2,4.44E2],"tree_param":{"num_deleted":"0","num_feature":"54","num_nodes":"63","size_leaf_vector":"0"}},{"base_weights":[6.9209477E-3,-3.2187173E-1,1.9125573E-1,-4.255825E-1,-6.830336E-2,6.931446E-2,3.2691097E-1,-4.8612717E-1,-2.8329965E-1,-3.077915E-1,3.2083265E-2,-2.030008E-2,2.713992E-1,1.7333825E-1,4.1710928E-1,-6.0817224E-1,-4.0214372E-1,-5.2626336E-1,-1.2878084E-1,-1.5413801E-1,-8.0009526E-1,-1.1948893E-1,2.2807768E-1,-7.5894006E-2,2.4860246E-1,-9.054626E-1,2.9027003E-1,-4.3203626E-2,2.6944295E-1,2.5452265E-1,4.9023804E-1,-6.724101E-1,-3.821413E-1,-9.5666856E-1,-3.8194653E-1,-6.616512E-1,-1.1254885E-1,-1.9877593E-1,2.8137633E-1,5.4022974E-1,-2.6037475E-1,-9.729488E-1,-1.176459E-1,-4.091733E-1,1.4953412E-1,7.1518165E-1,1.0028993E-1,-2.7112713E-1,1.4545057E-2,1.9168371E-1,9.471213E-1,1.7964411E-1,4.3233988E-1,2.544308E-1,-1.9784874E-1,4.4730592E-1,9.30314E-2,1.560532E-1,6.7606944E-1,4.4309154E-1,7.92597E-1],"categories":[],"categories_nodes":[],"categories_segments":[],"categories_sizes":[],"default_left":[1,1,1,1,1,1,1,1,1,1,1,1,1,1,1,1,1,1,1,1,1,1,1,1,1,0,1,1,1,1,1,0,0,0,0,0,0,0,0,0,0,0,0,0,0,0,0,0,0,0,0,0,0,0,0,0,0,0,0,0,0],"id":19,"left_children":[1,3,5,7,9,11,13,15,17,19,21,23,25,27,29,31,33,35,37,39,41,43,45,47,49,-1,51,53,55,57,59,-1,-1,-1,-1,-1,-1,-1,-1,-1,-1,-1,-1,-1,-1,-1,-1,-1,-1,-1,-1,-1,-1,-1,-1,-1,-1,-1,-1,-1,-1],"loss_changes":[2.79343E2,4.3469727E1,4.880345E1,9.953827E0,1.1613486E1,2.8219402E1,1.9253845E1,8.175873E0,1.3128197E1,1.0612853E1,1.0117157E1,1.6118265E1,1.0727196E1,1.0823458E1,1.0304092E1,4.57605E0,5.1193085E0,7.5257225E0,6.244686E0,8.143622E0,3.7815285E0,1.4997669E1,9.121738E0,1.5825083E1,7.1098347E0,0E0,7.3007126E0,7.3718815E0,1.1201866E1,1.1247631E1,8.2883E0,0E0,0E0,0E0,0E0,0E0,0E0,0E0,0E0,0E0,0E0,0E0,0E0,0E0,0E0,0E0,0E0,0E0,0E0,0E0,0E0,0E0,0E0,0E0,0E0,0E0,0E0,0E0,0E0,0E0,0E0],"parents":[2147483647,0,0,1,1,2,2,3,3,4,4,5,5,6,6,7,7,8,8,9,9,10,10,11,11,12,12,13,13,14,14,15,15,16,16,17,17,18,18,19,19,20,20,21,21,22,22,23,23,24,24,26,26,27,27,28,28,29,29,30,30],"right_children":[2,4,6,8,10,12,14,16,18,20,22,24,26,28,30,32,34,36,38,40,42,44,46,48,50,-1,52,54,56,58,60,-1,-1,-1,-1,-1,-1,-1,-1,-1,-1,-1,-1,-1,-1,-1,-1,-1,-1,-1,-1,-1,-1,-1,-1,-1,-1,-1,-1,-1,-1],"split_conditions":[8.95E0,8.545E1,1.155E1,2.4849998E1,3.705E1,4.125E1,-1.5E-1,-3.05E0,6.3500004E0,3.655E1,1.7849998E1,9.005E1,8.025E1,2.0849998E1,3.915E1,3.945E1,1.675E1,2.1849998E1,4.055E1,8.59E1,2.37E1,7.8500004E0,7.5E0,2.1349998E1,9.505E1,-1.1624553E-1,2.5E-1,7.5549996E-1,4.6499996E0,2.805E1,9.1350006E1,-8.632567E-2,-4.9060244E-2,-1.22819476E-1,-4.903524E-2,-8.494442E-2,-1.44493E-2,-2.5519347E-2,3.612379E-2,6.935603E-2,-3.3427555E-2,-1.2490957E-1,-1.5103672E-2,-5.2530684E-2,1.919756E-2,9.181679E-2,1.2875469E-2,-3.4807973E-2,1.8673304E-3,2.4608828E-2,1.2159378E-1,2.3063155E-2,5.5504862E-2,3.2664455E-2,-2.540031E-2,5.742624E-2,1.1943601E-2,2.0034496E-2,8.6795464E-2,5.6885187E-2,1.0175557E-1],"split_indices":[8,6,8,12,31,31,25,25,8,31,37,6,6,12,31,31,12,48,31,6,17,8,26,12,6,0,25,39,20,17,6,0,0,0,0,0,0,0,0,0,0,0,0,0,0,0,0,0,0,0,0,0,0,0,0,0,0,0,0,0,0],"split_type":[0,0,0,0,0,0,0,0,0,0,0,0,0,0,0,0,0,0,0,0,0,0,0,0,0,0,0,0,0,0,0,0,0,0,0,0,0,0,0,0,0,0,0,0,0,0,0,0,0,0,0,0,0,0,0,0,0,0,0,0,0],"sum_hessian":[4.608E3,1.655E3,2.953E3,1.174E3,4.81E2,1.556E3,1.397E3,8.22E2,3.52E2,1.42E2,3.39E2,1.078E3,4.78E2,5.18E2,8.79E2,3.33E2,4.89E2,1.36E2,2.16E2,1.09E2,3.3E1,1.91E2,1.48E2,8.94E2,1.84E2,7E0,4.71E2,1.59E2,3.59E2,2.74E2,6.05E2,2.58E2,7.5E1,1.6E1,4.73E2,1.02E2,3.4E1,1.85E2,3.1E1,1.4E1,9.5E1,2.6E1,7E0,9.2E1,9.9E1,3E1,1.18E2,2.83E2,6.11E2,1.71E2,1.3E1,2.66E2,2.05E2,5.4E1,1.05E2,1.78E2,1.81E2,2.23E2,5.1E1,5.25E2,8E1],"tree_param":{"num_deleted":"0","num_feature":"54","num_nodes":"61","size_leaf_vector":"0"}},{"base_weights":[-2.784339E-3,-3.3154553E-1,1.8159223E-1,-5.4892004E-1,-2.373062E-1,2.9688222E-2,3.5423473E-1,-6.2255573E-1,-2.4231355E-1,-4.2972067E-1,-1.2594086E-1,-2.0045638E-1,1.02275595E-1,3.9784524E-1,1.0162629E-1,-3.255249E-1,-6.5340686E-1,1.8816987E-2,-4.82331E-1,-1.859549E-1,-5.0489193E-1,-2.4295038E-1,1.1593573E-1,3.4283268E-1,-2.60222E-1,-2.7506225E-2,2.5542405E-1,3.184631E-1,6.1901826E-1,5.1915843E-2,6.977459E-1,4.5676492E-2,-6.740396E-1,-2.8137633E-1,-6.8704426E-1,5.4022974E-1,-2.0514019E-1,3.0116412E-1,-6.5458983E-1,4.8577398E-2,-5.137976E-1,-5.6025046E-1,-1.1764684E-1,-1.4909226E-1,-5.4791796E-1,-6.559691E-2,3.4934095E-1,5.192056E-1,-3.802515E-1,-8.1446E-2,-4.3641615E-1,-2.938051E-1,5.8777563E-2,3.5918683E-1,-1.9100819E-2,2.0981124E-1,5.0027025E-1,7.700874E-1,5.0329196E-1,-6.428571E-1,8.112577E-2,9.1643494E-1,3.802515E-1],"categories":[],"categories_nodes":[],"categories_segments":[],"categories_sizes":[],"default_left":[1,1,1,1,1,1,1,1,1,1,1,1,1,1,1,1,1,1,1,1,1,1,1,1,1,1,1,1,1,1,1,0,0,0,0,0,0,0,0,0,0,0,0,0,0,0,0,0,0,0,0,0,0,0,0,0,0,0,0,0,0,1,1],"id":20,"left_children":[1,3,5,7,9,11,13,15,17,19,21,23,25,27,29,31,33,35,37,39,41,43,45,47,49,51,53,55,57,59,-1,-1,-1,-1,-1,-1,-1,-1,-1,-1,-1,-1,-1,-1,-1,-1,-1,-1,-1,-1,-1,-1,-1,-1,-1,-1,-1,-1,-1,-1,-1,-1,-1],"loss_changes":[2.8080206E2,3.3938004E1,7.777958E1,1.116478E1,2.4821754E1,2.6390839E1,1.5220673E1,3.4749603E0,6.234645E0,7.6693726E0,2.0906464E1,1.2340021E1,2.3911217E1,2.0562027E1,5.9928083E0,5.2094083E0,4.3555603E0,5.663433E0,7.12449E0,7.8769836E0,6.8477936E0,1.4120783E1,1.0238689E1,4.933324E0,1.0684902E1,1.4984466E1,1.575264E1,1.7098862E1,5.076706E0,3.842111E0,7.347331E-1,0E0,0E0,0E0,0E0,0E0,0E0,0E0,0E0,0E0,0E0,0E0,0E0,0E0,0E0,0E0,0E0,0E0,0E0,0E0,0E0,0E0,0E0,0E0,0E0,0E0,0E0,0E0,0E0,0E0,0E0,0E0,0E0],"parents":[2147483647,0,0,1,1,2,2,3,3,4,4,5,5,6,6,7,7,8,8,9,9,10,10,11,11,12,12,13,13,14,14,15,15,16,16,17,17,18,18,19,19,20,20,21,21,22,22,23,23,24,24,25,25,26,26,27,27,28,28,29,29,30,30],"right_children":[2,4,6,8,10,12,14,16,18,20,22,24,26,28,30,32,34,36,38,40,42,44,46,48,50,52,54,56,58,60,-1,-1,-1,-1,-1,-1,-1,-1,-1,-1,-1,-1,-1,-1,-1,-1,-1,-1,-1,-1,-1,-1,-1,-1,-1,-1,-1,-1,-1,-1,-1,-1,-1],"split_conditions":[2.5150002E1,3.645E1,4.035E1,1.995E1,1.625E1,3.735E1,6.75E0,2.8849998E1,5.45E0,-5.3500004E0,9.35E0,1.7849998E1,1.7849998E1,1.1405E2,3.735E1,2.075E1,2.7849998E1,1.75E1,4.05E0,1.5999999E0,3.505E1,3.35E0,2.045E1,3.705E1,2.5E-1,1.0275E2,4.05E0,4.265E1,7.0000005E-1,2.8000002E0,8.9578345E-2,5.864061E-3,-8.653487E-2,-3.612379E-2,-8.820444E-2,6.935603E-2,-2.6336405E-2,3.8664196E-2,-8.403786E-2,6.2364866E-3,-6.5962605E-2,-7.192634E-2,-1.5103793E-2,-1.9140832E-2,-7.034306E-2,-8.421494E-3,4.4849254E-2,6.6656895E-2,-4.8817627E-2,-1.0456239E-2,-5.6028184E-2,-3.7719425E-2,7.546009E-3,4.6113294E-2,-2.4522103E-3,2.6936086E-2,6.4225934E-2,9.8865725E-2,6.461387E-2,-8.253158E-2,1.04151275E-2,1.1765418E-1,4.8817627E-2],"split_indices":[9,5,5,11,11,5,51,41,21,25,34,49,11,50,15,49,15,9,47,51,41,51,49,5,51,50,51,5,51,47,5,0,0,0,0,0,0,0,0,0,0,0,0,0,0,0,0,0,0,0,0,0,0,0,0,0,0,0,0,0,0,2147483647,2147483647],"split_type":[0,0,0,0,0,0,0,0,0,0,0,0,0,0,0,0,0,0,0,0,0,0,0,0,0,0,0,0,0,0,0,0,0,0,0,0,0,0,0,0,0,0,0,0,0,0,0,0,0,0,0,0,0,0,0,0,0,0,0,0,0,0,0],"sum_hessian":[4.631E3,1.664E3,2.967E3,5.02E2,1.162E3,1.579E3,1.388E3,4.04E2,9.8E1,4.25E2,7.37E2,3.78E2,1.201E3,1.183E3,2.05E2,3.9E1,3.65E2,4.7E1,5.1E1,1.01E2,3.24E2,4.97E2,2.4E2,3.7E1,3.41E2,6.5E2,5.51E2,8.72E2,3.11E2,1.9E2,1.5E1,1.9E1,2E1,3.1E1,3.34E2,1.4E1,3.3E1,9E0,4.2E1,5.9E1,4.2E1,2.83E2,4.1E1,3.81E2,1.16E2,1.35E2,1.05E2,3E1,7E0,1.7E2,1.71E2,1.59E2,4.91E2,4E2,1.51E2,5.47E2,3.25E2,1.33E2,1.78E2,7E0,1.83E2,8E0,7E0],"tree_param":{"num_deleted":"2","num_feature":"54","num_nodes":"63","size_leaf_vector":"0"}},{"base_weights":[3.184246E-2,-2.3428698E-1,3.3319134E-1,-3.9971527E-1,-6.946052E-2,2.2795214E-1,4.570715E-1,-5.294883E-1,-3.015815E-1,2.3323704E-1,-1.1115687E-1,2.5732124E-1,-1.3424203E-1,1.0873625E-1,4.839244E-1,5.0915116E-1,-5.482818E-1,-3.4210688E-1,1.8119217E-1,3.1019464E-1,-2.2649856E-1,4.586052E-2,-1.8459147E-1,1.9973902E-1,4.8234782E-1,-3.2766944E-1,1.7032564E-1,-8.212545E-2,9.471213E-1,6.861697E-1,4.4076303E-1,-1.00890584E-1,-5.8323646E-1,-2.4946317E-1,-6.04308E-1,-9.054626E-1,3.548386E-1,1.0414001E-1,4.6678412E-1,-6.53349E-1,4.5218158E-1,1.2690543E-1,-4.5038664E-1,-4.0749985E-1,-1.1969089E-1,-3.7669358E-1,2.1577695E-1,7.5824845E-1,3.9439672E-1,-5.50173E-1,3.595766E-1,4.4694906E-1,-6.843083E-1,5.8368072E-2,-7.4378306E-1,7.946048E-1,4.435833E-1,3.9538723E-1,6.652457E-1],"categories":[],"categories_nodes":[],"categories_segments":[],"categories_sizes":[],"default_left":[1,1,1,1,1,1,1,1,1,1,1,1,1,1,1,0,1,1,1,1,1,1,1,1,1,1,1,1,0,1,1,0,0,0,0,0,0,0,0,0,0,0,0,0,0,0,0,0,0,0,0,0,0,0,0,0,0,0,0],"id":21,"left_children":[1,3,5,7,9,11,13,15,17,19,21,23,25,27,29,-1,31,33,35,37,39,41,43,45,47,49,51,53,-1,55,57,-1,-1,-1,-1,-1,-1,-1,-1,-1,-1,-1,-1,-1,-1,-1,-1,-1,-1,-1,-1,-1,-1,-1,-1,-1,-1,-1,-1],"loss_changes":[3.7254642E2,6.719122E1,2.8267273E1,1.5487228E1,1.5611077E1,1.2582031E1,9.256165E0,1.0494431E1,1.3801308E1,5.34542E0,1.2560411E1,1.4014351E1,5.271265E0,1.1757571E1,7.7938232E0,0E0,8.018539E0,1.5574051E1,1.0446334E1,4.0605965E0,6.464946E0,1.394187E1,1.0643993E1,8.081985E0,5.073578E0,8.493267E0,8.347338E0,5.6398516E0,0E0,3.9053879E0,7.536484E0,0E0,0E0,0E0,0E0,0E0,0E0,0E0,0E0,0E0,0E0,0E0,0E0,0E0,0E0,0E0,0E0,0E0,0E0,0E0,0E0,0E0,0E0,0E0,0E0,0E0,0E0,0E0,0E0],"parents":[2147483647,0,0,1,1,2,2,3,3,4,4,5,5,6,6,7,7,8,8,9,9,10,10,11,11,12,12,13,13,14,14,16,16,17,17,18,18,19,19,20,20,21,21,22,22,23,23,24,24,25,25,26,26,27,27,29,29,30,30],"right_children":[2,4,6,8,10,12,14,16,18,20,22,24,26,28,30,-1,32,34,36,38,40,42,44,46,48,50,52,54,-1,56,58,-1,-1,-1,-1,-1,-1,-1,-1,-1,-1,-1,-1,-1,-1,-1,-1,-1,-1,-1,-1,-1,-1,-1,-1,-1,-1,-1,-1],"split_conditions":[1.06850006E2,1.0105E2,1.1275E2,9.625E1,-7.3500004E0,8.95E0,2.055E1,1.63E1,2.575E1,4.8800003E1,3.875E-1,2.5849998E1,2.655E1,2.885E1,3.225E1,6.536609E-2,1.8150002E1,4.855E1,6.6499996E0,1.5E0,1.0545E2,4.885E1,3.315E-1,5.45E0,-2.45E0,1.10850006E2,4.22E-1,8.75E0,1.2159378E-1,3.745E-1,3.755E1,-1.2952583E-2,-7.487734E-2,-3.20267E-2,-7.758256E-2,-1.1624553E-1,4.555506E-2,1.3369753E-2,5.99269E-2,-8.387856E-2,5.805219E-2,1.6292432E-2,-5.782175E-2,-5.231584E-2,-1.5366212E-2,-4.8360854E-2,2.770198E-2,9.7345814E-2,5.0633628E-2,-7.063257E-2,4.6163335E-2,5.7380427E-2,-8.785319E-2,7.4934373E-3,-9.548871E-2,1.0201333E-1,5.6948323E-2,5.076079E-2,8.540589E-2],"split_indices":[24,24,24,24,51,51,43,22,43,4,3,43,43,17,15,0,17,4,45,27,24,4,36,45,51,24,36,45,0,36,15,0,0,0,0,0,0,0,0,0,0,0,0,0,0,0,0,0,0,0,0,0,0,0,0,0,0,0,0],"split_type":[0,0,0,0,0,0,0,0,0,0,0,0,0,0,0,0,0,0,0,0,0,0,0,0,0,0,0,0,0,0,0,0,0,0,0,0,0,0,0,0,0,0,0,0,0,0,0,0,0,0,0,0,0,0,0,0,0,0,0],"sum_hessian":[4.644E3,2.466E3,2.178E3,1.23E3,1.236E3,1.179E3,9.99E2,5.28E2,7.02E2,1.49E2,1.087E3,1.091E3,8.8E1,7.2E1,9.27E2,9E0,5.19E2,6.48E2,5.4E1,1.28E2,2.1E1,3.46E2,7.41E2,8.7E2,2.21E2,5.4E1,3.4E1,5.9E1,1.3E1,1.61E2,7.66E2,3.8E1,4.81E2,4.8E2,1.68E2,7E0,4.7E1,5.6E1,7.2E1,1.3E1,8E0,2.98E2,4.8E1,1.66E2,5.75E2,2.3E1,8.47E2,5.2E1,1.69E2,4.1E1,1.3E1,2.6E1,8E0,4.9E1,1E1,1.1E2,5.1E1,6.39E2,1.27E2],"tree_param":{"num_deleted":"0","num_feature":"54","num_nodes":"59","size_leaf_vector":"0"}},{"base_weights":[1.1559174E-2,-2.7196488E-1,2.792844E-1,-5.0013065E-1,-1.752282E-1,1.5133435E-1,4.6667543E-1,-5.953045E-1,-3.1767374E-1,-2.8368515E-1,-7.298906E-2,-9.3323916E-2,1.821498E-1,-3.0881375E-1,4.7666913E-1,-1.3397443E-1,-6.1789376E-1,-3.678801E-1,7.4378306E-1,-3.4988874E-1,-0E0,7.802831E-2,-1.5148644E-1,-3.91348E-1,1.0242601E-1,1.3836421E-1,3.4201223E-1,4.4465417E-1,7.120124E-1,-4.673428E-1,3.0116412E-1,-6.360397E-1,-0E0,-5.8967566E-1,-2.3010325E-1,-5.05046E-1,-2.676369E-1,-2.9105014E-1,1.7163332E-1,5.249449E-1,-3.7707451E-3,-1.3107666E-1,-8.258198E-1,-7.1234986E-2,-6.0867715E-1,9.380169E-1,-1.0465211E-2,-8.485963E-2,1.6794607E-1,1.2084317E-1,4.22403E-1,1.3685681E-1,4.7604525E-1,8.127608E-1,4.7439343E-1],"categories":[],"categories_nodes":[],"categories_segments":[],"categories_sizes":[],"default_left":[1,1,1,1,1,1,1,1,1,1,1,1,1,0,1,1,1,1,0,1,1,1,1,1,1,1,1,1,1,0,0,0,0,0,0,0,0,0,0,0,0,0,0,0,0,0,0,0,0,0,0,0,0,0,0],"id":22,"left_children":[1,3,5,7,9,11,13,15,17,19,21,23,25,-1,27,29,31,33,-1,35,37,39,41,43,45,47,49,51,53,-1,-1,-1,-1,-1,-1,-1,-1,-1,-1,-1,-1,-1,-1,-1,-1,-1,-1,-1,-1,-1,-1,-1,-1,-1,-1],"loss_changes":[3.5397058E2,4.9860367E1,5.7403107E1,1.1485992E1,1.759885E1,1.077533E1,7.64592E0,4.4729004E0,1.2525993E1,1.4491703E1,9.742886E0,9.366451E0,8.793781E0,0E0,6.922455E0,3.2396278E0,4.7160645E0,6.6339207E0,0E0,7.820465E0,7.354811E0,1.0314005E1,7.274288E0,4.328328E0,9.216392E0,6.598448E0,4.741375E0,8.085861E0,2.3485527E0,0E0,0E0,0E0,0E0,0E0,0E0,0E0,0E0,0E0,0E0,0E0,0E0,0E0,0E0,0E0,0E0,0E0,0E0,0E0,0E0,0E0,0E0,0E0,0E0,0E0,0E0],"parents":[2147483647,0,0,1,1,2,2,3,3,4,4,5,5,6,6,7,7,8,8,9,9,10,10,11,11,12,12,14,14,15,15,16,16,17,17,19,19,20,20,21,21,22,22,23,23,24,24,25,25,26,26,27,27,28,28],"right_children":[2,4,6,8,10,12,14,16,18,20,22,24,26,-1,28,30,32,34,-1,36,38,40,42,44,46,48,50,52,54,-1,-1,-1,-1,-1,-1,-1,-1,-1,-1,-1,-1,-1,-1,-1,-1,-1,-1,-1,-1,-1,-1,-1,-1,-1,-1],"split_conditions":[1.0575E2,9.725E1,1.1255E2,1.795E1,2.005E1,3.0849998E1,1.245E1,2.7849998E1,3.615E1,6.5E0,4.4349998E-1,1.07649994E2,2.575E1,-3.964627E-2,2.0849998E1,1.6650002E1,2.695E1,7.3500004E0,9.548871E-2,2.175E1,1.01149994E2,6.3500004E0,4.975E-1,2.2349998E1,1.5E0,2.5E0,2.025E1,2.125E1,6.5E0,-5.9998624E-2,3.8664196E-2,-8.1656344E-2,-0E0,-7.570402E-2,-2.9541224E-2,-6.483906E-2,-3.4359887E-2,-3.736574E-2,2.203471E-2,6.739373E-2,-4.8409757E-4,-1.6827947E-2,-1.06020786E-1,-9.145324E-3,-7.814348E-2,1.2042493E-1,-1.3435497E-3,-1.08944895E-2,2.1561332E-2,1.5514146E-2,5.4229144E-2,1.7570015E-2,6.111587E-2,1.0434424E-1,6.0903803E-2],"split_indices":[24,24,24,37,48,15,37,41,41,28,7,24,43,0,37,37,43,45,0,43,24,19,33,38,52,28,38,43,1,0,0,0,0,0,0,0,0,0,0,0,0,0,0,0,0,0,0,0,0,0,0,0,0,0,0],"split_type":[0,0,0,0,0,0,0,0,0,0,0,0,0,0,0,0,0,0,0,0,0,0,0,0,0,0,0,0,0,0,0,0,0,0,0,0,0,0,0,0,0,0,0,0,0,0,0,0,0,0,0,0,0,0,0],"sum_hessian":[4.662E3,2.264E3,2.398E3,6.73E2,1.591E3,1.426E3,9.72E2,4.41E2,2.32E2,7.71E2,8.2E2,1.59E2,1.267E3,1.2E1,9.6E2,2.1E1,4.2E2,2.22E2,1E1,6.25E2,1.46E2,2.8E2,5.4E2,6.3E1,9.6E1,9.96E2,2.71E2,8.47E2,1.13E2,1.2E1,9E0,4.08E2,1.2E1,8.4E1,1.38E2,2.15E2,4.1E2,5.4E1,9.2E1,4.3E1,2.37E2,5.25E2,1.5E1,2.6E1,3.7E1,1.1E1,8.5E1,1.16E2,8.8E2,7.3E1,1.98E2,7.9E1,7.68E2,7.8E1,3.5E1],"tree_param":{"num_deleted":"0","num_feature":"54","num_nodes":"55","size_leaf_vector":"0"}},{"base_weights":[1.7137831E-2,-3.0262497E-1,2.9428822E-1,-5.707362E-1,-1.8308534E-1,1.08318865E-1,3.9319688E-1,-7.177194E-1,-4.753197E-1,-2.6528585E-1,6.482624E-2,1.8647254E-1,-5.3273026E-2,1.893438E-1,4.4380638E-1,-5.9953004E-1,-8.9450485E-1,-1.827696E-1,-5.2506596E-1,-3.3232055E-3,-3.4878996E-1,4.8360178E-1,-9.234189E-3,-1.9072397E-1,2.3630221E-1,-3.4557974E-1,7.067578E-2,3.8174906E-1,-3.2723706E-2,5.2946234E-1,3.0268347E-1,-8.390777E-1,-4.1820425E-1,-9.501142E-1,-1.176459E-1,-4.4917047E-1,2.607001E-1,-5.8553493E-1,-2.4175528E-1,-4.229547E-2,7.844009E-1,-4.4155973E-1,-2.2672966E-1,7.475203E-1,2.3284687E-1,2.9691305E-2,-8.1390274E-1,5.0915116E-1,-3.0530903E-1,-2.0447464E-1,2.7215296E-1,3.0253572E-2,-5.4738533E-1,1.1990182E-1,-5.4022974E-1,-1.8545032E-1,4.3711296E-1,3.415259E-1,-1.8661357E-1,5.5977094E-1,1.7127754E-1,2.0471513E-2,3.67852E-1],"categories":[],"categories_nodes":[],"categories_segments":[],"categories_sizes":[],"default_left":[1,1,1,1,1,1,1,1,1,1,1,1,1,1,1,1,1,1,1,1,1,1,1,1,1,1,1,1,1,1,1,0,0,0,0,0,0,0,0,0,0,0,0,0,0,0,0,0,0,0,0,0,0,0,0,0,0,0,0,0,0,0,0],"id":23,"left_children":[1,3,5,7,9,11,13,15,17,19,21,23,25,27,29,31,33,35,37,39,41,43,45,47,49,51,53,55,57,59,61,-1,-1,-1,-1,-1,-1,-1,-1,-1,-1,-1,-1,-1,-1,-1,-1,-1,-1,-1,-1,-1,-1,-1,-1,-1,-1,-1,-1,-1,-1,-1,-1],"loss_changes":[4.080374E2,6.8367676E1,4.5292496E1,8.902588E0,3.0183727E1,1.0850806E1,1.6488632E1,4.896942E0,5.7120895E0,2.427922E1,1.1484602E1,1.0907921E1,1.0174424E1,1.3785669E1,1.5391541E1,6.4558754E0,4.209961E0,7.134809E0,5.6962814E0,8.220297E0,9.410179E0,3.4714193E0,9.919569E0,5.4970317E0,8.125963E0,6.4058647E0,5.9089074E0,5.49666E0,8.640013E0,8.556442E0,8.941273E0,0E0,0E0,0E0,0E0,0E0,0E0,0E0,0E0,0E0,0E0,0E0,0E0,0E0,0E0,0E0,0E0,0E0,0E0,0E0,0E0,0E0,0E0,0E0,0E0,0E0,0E0,0E0,0E0,0E0,0E0,0E0,0E0],"parents":[2147483647,0,0,1,1,2,2,3,3,4,4,5,5,6,6,7,7,8,8,9,9,10,10,11,11,12,12,13,13,14,14,15,15,16,16,17,17,18,18,19,19,20,20,21,21,22,22,23,23,24,24,25,25,26,26,27,27,28,28,29,29,30,30],"right_children":[2,4,6,8,10,12,14,16,18,20,22,24,26,28,30,32,34,36,38,40,42,44,46,48,50,52,54,56,58,60,62,-1,-1,-1,-1,-1,-1,-1,-1,-1,-1,-1,-1,-1,-1,-1,-1,-1,-1,-1,-1,-1,-1,-1,-1,-1,-1,-1,-1,-1,-1,-1,-1],"split_conditions":[1.05350006E2,9.725E1,1.0925E2,7.3500004E0,1.08350006E2,3.25E0,1.0505E2,3.5000002E-1,7.025E-1,-5.45E0,-2.35E0,4.045E1,1.0725E2,-3.45E0,2.75E0,9.5350006E1,1.098E2,8.05E0,1.077E2,4.645E1,1.02649994E2,1.415E1,2.35E1,1.8150002E1,9.51E1,7.5049996E-1,4.145E1,9.49E1,2.5E0,6.05E0,1.10649994E2,-1.0772287E-1,-5.3690095E-2,-1.2197801E-1,-1.5103672E-2,-5.7665616E-2,3.3469323E-2,-7.5172424E-2,-3.103714E-2,-5.429997E-3,1.0070333E-1,-5.6688532E-2,-2.9108115E-2,9.596851E-2,2.9893458E-2,3.8118432E-3,-1.0449085E-1,6.536609E-2,-3.9196327E-2,-2.625096E-2,3.493967E-2,3.8840284E-3,-7.027468E-2,1.53932925E-2,-6.935603E-2,-2.380857E-2,5.6117643E-2,4.384594E-2,-2.3957912E-2,7.186478E-2,2.1989034E-2,2.6281835E-3,4.722575E-2],"split_indices":[24,24,24,45,50,51,50,51,39,51,51,42,50,51,51,50,50,19,50,42,50,18,22,22,50,39,5,50,2,21,50,0,0,0,0,0,0,0,0,0,0,0,0,0,0,0,0,0,0,0,0,0,0,0,0,0,0,0,0,0,0,0,0],"split_type":[0,0,0,0,0,0,0,0,0,0,0,0,0,0,0,0,0,0,0,0,0,0,0,0,0,0,0,0,0,0,0,0,0,0,0,0,0,0,0,0,0,0,0,0,0,0,0,0,0,0,0,0,0,0,0,0,0,0,0,0,0,0,0],"sum_hessian":[4.603E3,2.137E3,2.466E3,6.58E2,1.479E3,8.57E2,1.609E3,2.57E2,4.01E2,1.111E3,3.68E2,5.78E2,2.79E2,3.21E2,1.288E3,1.56E2,1.01E2,5.9E1,3.42E2,2.69E2,8.42E2,5.5E1,3.13E2,6.7E1,5.11E2,8.3E1,1.96E2,1.72E2,1.49E2,8E2,4.88E2,6.6E1,9E1,9.4E1,7E0,3.7E1,2.2E1,2.81E2,6.1E1,2.57E2,1.2E1,4.77E2,3.65E2,2.6E1,2.9E1,2.99E2,1.4E1,9E0,5.8E1,3.8E1,4.73E2,2.9E1,5.4E1,1.82E2,1.4E1,1.5E1,1.57E2,4.3E1,1.06E2,7.37E2,6.3E1,9.2E1,3.96E2],"tree_param":{"num_deleted":"0","num_feature":"54","num_nodes":"63","size_leaf_vector":"0"}},{"base_weights":[1.585517E-2,-2.2868192E-1,3.6298546E-1,-5.1543415E-1,-1.3689417E-1,1.9828689E-1,4.3860555E-1,-5.809106E-1,-6.967938E-2,-3.102197E-1,-4.5457795E-2,-3.2766944E-1,2.5090173E-1,3.8593626E-1,5.583596E-1,-6.114716E-1,-2.7782738E-1,-2.742144E-1,4.6138197E-1,-2.036134E-1,-5.5142474E-1,-1.0412255E-1,1.1309232E-1,-6.723775E-1,-0E0,1.8930413E-1,4.8317134E-1,1.3424203E-1,4.1276497E-1,2.8924173E-1,6.278251E-1,-7.5482994E-1,-5.5614245E-1,1.2972026E-1,-4.2649424E-1,-4.048356E-1,3.6699274E-1,8.1390274E-1,-9.317708E-2,-2.5734022E-1,5.855327E-2,-6.7436635E-1,-2.6864406E-1,-3.3094674E-1,-6.9320716E-2,1.3506438E-1,-9.054626E-1,-8.538893E-1,-2.2005486E-1,4.673428E-1,-3.548384E-1,-3.8300326E-1,2.1786842E-1,-5.7376422E-2,5.668045E-1,-1.21276766E-1,4.4061443E-1,6.1725914E-1,3.800027E-1,8.363025E-1,1.4855278E-1,2.0603833E-1,6.683659E-1],"categories":[],"categories_nodes":[],"categories_segments":[],"categories_sizes":[],"default_left":[1,1,1,1,1,1,1,1,1,1,1,1,1,1,1,1,1,1,1,1,1,1,1,1,1,1,1,1,1,1,1,0,0,0,0,0,0,0,0,0,0,0,0,0,0,0,0,0,0,0,0,0,0,0,0,0,0,0,0,0,0,0,0],"id":24,"left_children":[1,3,5,7,9,11,13,15,17,19,21,23,25,27,29,31,33,35,37,39,41,43,45,47,49,51,53,55,57,59,61,-1,-1,-1,-1,-1,-1,-1,-1,-1,-1,-1,-1,-1,-1,-1,-1,-1,-1,-1,-1,-1,-1,-1,-1,-1,-1,-1,-1,-1,-1,-1,-1],"loss_changes":[3.903394E2,7.089087E1,2.3551437E1,1.8984146E1,3.235792E1,1.6635891E1,7.9788055E0,5.0789337E0,9.249508E0,1.7996498E1,1.24664955E1,6.168893E0,7.679981E0,6.031021E0,7.188553E0,3.7028046E0,3.313476E0,5.256117E0,4.73845E0,6.9404716E0,7.286331E0,7.6693306E0,8.08808E0,1.9577751E0,4.847572E0,7.1064396E0,5.209341E0,7.003336E0,5.236252E0,6.1796103E0,5.18692E0,0E0,0E0,0E0,0E0,0E0,0E0,0E0,0E0,0E0,0E0,0E0,0E0,0E0,0E0,0E0,0E0,0E0,0E0,0E0,0E0,0E0,0E0,0E0,0E0,0E0,0E0,0E0,0E0,0E0,0E0,0E0,0E0],"parents":[2147483647,0,0,1,1,2,2,3,3,4,4,5,5,6,6,7,7,8,8,9,9,10,10,11,11,12,12,13,13,14,14,15,15,16,16,17,17,18,18,19,19,20,20,21,21,22,22,23,23,24,24,25,25,26,26,27,27,28,28,29,29,30,30],"right_children":[2,4,6,8,10,12,14,16,18,20,22,24,26,28,30,32,34,36,38,40,42,44,46,48,50,52,54,56,58,60,62,-1,-1,-1,-1,-1,-1,-1,-1,-1,-1,-1,-1,-1,-1,-1,-1,-1,-1,-1,-1,-1,-1,-1,-1,-1,-1,-1,-1,-1,-1,-1,-1],"split_conditions":[1.0795E2,9.725E1,1.085E1,1.6650002E1,2.325E1,8.45E0,1.1625E2,2.275E1,8.345E1,5.5E0,1.0575E2,9.5E0,1.05E1,2.5E0,1.8849998E1,8.045E1,2.3150002E1,2.255E1,2.1849998E1,9.95E0,1.03850006E2,6.95E0,2.45E1,1.015E1,1.3700001E1,1.1549999E1,2.215E1,3.41E1,2.5E0,4.4550002E-1,6.05E0,-9.690694E-2,-7.139894E-2,1.6653808E-2,-5.4754388E-2,-5.1973797E-2,4.7115438E-2,1.0449085E-1,-1.1962304E-2,-3.3037975E-2,7.517214E-3,-8.657682E-2,-3.448919E-2,-4.2487763E-2,-8.899565E-3,1.7339898E-2,-1.1624553E-1,-1.09624416E-1,-2.8251188E-2,5.9998624E-2,-4.5555033E-2,-4.9170908E-2,2.7970487E-2,-7.366127E-3,7.2767764E-2,-1.5569812E-2,5.656717E-2,7.9245254E-2,4.8785686E-2,1.07366584E-1,1.9071573E-2,2.645171E-2,8.580647E-2],"split_indices":[24,24,8,44,35,14,24,48,6,27,24,0,0,1,48,6,48,49,48,8,24,8,49,8,44,44,35,35,27,33,19,0,0,0,0,0,0,0,0,0,0,0,0,0,0,0,0,0,0,0,0,0,0,0,0,0,0,0,0,0,0,0,0],"split_type":[0,0,0,0,0,0,0,0,0,0,0,0,0,0,0,0,0,0,0,0,0,0,0,0,0,0,0,0,0,0,0,0,0,0,0,0,0,0,0,0,0,0,0,0,0,0,0,0,0,0,0,0,0,0,0,0,0,0,0,0,0,0,0],"sum_hessian":[4.597E3,2.697E3,1.9E3,6.53E2,2.044E3,5.99E2,1.301E3,5.69E2,8.4E1,7.05E2,1.339E3,5.4E1,5.45E2,9.06E2,3.95E2,5.16E2,5.3E1,6.1E1,2.3E1,4.9E2,2.15E2,9.78E2,3.61E2,2.6E1,2.8E1,4.32E2,1.13E2,8.8E1,8.18E2,8.2E1,3.13E2,1.41E2,3.75E2,1.4E1,3.9E1,5.1E1,1E1,1.4E1,9E0,4.07E2,8.3E1,1.49E2,6.6E1,1.29E2,8.49E2,3.54E2,7E0,1.8E1,8E0,1.2E1,1.6E1,2E1,4.12E2,1.5E1,9.8E1,4.8E1,4E1,1.11E2,7.07E2,1.6E1,6.6E1,2.8E1,2.85E2],"tree_param":{"num_deleted":"0","num_feature":"54","num_nodes":"63","size_leaf_vector":"0"}},{"base_weights":[1.1031692E-2,-2.6452476E-1,2.14843E-1,-4.0934154E-1,-7.218449E-2,1.2854451E-1,4.9533045E-1,-2.805686E-1,-5.122266E-1,5.179198E-2,-2.908748E-1,-3.2680994E-1,1.647843E-1,6.767882E-1,4.006064E-1,-5.1765156E-1,-1.812056E-1,-8.260482E-1,-4.4565588E-1,-7.4531496E-2,2.3738424E-1,-3.7468117E-1,2.7504024E-1,-4.0640643E-1,2.779288E-1,2.6781476E-1,7.601302E-2,7.453535E-1,3.4283268E-1,1.2587757E-1,4.6429425E-1,-5.650928E-1,3.802515E-1,-1.1583779E-1,-4.9320307E-1,-1.176459E-1,-8.735788E-1,-3.637482E-1,-5.771307E-1,-1.2776111E-1,5.645108E-1,2.933107E-1,-7.6584035E-1,-4.1266325E-1,5.553879E-1,-1.0184739E-1,5.9659505E-1,-9.471213E-1,-3.4189403E-1,-2.2005486E-1,7.171382E-1,2.8184462E-1,-2.607001E-1,-1.3006106E-1,1.4754342E-1,4.592095E-1,8.113208E-1,5.845309E-1,-6.428571E-1,-5.0263643E-2,5.9659505E-1,7.3769283E-1,3.670845E-1],"categories":[],"categories_nodes":[],"categories_segments":[],"categories_sizes":[],"default_left":[1,1,1,1,1,1,1,1,1,1,1,1,1,1,1,1,1,1,1,1,1,1,1,1,1,1,1,1,1,1,1,0,0,0,0,0,0,0,0,0,0,0,0,0,0,0,0,0,0,0,0,0,0,0,0,0,0,0,0,0,0,0,0],"id":25,"left_children":[1,3,5,7,9,11,13,15,17,19,21,23,25,27,29,31,33,35,37,39,41,43,45,47,49,51,53,55,57,59,61,-1,-1,-1,-1,-1,-1,-1,-1,-1,-1,-1,-1,-1,-1,-1,-1,-1,-1,-1,-1,-1,-1,-1,-1,-1,-1,-1,-1,-1,-1,-1,-1],"loss_changes":[2.5913754E2,5.4570755E1,6.410418E1,1.4649353E1,2.2906645E1,3.3508945E1,1.0439896E1,1.1615562E1,1.2606445E1,1.2655504E1,1.4568377E1,7.2847185E0,1.7152084E1,4.5978317E0,7.104622E0,6.397087E0,7.0929193E0,3.4571075E0,5.3038483E0,1.0905066E1,1.2355063E1,9.5448E0,4.8899493E0,4.2924824E0,4.0018625E0,6.4956436E0,1.49254265E1,2.953308E0,9.187014E0,6.593563E0,8.584801E0,0E0,0E0,0E0,0E0,0E0,0E0,0E0,0E0,0E0,0E0,0E0,0E0,0E0,0E0,0E0,0E0,0E0,0E0,0E0,0E0,0E0,0E0,0E0,0E0,0E0,0E0,0E0,0E0,0E0,0E0,0E0,0E0],"parents":[2147483647,0,0,1,1,2,2,3,3,4,4,5,5,6,6,7,7,8,8,9,9,10,10,11,11,12,12,13,13,14,14,15,15,16,16,17,17,18,18,19,19,20,20,21,21,22,22,23,23,24,24,25,25,26,26,27,27,28,28,29,29,30,30],"right_children":[2,4,6,8,10,12,14,16,18,20,22,24,26,28,30,32,34,36,38,40,42,44,46,48,50,52,54,56,58,60,62,-1,-1,-1,-1,-1,-1,-1,-1,-1,-1,-1,-1,-1,-1,-1,-1,-1,-1,-1,-1,-1,-1,-1,-1,-1,-1,-1,-1,-1,-1,-1,-1],"split_conditions":[1.0475E2,3.855E1,4.215E1,4.0850002E-1,4.7750002E-1,3.615E1,4.4950002E-1,9.405E1,9.555E1,1.0105E2,3.0349998E1,2.69E1,5.5050004E-1,4.885E1,3.4149998E-1,8.74E1,5.6499996E0,2.7349998E1,6.125E-1,4.2049998E-1,4.9199997E1,3.715E1,3.415E1,7.77E1,3.2E1,9.32E1,8.425E1,8.72E1,1.05E1,2.5E0,3.585E-1,-7.254801E-2,4.8817627E-2,-1.4871542E-2,-6.331863E-2,-1.5103672E-2,-1.12152204E-1,-4.6698894E-2,-7.409346E-2,-1.6402287E-2,7.2473295E-2,3.7655953E-2,-9.832048E-2,-5.2978728E-2,7.130207E-2,-1.307542E-2,7.659235E-2,-1.2159378E-1,-4.3893203E-2,-2.8251188E-2,9.206797E-2,3.618391E-2,-3.3469323E-2,-1.6697561E-2,1.894199E-2,5.895445E-2,1.0415937E-1,7.504352E-2,-8.253158E-2,-6.4529707E-3,7.659235E-2,9.470683E-2,4.7127217E-2],"split_indices":[50,5,5,29,29,5,29,50,50,50,35,43,29,30,36,6,20,15,29,10,30,15,15,6,15,6,6,6,26,52,36,0,0,0,0,0,0,0,0,0,0,0,0,0,0,0,0,0,0,0,0,0,0,0,0,0,0,0,0,0,0,0,0],"split_type":[0,0,0,0,0,0,0,0,0,0,0,0,0,0,0,0,0,0,0,0,0,0,0,0,0,0,0,0,0,0,0,0,0,0,0,0,0,0,0,0,0,0,0,0,0,0,0,0,0,0,0,0,0,0,0,0,0,0,0,0,0,0,0],"sum_hessian":[4.613E3,1.961E3,2.652E3,1.118E3,8.43E2,2.029E3,6.23E2,4.98E2,6.2E2,5.38E2,3.05E2,1.49E2,1.88E3,2.12E2,4.11E2,1.46E2,3.52E2,1.07E2,5.13E2,3.2E2,2.18E2,2.66E2,3.9E1,1.32E2,1.7E1,8.69E2,1.011E3,1.75E2,3.7E1,7.8E1,3.33E2,1.39E2,7E0,2.92E2,6E1,7E0,1E2,3.18E2,1.95E2,2.96E2,2.4E1,2.07E2,1.1E1,2.56E2,1E1,1.8E1,2.1E1,1.3E1,1.19E2,8E0,9E0,8.47E2,2.2E1,2.6E2,7.51E2,3.4E1,1.41E2,3E1,7E0,5.7E1,2.1E1,8.6E1,2.47E2],"tree_param":{"num_deleted":"0","num_feature":"54","num_nodes":"63","size_leaf_vector":"0"}},{"base_weights":[2.152645E-2,-2.5525647E-1,3.3687803E-1,-5.2644825E-1,-1.3911629E-1,1.351022E-1,4.4575384E-1,-5.821632E-1,-2.651349E-1,-3.299152E-1,-1.693708E-2,1.1268922E-1,7.475203E-1,4.9105972E-1,2.2850506E-1,4.1450314E-2,-6.046319E-1,-5.648521E-1,-9.331558E-2,-1.601582E-1,-4.2058522E-1,4.5206818E-1,-5.626803E-2,-9.1643494E-1,1.2492303E-1,8.6133784E-1,3.802515E-1,6.4059275E-1,3.9923936E-1,-4.2994503E-2,3.873855E-1,-2.1269041E-1,4.5218158E-1,-4.6609578E-1,-6.8506485E-1,-7.480934E-1,-6.580423E-2,1.624155E-1,-4.3412706E-1,-2.512184E-1,3.0805868E-1,2.8339757E-2,-4.5494056E-1,2.3706827E-1,9.695124E-1,-1.7766449E-1,7.725948E-2,9.443464E-2,5.210787E-1,2.551912E-1,6.847448E-1,-1.2171125E-2,4.4557157E-1,1.15075074E-1,-5.259992E-1,6.081969E-2,5.2869457E-1],"categories":[],"categories_nodes":[],"categories_segments":[],"categories_sizes":[],"default_left":[1,1,1,1,1,1,1,1,1,1,1,1,1,1,1,1,1,1,1,1,1,1,1,0,1,0,0,1,1,1,1,0,0,0,0,0,0,0,0,0,0,0,0,0,0,0,0,0,0,0,0,0,0,0,0,0,0],"id":26,"left_children":[1,3,5,7,9,11,13,15,17,19,21,23,25,27,29,31,33,35,37,39,41,43,45,-1,47,-1,-1,49,51,53,55,-1,-1,-1,-1,-1,-1,-1,-1,-1,-1,-1,-1,-1,-1,-1,-1,-1,-1,-1,-1,-1,-1,-1,-1,-1,-1],"loss_changes":[4.0511267E2,7.773233E1,4.7565735E1,1.0599487E1,4.032733E1,1.0312667E1,1.3720551E1,8.615814E0,6.6769304E0,1.0297089E1,1.9465288E1,9.24968E0,7.8170204E-1,1.572467E1,1.0597826E1,2.340505E0,6.2424316E0,4.2393217E0,7.446491E0,1.01301E1,6.8324966E0,8.812738E0,1.58334055E1,0E0,8.693919E0,0E0,0E0,7.309265E0,1.3841675E1,6.998406E0,7.0539E0,0E0,0E0,0E0,0E0,0E0,0E0,0E0,0E0,0E0,0E0,0E0,0E0,0E0,0E0,0E0,0E0,0E0,0E0,0E0,0E0,0E0,0E0,0E0,0E0,0E0,0E0],"parents":[2147483647,0,0,1,1,2,2,3,3,4,4,5,5,6,6,7,7,8,8,9,9,10,10,11,11,12,12,13,13,14,14,15,15,16,16,17,17,18,18,19,19,20,20,21,21,22,22,24,24,27,27,28,28,29,29,30,30],"right_children":[2,4,6,8,10,12,14,16,18,20,22,24,26,28,30,32,34,36,38,40,42,44,46,-1,48,-1,-1,50,52,54,56,-1,-1,-1,-1,-1,-1,-1,-1,-1,-1,-1,-1,-1,-1,-1,-1,-1,-1,-1,-1,-1,-1,-1,-1,-1,-1],"split_conditions":[1.06850006E2,9.7850006E1,1.1055E2,8.655E1,8.405E1,3.965E1,4.865E1,3.05E0,9.425E1,4.365E-1,-9.05E0,6.63E-1,1.0995E2,-1.6500001E0,1.105E2,2.255E1,4.365E-1,1.059E2,9.6649994E1,1.025E2,6.9350004E-1,1.053E2,1.0355E2,-1.1765418E-1,1.1845E2,1.1058068E-1,4.8817627E-2,-3.75E0,1.052E2,7.875E-1,7.5699997E-1,-2.7305722E-2,5.805219E-2,-5.983853E-2,-8.795032E-2,-9.604208E-2,-8.44811E-3,2.0851305E-2,-5.5734307E-2,-3.225204E-2,3.9549336E-2,3.638328E-3,-5.8406394E-2,3.0435411E-2,1.244684E-1,-2.2809006E-2,9.918763E-3,1.2123753E-2,6.689737E-2,3.2762077E-2,8.790923E-2,-1.5625592E-3,5.720358E-2,1.4773623E-2,-6.7529075E-2,7.8081824E-3,6.787512E-2],"split_indices":[24,24,24,32,32,9,30,20,24,29,51,13,24,51,50,49,29,50,24,50,39,50,24,0,50,0,0,25,50,39,39,0,0,0,0,0,0,0,0,0,0,0,0,0,0,0,0,0,0,0,0,0,0,0,0,0,0],"split_type":[0,0,0,0,0,0,0,0,0,0,0,0,0,0,0,0,0,0,0,0,0,0,0,0,0,0,0,0,0,0,0,0,0,0,0,0,0,0,0,0,0,0,0,0,0,0,0,0,0,0,0,0,0,0,0,0,0],"sum_hessian":[4.64E3,2.471E3,2.169E3,7.4E2,1.731E3,7.61E2,1.408E3,6.09E2,1.31E2,6.75E2,1.056E3,7.35E2,2.6E1,1.164E3,2.44E2,2.1E1,5.88E2,4.7E1,8.4E1,2.36E2,4.39E2,8.1E1,9.75E2,8E0,7.27E2,1.9E1,7E0,4.41E2,7.23E2,9E1,1.54E2,1.3E1,8E0,2.18E2,3.7E2,3.4E1,1.3E1,4.8E1,3.6E1,1.98E2,3.8E1,3.1E1,4.08E2,5.8E1,2.3E1,5.11E2,4.64E2,6.76E2,5.1E1,4.6E1,3.95E2,7.3E1,6.5E2,6.8E1,2.2E1,4.7E1,1.07E2],"tree_param":{"num_deleted":"0","num_feature":"54","num_nodes":"57","size_leaf_vector":"0"}},{"base_weights":[1.833576E-2,-2.2805505E-1,2.4497749E-1,-3.3668944E-1,1.0715844E-1,1.2779439E-2,3.1073362E-1,-4.8098114E-1,-2.461595E-1,-1.5184274E-1,1.936328E-1,-1.03360005E-1,2.0677534E-1,2.470612E-1,3.9930645E-1,-5.958732E-1,-3.7692967E-1,-3.1372172E-1,1.8324066E-2,-4.3504015E-1,1.8998326E-1,1.4386997E-1,6.7060286E-1,-1.5999159E-1,4.2604846E-1,3.356444E-1,-2.0355423E-1,1.5631826E-1,4.2009795E-1,5.1369154E-1,2.978969E-1,-6.2378514E-1,3.0116412E-1,-6.0639346E-1,-2.629179E-1,-4.7140068E-1,-2.1877159E-1,-1.8661357E-1,2.2413139E-1,5.553879E-1,-5.927822E-1,-1.2725344E-1,4.8736808E-1,-3.232295E-1,1.8541215E-1,2.1269041E-1,8.938165E-1,-6.4985627E-1,-1.04841486E-1,8.1390274E-1,1.0184739E-1,-1.00890584E-1,4.793167E-1,-8.680638E-1,2.7592933E-1,1.17733724E-1,6.696697E-1,5.5440456E-1,2.7808973E-1,1.4457287E-1,5.7584E-1,1.8787254E-1,4.5442814E-1],"categories":[],"categories_nodes":[],"categories_segments":[],"categories_sizes":[],"default_left":[1,1,1,1,1,1,1,1,1,1,1,1,1,1,1,1,1,1,1,1,1,1,1,1,1,1,1,1,1,1,1,0,0,0,0,0,0,0,0,0,0,0,0,0,0,0,0,0,0,0,0,0,0,0,0,0,0,0,0,0,0,0,0],"id":27,"left_children":[1,3,5,7,9,11,13,15,17,19,21,23,25,27,29,31,33,35,37,39,41,43,45,47,49,51,53,55,57,59,61,-1,-1,-1,-1,-1,-1,-1,-1,-1,-1,-1,-1,-1,-1,-1,-1,-1,-1,-1,-1,-1,-1,-1,-1,-1,-1,-1,-1,-1,-1,-1,-1],"loss_changes":[2.6163657E2,8.1785385E1,3.7228287E1,2.2000809E1,1.2332186E1,